# Input file: /home/jiangnan/Desktop/IntroML/ML_Projet/PoS_Classifier/train_sentence/train_set_sequoia_sentence.txt
# Token count: 46823
# Smoothing: Modified Kneser-Ney
\data\
ngram 1=8191
ngram 2=27926
ngram 3=39072

\1-grams:
-4.483164	<unk>	0
0	<s>	-0.63359964
-1.9938189	</s>	0
-4.353807	Gutenberg	-0.079845615
-4.1651454	Cette	-0.079845615
-3.6492238	exposition	-0.100062035
-2.7278142	nous	-0.19413632
-4.091317	apprend	-0.27179903
-2.0933187	que	-0.50327003
-3.234807	dès	-0.25506058
-1.9656236	le	-0.24426687
-4.353807	XIIe	-0.079845615
-3.8162894	siècle	-0.11765911
-1.688413	à	-0.4333086
-4.353807	Dammarie-sur-Saulx	-0.079845615
-3.043523	entre	-0.22102672
-3.434733	autres	-0.10054361
-3.9323866	sites	-0.079845615
-2.175882	une	-0.18531558
-4.091317	industrie	-0.079845615
-4.353807	métallurgique	-0.079845615
-4.353807	existait	-0.079845615
-1.4343271	.	-2.405934
-4.353807	Ensuite	-0.079845615
-3.1393042	fut	-0.088625096
-4.353807	installée	-0.079845615
-3.3943532	autre	-0.088994846
-4.1651454	forge	-0.079845615
-2.04588	la	-0.21813904
-4.353807	Vacquerie	-0.079845615
-2.1211853	"l"	-0.23912007
-4.353807	emplacement	-0.079845615
-3.2623677	"aujourdhui"	-0.10789261
-1.3383704	de	-0.39775681
-4.353807	Cora	-0.079845615
-4.1651454	En	-0.08796871
-2.0913951	__DIGIT__	-0.5160796
-2.032268	les	-0.17149732
-4.1651454	hauts	-0.079845615
-4.353807	fourneaux	-0.079845615
-1.6389725	et	-0.36344787
-4.353807	fonderies	-0.079845615
-4.353807	Cousances	-0.079845615
-4.353807	virent	-0.079845615
-3.3943532	jour	-0.12735252
-3.2917967	puis	-0.079845615
-3.6492238	Jean	-0.23224914
-4.353807	Baudesson	-0.079845615
-3.5288692	maire	-0.14082773
-4.353807	échevin	-0.079845615
-4.353807	Saint-Dizier	-0.079845615
-4.353807	autorisé	-0.079845615
-2.0991416	par	-0.49188688
-4.091317	lettres	-0.15908174
-4.353807	patentes	-0.079845615
-1.7993473	"d"	-0.3163233
-4.353807	Henri	-0.079845615
-4.1651454	IV	-0.079845615
-4.353807	installa	-0.079845615
-4.353807	Marnaval	-0.079845615
-2.7362044	-	-0.10657446
-2.1998475	qui	-0.26028213
-4.353807	signifiait	-0.079845615
-4.353807	val	-0.079845615
-2.2838535	ou	-0.27866971
-4.1651454	vallée	-0.079845615
-4.353807	Marne	-0.079845615
-2.8865447	bien	-0.13601133
-1.894238	en	-0.25126156
-4.1651454	aval	-0.20487577
-4.353807	connut	-0.079845615
-2.8520248	son	-0.10699187
-4.353807	apogée	-0.079845615
-2.133698	au	-0.24560131
-4.1651454	XIXe	-0.20487577
-4.091317	Tout	-0.079845585
-3.8162894	long	-0.079845615
-1.7896584	des	-0.20547593
-3.5848904	années	-0.12563355
-3.8162894	nouveaux	-0.079845585
-3.9323866	furent	-0.079845615
-4.353807	créés	-0.079845615
-3.3574107	notamment	-0.11463059
-4.353807	Haironville	-0.079845615
-2.5992818	plus	-0.18534341
-4.353807	tard	-0.079845615
-4.1651454	Ancerville	-0.079845615
-4.353807	Amélioration	-0.079845615
-4.091317	sécurité	-0.095650025
-3.0984242	Le	-0.13987733
-2.2808743	a	-0.28316614
-4.353807	invité	-0.079845615
-3.434733	membres	-0.14213136
-1.9003763	du	-0.2428766
-3.5288692	conseil	-0.14683808
-4.1651454	élaborer	-0.079845585
-3.8162894	programme	-0.17682421
-4.1651454	amélioration	-0.20487577
-4.353807	voirie	-0.079845615
-4.1651454	communale	-0.079845615
-4.353807	routière	-0.079845615
-2.017448	pour	-0.38885528
-3.6492238	année	-0.12126571
-4.091317	Il	-0.079845615
-4.1651454	rappelé	-0.079845615
-3.2088914	plusieurs	-0.09834094
-4.353807	automobilistes	-0.079845615
-2.480981	ont	-0.2832321
-4.353807	quitté	-0.079845615
-4.353807	chaussée	-0.079845615
-4.353807	intersection	-0.079845615
-4.353807	RD192	-0.079845615
-4.1651454	chemin	-0.079845615
-4.353807	rural	-0.079845615
-4.353807	Vaux	-0.079845615
-4.353807	Fossés	-0.079845615
-2.4670844	"qu"	-0.6239527
-2.4716673	il	-0.3716819
-4.1651454	convient	-0.11765911
-4.353807	modifier	-0.079845615
-4.091317	régime	-0.12563355
-4.1651454	priorité	-0.079845615
-3.5288692	cet	-0.095650025
-4.1651454	endroit	-0.079845615
-4.353807	Espoir	-0.079845615
-4.353807	Pourquoi	-0.079845615
-2.6517785	ce	-0.26315364
-4.1651454	thème	-0.079845615
-2.9650962	?	-1.1045961
-2.0546095	"	-0.26757982
-4.091317	simplement	-0.079845585
-4.091317	précisé	-0.15908174
-3.8162894	Roger	-0.15908174
-4.353807	Thiriot	-0.079845615
-3.3233657	parce	-0.6397758
-3.7247722	histoire	-0.12563355
-3.4792554	travail	-0.10650559
-4.091317	industriel	-0.079845585
-2.2720566	est	-0.20769858
-3.6492238	ici	-0.079845615
-4.353807	longue	-0.079845615
-4.091317	vieille	-0.079845585
-3.3943532	La	-0.09019304
-3.8162894	présence	-0.112051405
-4.353807	abondante	-0.079845615
-4.1651454	forêt	-0.079845615
-4.353807	fournissant	-0.079845615
-4.1651454	indispensable	-0.079845615
-4.353807	combustible	-0.079845615
-4.091317	liée	-0.15908174
-4.353807	existence	-0.079845615
-4.353807	minerai	-0.079845615
-4.353807	fer	-0.079845615
-4.353807	exploitable	-0.079845615
-4.1651454	ciel	-0.079845615
-3.8162894	ouvert	-0.079845615
-4.353807	incité	-0.079845615
-3.434733	hommes	-0.21105987
-4.091317	créer	-0.079845585
-3.9323866	Un	-0.08740359
-4.091317	voyage	-0.079845615
-4.353807	étonnant	-0.079845615
-2.9111829	où	-0.23791455
-3.8162894	photos	-0.079845615
-4.353807	réalisations	-0.079845615
-4.1651454	vieux	-0.079845615
-4.353807	outils	-0.079845615
-4.1651454	documents	-0.079845615
-3.6492238	anciens	-0.14231081
-4.353807	permettront	-0.079845615
-4.1651454	mesurer	-0.079845585
-4.091317	combien	-0.079845585
-3.6492238	petit	-0.079845615
-4.091317	bout	-0.15908174
-4.1651454	terre	-0.15908174
-3.7247722	France	-0.09834094
-4.1651454	situé	-0.079845615
-2.4670844	aux	-0.12733346
-4.353807	Marches	-0.079845615
-4.1651454	Est	-0.079845585
-3.3943532	lieu	-0.17935944
-3.9323866	passage	-0.16530237
-4.353807	prédilection	-0.079845615
-4.353807	invasions	-0.079845615
-4.353807	labeur	-0.079845615
-3.161284	ses	-0.094578326
-4.091317	habitants	-0.079845585
-4.353807	durs	-0.079845615
-4.1651454	tâche	-0.079845615
-2.9796894	doit	-0.5084182
-2.9509776	être	-0.10149157
-3.8162894	reconnu	-0.18461427
-3.3574107	mis	-0.38435078
-3.7247722	valeur	-0.112051405
-2.6659577	comme	-0.22156696
-3.6492238	devait	-0.15201569
-4.1651454	conclure	-0.079845615
-2.5002298	"n"	-0.5308904
-4.353807	ambition	-0.079845615
-4.091317	apporter	-0.15908174
-2.2123451	un	-0.19413422
-4.353807	modeste	-0.079845615
-4.1651454	témoignage	-0.079845615
-2.1998475	sur	-0.7065874
-3.8162894	passé	-0.079845615
-4.091317	tissu	-0.18461427
-3.7247722	économique	-0.15908174
-4.091317	région	-0.079845615
-4.353807	Elle	-0.079845585
-2.5361156	se	-0.12025037
-4.353807	veut	-0.079845615
-2.9650962	aussi	-0.13646878
-4.353807	message	-0.079845615
-4.1651454	espoir	-0.079845585
-4.1651454	avenir	-0.079845615
-3.9323866	Une	-0.08592361
-3.5848904	nouvelle	-0.14941917
-3.9323866	école	-0.12563355
-3.9323866	commune	-0.1243647
-4.353807	Au	-0.079845615
-3.6492238	cours	-0.19694306
-4.353807	cérémonie	-0.079845615
-4.353807	inauguration	-0.079845615
-4.353807	maternelle	-0.079845585
-3.0793424	été	-0.09749222
-4.353807	inaugurée	-0.079845615
-4.353807	sous-préfet	-0.079845615
-3.434733	président	-0.27638116
-3.3943532	général	-0.2360017
-4.1651454	accompagné	-0.20487577
-4.353807	MM.	-0.079845615
-4.353807	Farinet	-0.079845615
-4.1651454	Verneau	-0.079845615
-4.1651454	maires	-0.079845615
-4.091317	représentants	-0.15908174
-4.1651454	communauté	-0.15908174
-4.353807	communes	-0.079845615
-4.1651454	inspecteur	-0.20487577
-4.353807	académie	-0.079845585
-4.353807	inspectrice	-0.079845615
-4.353807	Education	-0.079845615
-3.434733	nationale	-0.17558983
-4.353807	circonscription	-0.079845615
-4.091317	Après	-0.11463059
-3.0266638	avoir	-0.117523775
-4.353807	coupé	-0.079845615
-4.353807	ruban	-0.079845615
-4.1651454	marque	-0.079845615
-4.353807	symboliquement	-0.079845615
-4.353807	entrée	-0.079845585
-4.1651454	directrice	-0.20487577
-4.091317	conduit	-0.15908174
-4.091317	visite	-0.079845615
-4.1651454	commentée	-0.079845615
-4.091317	locaux	-0.11765911
-4.091317	Dans	-0.11765911
-3.5848904	intervention	-0.14941917
-3.161284	M.	-0.15146449
-4.353807	Soyer	-0.079845615
-2.9509776	fait	-0.16273464
-4.353807	historique	-0.079845615
-3.9323866	existe	-0.079845585
-4.353807	Vignot	-0.079845615
-3.2623677	depuis	-0.1559762
-4.353807	occupait	-0.079845615
-2.7807746	cette	-0.16284452
-3.6492238	date	-0.12563355
-4.091317	bâtiment	-0.079845615
-4.353807	préfabriqué	-0.079845615
-2.012618	dans	-0.8364699
-4.353807	parc	-0.079845615
-4.353807	municipalité	-0.079845585
-4.353807	étudie	-0.079845615
-4.353807	possibilité	-0.079845615
-4.091317	construction	-0.079845615
-4.353807	neuve	-0.079845615
-4.091317	coût	-0.15908174
-4.353807	bâtiments	-0.079845615
-2.6588101	"s"	-0.25178596
-4.353807	élève	-0.079845615
-4.1651454	F	-0.079845585
-2.898689	dont	-0.2939141
-4.1651454	%	-0.08767592
-4.1651454	subvention	-0.079845615
-4.1651454	Etat	-0.079845585
-3.0104344	;	-0.8343091
-4.353807	auto-financement	-0.079845615
-4.353807	emprunt	-0.079845615
-4.353807	mobilier	-0.079845615
-4.1651454	subventionné	-0.079845615
-3.9323866	adressé	-0.2152945
-4.1651454	remerciements	-0.079845615
-4.353807	collectivités	-0.079845615
-4.353807	participantes	-0.079845615
-3.9323866	particulier	-0.104685314
-4.353807	création	-0.079845615
-4.1651454	cinquième	-0.079845615
-3.9323866	classe	-0.11765911
-4.353807	nomination	-0.079845615
-2.8865447	deux	-0.12628506
-4.353807	aides-éducateurs	-0.079845615
-3.5288692	mise	-0.3535972
-4.091317	disposition	-0.15908174
-4.353807	rentrée	-0.079845615
-3.8162894	titulaire	-0.079845615
-4.353807	mobile	-0.079845615
-4.353807	Dumez	-0.079845615
-4.091317	parlé	-0.079845585
-4.1651454	réalisation	-0.079845615
-4.353807	apte	-0.079845615
-4.353807	épanouissement	-0.079845615
-3.7247722	petits	-0.10789261
-3.0984242	non	-0.10377326
-2.9796894	sans	-0.11519683
-4.091317	rappeler	-0.15908174
-3.7247722	rôle	-0.104685314
-4.353807	primordial	-0.079845615
-4.1651454	éducation	-0.079845615
-4.091317	familiale	-0.15908174
-3.3233657	"L"	-0.115877844
-4.353807	remercié	-0.079845615
-4.091317	mené	-0.079845585
-3.9323866	projet	-0.079845615
-3.2917967	ayant	-0.14303242
-3.8162894	associé	-0.18461427
-3.7247722	différentes	-0.079845585
-3.7247722	parties	-0.079845615
-4.353807	intéressées	-0.079845615
-2.3413064	:	-0.22221345
-4.353807	enseignants	-0.079845615
-3.7247722	parents	-0.079845585
-4.091317	conception	-0.079845585
-4.091317	qualité	-0.079845585
-4.353807	matériaux	-0.079845615
-4.091317	utilisés	-0.079845585
-3.5848904	Les	-0.089033164
-3.3943532	enfants	-0.11765911
-4.1651454	pêcheurs	-0.079845615
-4.1651454	Ce	-0.0914349
-2.5811238	sont	-0.12613785
-3.6492238	finalement	-0.10789261
-4.1651454	élèves	-0.20487577
-4.353807	CM2	-0.079845615
-4.1651454	Jacky	-0.079845615
-4.353807	Hedin	-0.079845615
-3.9323866	venus	-0.079845615
-3.6492238	mettre	-0.26116014
-4.353807	main	-0.079845585
-4.353807	sac	-0.079845615
-4.353807	poubelle	-0.079845615
-3.6492238	bonne	-0.079845585
-4.353807	humeur	-0.079845615
-3.2088914	ils	-0.14572084
-3.1844356	étaient	-0.079845615
-3.6492238	là	-0.14683808
-3.9323866	participer	-0.079845615
-4.091317	jeu	-0.079845585
-4.353807	plein-air	-0.079845615
-4.353807	laissant	-0.079845615
-4.1651454	soin	-0.079845615
-3.2088914	leurs	-0.08828416
-4.353807	aînés	-0.079845615
-4.1651454	tirer	-0.079845615
-4.1651454	morale	-0.079845615
-4.091317	seconde	-0.079845615
-3.6492238	opération	-0.11463059
-4.353807	déroulait	-0.079845615
-4.353807	parallèle	-0.079845615
-4.353807	territoire	-0.079845615
-2.4196265	avec	-0.33401334
-3.3233657	groupe	-0.14681397
-4.353807	dizaine	-0.079845615
-4.353807	chevaliers	-0.079845615
-4.353807	gaule	-0.079845615
-4.353807	Barisienne	-0.079845615
-3.9323866	ligne	-0.12563355
-4.353807	nettoyer	-0.079845615
-4.1651454	rives	-0.079845615
-4.353807	curer	-0.079845615
-4.353807	ruisseau	-0.079845615
-4.353807	serpente	-0.079845615
-2.9796894	sous	-0.21840875
-4.1651454	Sources	-0.079845615
-2.8304474	avant	-0.3984435
-4.1651454	jeter	-0.079845615
-4.353807	Ornain	-0.079845615
-3.5288692	destinée	-0.48564428
-4.1651454	faciliter	-0.15908174
-4.1651454	remontée	-0.079845615
-4.353807	fraye	-0.079845615
-4.353807	truites	-0.079845615
-3.2917967	vers	-0.2815776
-4.353807	rivière	-0.079845615
-4.091317	journée	-0.079845585
-4.353807	nettoyage	-0.079845615
-3.9323866	environnement	-0.10213645
-4.353807	placée	-0.079845615
-4.353807	bannière	-0.079845615
-4.353807	Printemps	-0.079845615
-2.4670844	pas	-0.19758455
-3.7247722	connu	-0.112051405
-4.353807	Fains-Véel	-0.079845615
-4.091317	succès	-0.079845585
-2.7807746	était	-0.13445961
-3.5848904	droit	-0.18461427
-3.6492238	attendre	-0.079845615
-4.353807	mitrons	-0.079845615
-4.353807	séduits	-0.079845615
-4.353807	odeur	-0.079845615
-4.1651454	pain	-0.20487577
-4.353807	Depuis	-0.079845615
-3.7247722	quatre	-0.21179375
-3.3943532	ans	-0.18042256
-4.353807	boulangers	-0.079845615
-3.2088914	français	-0.13134855
-4.353807	fêtent	-0.079845615
-4.353807	clients	-0.079845615
-4.353807	Saint-Honoré	-0.079845615
-4.353807	Ceux	-0.079845615
-3.9323866	participé	-0.18461427
-4.091317	événement	-0.079845585
-4.353807	faisant	-0.079845615
-4.091317	découvrir	-0.079845585
-2.9373035	leur	-0.09007128
-4.353807	savoir-faire	-0.079845615
-4.353807	recettes	-0.079845615
-4.353807	CE1	-0.079845615
-4.1651454	Notre-Dame	-0.079845615
-3.3574107	pris	-0.12476082
-3.4792554	part	-0.09688991
-4.353807	festivités	-0.079845615
-4.1651454	Ils	-0.079845615
-4.1651454	reçus	-0.079845615
-4.353807	boulangerie	-0.079845615
-4.353807	Leroy	-0.079845615
-4.091317	visiter	-0.15908174
-4.353807	fournil	-0.079845615
-3.5848904	surtout	-0.079845615
-4.353807	pétrir	-0.079845615
-4.353807	pâte	-0.079845615
-3.0104344	afin	-0.7238045
-4.353807	confectionner	-0.079845615
-4.353807	délicieux	-0.079845615
-4.353807	pains	-0.079845615
-4.353807	chocolat	-0.079845615
-4.353807	dégustés	-0.079845615
-3.7247722	heure	-0.104685314
-4.353807	goûter	-0.079845615
-4.091317	verre	-0.079845615
-4.353807	jus	-0.079845615
-4.353807	fruit	-0.079845615
-4.353807	Quel	-0.079845615
-4.353807	bonheur	-0.079845615
-4.353807	entendre	-0.079845615
-4.353807	boulangère	-0.079845615
-4.353807	conter	-0.079845615
-4.353807	saint	-0.079845615
-4.353807	Honoré	-0.079845615
-3.7247722	jeune	-0.17486282
-3.8162894	homme	-0.1099561
-4.353807	dissipé	-0.079845615
-4.353807	annonçant	-0.079845615
-3.0610635	sa	-0.11750982
-4.353807	nourrice	-0.079845615
-4.1651454	voulait	-0.20487577
-3.3233657	faire	-0.112051405
-4.1651454	prêtre	-0.079845615
-3.2088914	!	-0.868507
-4.353807	Bref	-0.079845615
-4.353807	quittant	-0.079845615
-3.8162894	chacun	-0.079845615
-2.4904988	ne	-0.20654902
-4.353807	rêvait	-0.079845615
-4.091317	remettre	-0.079845585
-4.353807	Sylvie	-0.079845615
-4.353807	Daniel	-0.079845615
-4.1651454	agenda	-0.079845615
-4.1651454	sportif	-0.079845615
-4.353807	Football	-0.079845615
-3.7247722	seule	-0.079845615
-4.091317	rencontre	-0.079845585
-4.353807	licenciés	-0.079845615
-4.353807	FC	-0.079845615
-4.091317	équipe	-0.079845615
-3.5848904	B	-0.10213645
-2.6055071	chez	-0.6341767
-4.353807	seniors	-0.079845615
-4.353807	évoluera	-0.079845615
-4.091317	partir	-0.11765911
-4.1651454	h	-0.095650025
-4.353807	pelouse	-0.079845615
-4.091317	terrain	-0.13787673
-4.1651454	honneur	-0.079845615
-3.6492238	face	-0.19346333
-3.8162894	formation	-0.104685314
-4.353807	Laneuville	-0.079845615
-4.091317	championnat	-0.13787673
-4.353807	promotion	-0.079845615
-3.4792554	première	-0.0914349
-4.1651454	division	-0.079845615
-4.1651454	départementale	-0.079845615
-4.353807	Cet	-0.079845615
-4.1651454	entraînement	-0.079845615
-3.161284	sera	-0.088994846
-4.353807	renouvelé	-0.079845615
-4.091317	demain	-0.079845585
-3.9323866	mêmes	-0.079845585
-4.353807	horaires	-0.079845615
-4.353807	Billard	-0.079845615
-4.353807	Aviron	-0.079845615
-3.8162894	sortie	-0.18461427
-4.353807	nautique	-0.079845615
-3.9323866	organisée	-0.13787673
-4.353807	rameurs	-0.079845615
-3.9323866	club	-0.13787673
-4.353807	Rendez-vous	-0.079845615
-4.091317	local	-0.079845585
-4.353807	Décès	-0.079845615
-3.8162894	Guy	-0.17486282
-4.353807	Hosneld	-0.079845585
-4.353807	Nous	-0.079845615
-4.353807	apprenons	-0.079845615
-3.5288692	beaucoup	-0.25036907
-4.353807	tristesse	-0.079845615
-3.9323866	décès	-0.13787673
-3.3233657	suite	-0.31286496
-4.353807	douloureuse	-0.079845615
-3.6492238	maladie	-0.104685314
-4.091317	âge	-0.079845585
-4.353807	Né	-0.079845615
-4.353807	Abainville	-0.079845615
-3.9323866	février	-0.39673775
-4.353807	arrivé	-0.079845615
-2.8865447	tout	-0.20431079
-3.8162894	famille	-0.11463059
-4.1651454	Void-Vacon	-0.20487577
-2.9111829	avait	-0.15261373
-4.353807	épousé	-0.079845615
-3.7247722	Denise	-0.104685314
-4.353807	Pierrejean	-0.079845615
-3.9323866	octobre	-0.26379552
-4.1651454	union	-0.079845615
-4.091317	nés	-0.079845585
-3.9323866	fille	-0.13103244
-4.353807	garçons	-0.079845615
-3.8162894	âgés	-0.104685314
-3.5848904	respectivement	-0.13787673
-4.091317	consacré	-0.079845585
-3.4792554	toute	-0.11765911
-3.9323866	vie	-0.10213645
-4.353807	professionnelle	-0.079845615
-4.353807	laiterie	-0.079845615
-4.353807	Besnier	-0.079845615
-4.353807	Sorcy-Saint-Martin	-0.079845615
-4.1651454	poste	-0.079845615
-3.7247722	chef	-0.079845585
-4.353807	magasinier	-0.079845615
-4.353807	comptait	-0.079845615
-3.7247722	nombreux	-0.079845615
-3.8162894	amis	-0.079845615
-4.1651454	personne	-0.079845585
-2.8865447	très	-0.14178312
-4.091317	connue	-0.079845585
-4.353807	alentours	-0.079845615
-3.6492238	grand	-0.079845615
-4.353807	dévouement	-0.079845615
-4.091317	participation	-0.079845585
-4.353807	associative	-0.079845615
-4.353807	village	-0.079845615
-4.1651454	assuré	-0.079845585
-4.353807	présidence	-0.079845585
-3.7247722	société	-0.09688991
-4.1651454	pêche	-0.079845615
-4.353807	Gaule	-0.079845615
-4.353807	vidusienne	-0.079845615
-3.5848904	durant	-0.14231081
-4.1651454	entré	-0.079845585
-4.353807	LAS	-0.079845615
-4.353807	handball	-0.079845615
-4.353807	pratiqua	-0.079845615
-3.3943532	près	-0.6924157
-4.353807	vingt-cinq	-0.079845615
-4.353807	Sapeur-pompier	-0.079845615
-4.353807	volontaire	-0.079845615
-4.091317	responsabilité	-0.15908174
-3.7247722	premiers	-0.11765911
-4.353807	cadets	-0.079845615
-4.1651454	sapeurs-pompiers	-0.20487577
-4.091317	Meuse	-0.13787673
-4.1651454	affectionnait	-0.079845615
-4.353807	jardinage	-0.079845615
-4.1651454	loisir	-0.079845615
-4.353807	partagé	-0.079845615
-4.353807	épouse	-0.079845615
-3.6492238	eu	-0.17073967
-3.5288692	douleur	-0.15809757
-4.1651454	perdre	-0.079845615
-3.161284	y	-0.20414048
-3.6492238	quinze	-0.104685314
-3.4792554	jours	-0.21105987
-4.091317	laisse	-0.15908174
-4.1651454	souvenir	-0.079845615
-4.1651454	dévoué	-0.079845615
-4.353807	généreux	-0.079845615
-4.353807	jovial	-0.079845615
-3.4792554	toujours	-0.079845615
-3.9323866	prêt	-0.13787673
-4.091317	rendre	-0.079845615
-4.091317	service	-0.079845615
-4.1651454	obsèques	-0.15908174
-3.3943532	seront	-0.09834094
-4.353807	célébrées	-0.079845585
-4.353807	église	-0.079845585
-4.1651454	Simon	-0.079845615
-3.5848904	rien	-0.17486282
-3.2917967	lui	-0.089836255
-4.353807	échappe	-0.079845615
-4.353807	avicole	-0.079845615
-4.1651454	Belfort	-0.079845615
-4.353807	Cela	-0.079845615
-3.1393042	donc	-0.11906501
-4.353807	trois-quarts	-0.079845615
-4.1651454	digne	-0.079845615
-3.0266638	même	-0.11204651
-3.7247722	nom	-0.13490967
-4.353807	encourage	-0.079845615
-4.353807	éleveurs	-0.079845615
-4.353807	amateurs	-0.079845615
-4.1651454	On	-0.079845585
-3.0104344	peut	-0.23057914
-4.1651454	estimer	-0.079845615
-4.091317	façon	-0.079845615
-4.353807	astronomique	-0.079845615
-3.7247722	nombre	-0.19346333
-4.353807	poules	-0.079845615
-4.353807	canards	-0.079845615
-4.353807	lapins	-0.079845615
-4.353807	logiquement	-0.079845615
-4.1651454	casseroles	-0.079845615
-4.091317	auront	-0.079845585
-4.091317	profité	-0.079845585
-4.353807	engouement	-0.079845615
-4.353807	Voici	-0.079845615
-4.091317	totalement	-0.079845585
-4.091317	cause	-0.112051405
-3.434733	toutes	-0.38609886
-2.9650962	ces	-0.1355087
-4.1651454	petites	-0.079845615
-4.353807	bêtes	-0.079845615
-4.353807	su	-0.079845615
-4.1651454	rassembler	-0.079845615
-4.1651454	bénévoles	-0.079845585
-4.1651454	passionnés	-0.079845615
-3.5288692	quand	-0.13490967
-3.6492238	certains	-0.079845615
-3.7247722	eux	-0.079845585
-4.353807	poulailler	-0.079845615
-4.1651454	époque	-0.079845615
-4.1651454	cher	-0.079845615
-4.353807	Jo	-0.079845615
-4.1651454	élevait	-0.079845615
-3.1393042	"jusqu"	-0.71573794
-4.353807	pigeons	-0.079845615
-4.353807	voyageurs	-0.079845615
-4.353807	spécialistes	-0.079845615
-4.353807	oublié	-0.079845615
-4.1651454	champions	-0.079845615
-4.091317	loin	-0.079845585
-4.091317	meilleur	-0.079845585
-4.353807	kilomètres	-0.079845615
-3.0793424	lors	-0.45872727
-3.6492238	retour	-0.104685314
-4.353807	Evreux	-0.079845615
-4.353807	Bayeux	-0.079845615
-4.353807	Joseph	-0.079845615
-4.353807	Bari	-0.079845615
-4.353807	souvenirs	-0.079845615
-4.353807	Heureusement	-0.079845615
-4.1651454	Claude	-0.079845615
-4.353807	adore	-0.079845615
-4.353807	consacrer	-0.079845615
-3.3574107	temps	-0.11205137
-4.1651454	belle	-0.079845615
-4.353807	résonne	-0.079845615
-4.353807	mille	-0.079845615
-4.353807	chants	-0.079845615
-4.353807	coqs	-0.079845615
-4.353807	heureux	-0.079845615
-3.8162894	faut	-0.10104861
-3.9323866	aller	-0.079845585
-4.1651454	écouter	-0.079845615
-3.5288692	voir	-0.14006843
-4.091317	ça	-0.079845585
-4.353807	Vivifiant	-0.079845615
-4.353807	diable	-0.079845615
-4.353807	Toi	-0.079845615
-3.7247722	mon	-0.079845615
-4.353807	toit	-0.079845615
-4.1651454	manoeuvre	-0.079845615
-3.9323866	menée	-0.13787673
-4.353807	maestria	-0.079845615
-3.9323866	vingt	-0.079845615
-3.8162894	minutes	-0.13787673
-3.3943532	"c"	-0.6924157
-3.6492238	aura	-0.079845615
-4.353807	fallu	-0.079845615
-3.9323866	Thierry	-0.18461427
-4.353807	Guerry	-0.079845615
-4.353807	chauffeur-routier	-0.079845615
-4.353807	Caillaud	-0.079845615
-3.9323866	entreprise	-0.10213645
-4.353807	charpente	-0.079845615
-4.1651454	chargée	-0.20487577
-3.8162894	pose	-0.11765911
-4.353807	toiture	-0.079845615
-4.353807	tennis	-0.079845615
-4.353807	couverts	-0.079845615
-4.353807	pénétrer	-0.079845615
-4.091317	enceinte	-0.079845615
-4.1651454	complexe	-0.079845615
-4.353807	semi-remorque	-0.079845615
-3.9323866	lequel	-0.10789261
-4.353807	chargées	-0.079845615
-3.9323866	quatorze	-0.079845615
-4.1651454	tonnes	-0.20487577
-4.091317	éléments	-0.13787673
-4.091317	bois	-0.15908174
-4.1651454	trente	-0.12563355
-3.9323866	mètres	-0.12563355
-4.353807	destinés	-0.079845615
-4.353807	couverture	-0.079845615
-4.091317	stade	-0.079845585
-4.1651454	"C"	-0.20487577
-4.353807	centimètre	-0.079845615
-4.353807	cabine	-0.079845615
-3.7247722	véhicule	-0.19346333
-3.7247722	pu	-0.12909654
-3.9323866	passer	-0.079845615
-4.353807	poteaux	-0.079845615
-4.353807	portail	-0.079845615
-3.9323866	principal	-0.079845615
-4.353807	chapeau	-0.079845615
-3.9323866	enlevé	-0.079845615
-4.091317	spectaculaire	-0.079845585
-4.1651454	dirigée	-0.20487577
-4.353807	pilote	-0.079845615
-4.353807	convoi	-0.079845615
-4.353807	exceptionnel	-0.079845615
-3.9323866	Parti	-0.12563355
-4.353807	Cholet	-0.079845615
-2.1191344	(	-0.22094446
-4.353807	Maine	-0.079845615
-4.353807	Loire	-0.079845615
-2.1876996	)	-0.40119267
-4.353807	chauffeur	-0.079845615
-4.353807	demi	-0.079845615
-4.353807	pointes	-0.079845615
-4.091317	vitesse	-0.15908174
-4.353807	km	-0.079845615
-3.234807	/	-0.12281247
-3.1844356	moins	-0.16412283
-4.091317	nuit	-0.12563355
-4.1651454	repos	-0.079845615
-4.353807	couvrir	-0.079845615
-4.1651454	distance	-0.079845615
-4.1651454	malaise	-0.079845615
-4.353807	Hier	-0.079845615
-3.9323866	début	-0.17008556
-3.9323866	soirée	-0.079845615
-4.091317	route	-0.079845615
-4.353807	reliant	-0.079845615
-4.1651454	Danjoutin	-0.079845615
-3.5288692	partie	-0.25487304
-4.1651454	neutralisée	-0.20487577
-4.091317	police	-0.12907827
-4.353807	dépanneur	-0.079845615
-4.1651454	fasse	-0.079845615
-4.1651454	tomber	-0.079845615
-4.1651454	automobile	-0.079845585
-4.353807	perchée	-0.079845615
-4.1651454	juste	-0.079845615
-4.353807	dessus	-0.079845615
-4.353807	fortification	-0.079845615
-4.091317	appartenant	-0.27179903
-4.353807	ancienne	-0.079845615
-4.353807	ceinture	-0.079845615
-3.234807	peu	-0.21049397
-2.74476	après	-0.36040372
-4.1651454	noter	-0.20487577
-4.353807	couple	-0.079845615
-3.8162894	chance	-0.079845585
-4.091317	accident	-0.079845585
-2.9509776	soit	-0.10701555
-3.7247722	vu	-0.079845615
-4.353807	témoins	-0.079845615
-4.1651454	alerté	-0.079845615
-4.1651454	secours	-0.20487577
-3.6492238	effet	-0.10334195
-4.1651454	invisible	-0.079845615
-4.1651454	rue	-0.15908174
-4.353807	située	-0.079845615
-4.353807	contrebas	-0.079845615
-4.1651454	traces	-0.079845615
-4.353807	indiquant	-0.079845615
-4.353807	discrètes	-0.079845615
-3.8162894	niveau	-0.14082773
-4.353807	A36	-0.079845615
-3.9323866	effectué	-0.079845615
-3.9323866	hier	-0.079845615
-4.353807	Frôlant	-0.079845615
-4.353807	glissière	-0.079845615
-4.353807	gravi	-0.079845615
-4.353807	talus	-0.079845615
-4.353807	basculé	-0.079845615
-3.6492238	côté	-0.10789261
-4.353807	traversé	-0.079845615
-4.1651454	champ	-0.079845615
-3.9323866	secteur	-0.112051405
-4.353807	boisé	-0.079845615
-4.353807	plonger	-0.079845615
-4.091317	centre	-0.13490967
-4.353807	Leclerc	-0.079845615
-4.1651454	zone	-0.079845585
-4.353807	pic	-0.079845615
-4.353807	Fort	-0.079845615
-4.353807	heureusement	-0.079845615
-4.353807	occupants	-0.079845615
-4.353807	fini	-0.079845615
-4.353807	percuter	-0.079845615
-4.353807	arbre	-0.079845615
-3.7247722	assez	-0.079845615
-4.353807	résistant	-0.079845615
-4.353807	immobiliser	-0.079845615
-3.3943532	dernier	-0.13582048
-4.353807	resté	-0.079845615
-4.091317	équilibre	-0.079845615
-4.1651454	instable	-0.079845615
-4.353807	vide	-0.079845615
-3.7247722	dix	-0.15201569
-4.353807	parcouru	-0.079845615
-4.353807	dénivelé	-0.079845615
-4.1651454	dizaines	-0.079845615
-4.353807	Samu	-0.079845615
-4.353807	parvenus	-0.079845615
-4.353807	crapahuté	-0.079845615
-4.353807	broussailles	-0.079845615
-4.353807	récupérer	-0.079845615
-4.1651454	conducteur	-0.079845615
-4.353807	passagère	-0.079845615
-4.353807	conscients	-0.079845615
-4.353807	Ces	-0.079845615
-3.8162894	derniers	-0.079845585
-4.353807	choqués	-0.079845615
-4.353807	semblaient	-0.079845615
-3.9323866	blessés	-0.079845615
-4.091317	éclipse	-0.12563355
-4.091317	août	-0.14231081
-4.353807	expliquée	-0.079845615
-4.353807	Marie-Marvingt	-0.079845615
-4.1651454	soleil	-0.079845585
-4.353807	produira	-0.079845615
-4.091317	mercredi	-0.079845585
-4.353807	mi-journée	-0.079845615
-4.353807	visible	-0.079845615
-4.1651454	partout	-0.079845615
-4.1651454	Pour	-0.094578326
-4.353807	majeure	-0.079845615
-3.2917967	pays	-0.11372611
-4.353807	agira	-0.079845615
-4.353807	partielle	-0.079845615
-3.6492238	totale	-0.112051405
-4.353807	certainement	-0.079845615
-3.7247722	événements	-0.15201569
-4.353807	naturels	-0.079845615
-4.353807	spectaculaires	-0.079845615
-4.353807	Vingt-six	-0.079845615
-4.1651454	tableaux	-0.079845615
-4.1651454	expliquer	-0.079845615
-4.353807	quinzaine	-0.079845615
-4.353807	définitions	-0.079845615
-4.353807	mots-clefs	-0.079845615
-4.091317	tels	-0.15908174
-4.1651454	amas	-0.079845615
-4.353807	globulaire	-0.079845615
-4.1651454	comètes	-0.079845615
-4.353807	constellations	-0.079845615
-4.353807	galaxie	-0.079845615
-4.353807	mama	-0.079845615
-4.353807	machine	-0.079845615
-4.353807	automatique	-0.079845615
-4.1651454	astronomie	-0.079845615
-4.353807	travers	-0.079845615
-4.1651454	balade	-0.079845615
-4.353807	interplanétaire	-0.079845615
-4.353807	visiteur	-0.079845615
-4.353807	enrichit	-0.079845615
-4.353807	connaissances	-0.079845615
-3.5288692	premier	-0.12262598
-4.353807	astronome	-0.079845615
-4.353807	répondait	-0.079845615
-4.353807	Messier	-0.079845615
-4.353807	surnommé	-0.079845615
-4.353807	furet	-0.079845615
-4.091317	Louis	-0.079845585
-4.353807	XV	-0.079845615
-3.8162894	vendredi	-0.12563355
-4.091317	juin	-0.18461427
-4.353807	ciné	-0.079845615
-4.353807	thématique	-0.079845615
-4.353807	projections	-0.079845615
-4.1651454	films	-0.20487577
-4.353807	diaporamas	-0.079845615
-3.9323866	moment	-0.079845585
-3.7247722	unique	-0.079845615
-4.353807	lune	-0.079845615
-3.3943532	place	-0.10104861
-4.353807	trajectoire	-0.079845615
-4.1651454	participants	-0.079845615
-4.1651454	manifestation	-0.079845585
-4.353807	verront	-0.079845615
-4.091317	offrir	-0.079845585
-4.353807	lunettes	-0.079845615
-4.1651454	protection	-0.11765911
-4.353807	Et	-0.079845615
-4.353807	Lorraine	-0.079845615
-3.8162894	national	-0.079845615
-4.1651454	recherche	-0.12563355
-4.091317	scientifique	-0.079845615
-4.353807	donneront	-0.079845615
-3.5288692	public	-0.09834094
-4.1651454	conseils	-0.079845615
-4.1651454	prévention	-0.079845615
-4.353807	agrémentée	-0.079845615
-3.3574107	concernant	-0.21077222
-4.353807	genèse	-0.079845615
-3.8162894	système	-0.1120397
-4.353807	solaire	-0.079845615
-4.353807	Puis	-0.079845585
-4.353807	J	-0.079845615
-4.1651454	cadre	-0.079845615
-4.091317	ville	-0.11765911
-4.091317	vacances	-0.15908174
-3.6492238	jeunes	-0.079845615
-4.353807	Maxévillois	-0.079845615
-4.353807	accompagnés	-0.079845615
-4.353807	animateurs	-0.079845615
-4.353807	rendront	-0.079845615
-4.353807	Mont-Saint-Martin	-0.079845615
-4.1651454	Metz	-0.079845615
-4.353807	obscurité	-0.079845615
-4.353807	mn	-0.079845615
-4.091317	intéressés	-0.079845585
-3.2917967	peuvent	-0.13630344
-4.091317	inscrire	-0.079845615
-3.6492238	maintenant	-0.104685314
-4.1651454	Petit	-0.20487577
-4.353807	Prince	-0.079845615
-4.353807	Saint	-0.079845615
-4.353807	Exupéry	-0.079845615
-4.353807	primaire	-0.079845615
-4.353807	Jules-Romains	-0.079845615
-4.353807	CATE	-0.079845615
-4.1651454	novembre	-0.13787673
-4.353807	biais	-0.079845615
-3.8162894	activité	-0.10789261
-3.9323866	théâtre	-0.079845615
-4.1651454	expression	-0.079845615
-4.1651454	orale	-0.079845615
-4.1651454	scène	-0.079845615
-4.353807	intervenant	-0.079845615
-4.1651454	Julien	-0.20487577
-4.091317	Georges	-0.079845615
-4.1651454	maître	-0.079845615
-4.1651454	étudié	-0.079845585
-4.353807	dialogues	-0.079845615
-4.091317	livre	-0.079845615
-4.353807	extrait	-0.079845615
-4.353807	quelques-uns	-0.079845615
-3.7247722	mieux	-0.079845615
-4.1651454	Comme	-0.079845615
-4.353807	vrais	-0.079845615
-4.091317	acteurs	-0.079845615
-4.1651454	appris	-0.079845615
-3.8162894	parler	-0.11765911
-4.1651454	fort	-0.079845615
-4.353807	articuler	-0.079845615
-4.353807	tourner	-0.079845615
-4.1651454	dos	-0.079845615
-4.353807	amuser	-0.079845615
-4.1651454	Quelques	-0.079845615
-3.3574107	mois	-0.24314396
-3.9323866	nécessaires	-0.13787673
-4.353807	Pièce	-0.079845615
-4.353807	théâtrale	-0.079845615
-4.353807	présentée	-0.079845615
-4.353807	spacieux	-0.079845615
-4.353807	hall	-0.079845615
-4.353807	copains	-0.079845615
-4.353807	grands-parents	-0.079845615
-4.353807	Leur	-0.079845615
-4.353807	récompense	-0.079845615
-3.434733	aucun	-0.11765911
-4.1651454	doute	-0.079845585
-4.353807	applaudissements	-0.079845615
-4.353807	nourris	-0.079845615
-3.8162894	mars	-0.19350293
-4.353807	CE2	-0.079845615
-4.091317	Mme	-0.079845615
-3.9323866	Philippe	-0.11765911
-3.2088914	avaient	-0.1396292
-3.8162894	montré	-0.10789261
-4.353807	réalisé	-0.079845615
-4.353807	contes	-0.079845615
-4.353807	chat	-0.079845615
-4.353807	perché	-0.079845615
-3.9323866	Marcel	-0.15908174
-4.353807	Aimé	-0.079845615
-4.353807	souligne	-0.079845615
-4.353807	léger	-0.079845615
-4.1651454	populaire	-0.079845615
-4.353807	Faire	-0.079845615
-4.1651454	exprimer	-0.079845615
-3.5848904	important	-0.16802913
-4.091317	"J"	-0.1243647
-4.353807	espère	-0.079845615
-4.353807	remplacera	-0.079845615
-4.353807	télévision	-0.079845585
-4.353807	pluie	-0.079845615
-4.091317	étoiles	-0.079845585
-4.353807	Non	-0.079845615
-3.9323866	agit	-0.104685314
-4.091317	phénomène	-0.079845615
-4.353807	météorologique	-0.079845615
-4.353807	accompagnant	-0.079845615
-4.353807	solstice	-0.079845615
-4.1651454	Deux	-0.079845585
-4.353807	hôtel	-0.079845615
-4.353807	Relais	-0.079845615
-4.353807	Eglise	-0.079845615
-4.353807	étoile	-0.079845615
-4.1651454	restaurant	-0.079845615
-4.353807	touristes	-0.079845615
-4.353807	Suzanne	-0.079845615
-4.1651454	Sequin	-0.079845615
-4.353807	allait	-0.079845615
-4.353807	Dès	-0.079845585
-3.0104344	elle	-0.2012217
-4.1651454	montait	-0.079845615
-4.1651454	entrait	-0.079845615
-4.353807	apprentissage	-0.079845615
-4.353807	couture	-0.079845615
-4.353807	revint	-0.079845615
-4.353807	Seconde	-0.079845615
-3.7247722	Guerre	-0.2482994
-4.091317	mondiale	-0.12563355
-4.353807	fit	-0.079845615
-2.9650962	alors	-0.16932994
-3.9323866	connaissance	-0.13787673
-4.353807	futur	-0.079845615
-4.091317	mari	-0.079845585
-4.353807	plombier-zingueur	-0.079845615
-4.1651454	Bar-le-Duc	-0.20487577
-4.353807	travailla	-0.079845615
-3.7247722	quelque	-0.21179375
-4.353807	droguerie	-0.079845615
-4.353807	barisienne	-0.079845615
-4.353807	épousa	-0.079845615
-4.353807	Gaston	-0.079845615
-4.353807	donna	-0.079845615
-4.091317	sept	-0.079845585
-4.353807	cercle	-0.079845615
-4.353807	familial	-0.079845615
-4.353807	agrandisse	-0.079845615
-4.353807	petits-enfants	-0.079845615
-4.353807	arrière-petits-enfants	-0.079845615
-4.1651454	vivait	-0.079845615
-4.353807	pavillon	-0.079845615
-4.353807	Pilviteuil	-0.079845615
-4.353807	entourée	-0.079845615
-4.1651454	affection	-0.079845615
-4.353807	Sinon	-0.079845615
-3.234807	on	-0.16412283
-3.9323866	pouvait	-0.112051405
-4.353807	rencontrer	-0.079845615
-3.6492238	souvent	-0.079845615
-4.1651454	accompagnée	-0.079845615
-4.353807	champignons	-0.079845615
-4.353807	ramassage	-0.079845615
-4.353807	escargots	-0.079845615
-4.353807	préparait	-0.079845615
-4.1651454	elle-même	-0.079845615
-4.091317	repas	-0.079845585
-4.1651454	maison	-0.079845615
-3.9323866	seuls	-0.079845615
-4.353807	plaisirs	-0.079845615
-4.353807	regarder	-0.079845615
-4.1651454	émissions	-0.20487577
-4.353807	jeux	-0.079845615
-4.091317	mots	-0.079845615
-4.353807	mêlés	-0.079845615
-3.9323866	exercice	-0.12563355
-4.1651454	mémoire	-0.079845585
-4.353807	Ses	-0.079845615
-3.9323866	matin	-0.079845615
-4.353807	Saint-Etienne	-0.079845615
-4.353807	Nos	-0.079845615
-4.353807	condoléances	-0.079845615
-4.1651454	batterie	-0.079845585
-4.1651454	harmonie	-0.079845615
-4.353807	musique	-0.079845615
-4.353807	adoucit	-0.079845615
-4.353807	moeurs	-0.079845615
-4.353807	Exemple	-0.079845615
-4.353807	Harmonie	-0.079845615
-4.1651454	municipale	-0.079845585
-4.091317	Montbéliard	-0.112051405
-4.1651454	soudainement	-0.079845615
-4.353807	rangs	-0.079845615
-4.1651454	éclaircir	-0.079845615
-4.353807	Plus	-0.079845615
-3.7247722	précisément	-0.11765911
-4.353807	composantes	-0.079845615
-4.091317	connaît	-0.079845585
-3.9323866	problèmes	-0.079845585
-3.8162894	Gérard	-0.112051405
-4.353807	Pizzetti	-0.079845615
-4.353807	désaccord	-0.079845615
-4.091317	fonctionnement	-0.13787673
-3.7247722	association	-0.11443326
-4.353807	démissionnait	-0.079845615
-4.353807	foulée	-0.079845615
-4.353807	seize	-0.079845615
-4.353807	avancent	-0.079845615
-4.353807	rendaient	-0.079845615
-2.9373035	également	-0.13721608
-4.353807	tablier	-0.079845615
-4.1651454	delà	-0.079845615
-4.353807	querelle	-0.079845615
-3.3943532	affaire	-0.12949254
-4.353807	triste	-0.079845615
-4.353807	Triste	-0.079845615
-4.353807	musiciens	-0.079845615
-3.8162894	majorité	-0.10213645
-3.9323866	faisaient	-0.079845615
-4.353807	Mais	-0.079845615
-4.353807	désolante	-0.079845615
-4.353807	Certes	-0.079845615
-3.5848904	deuxième	-0.079845615
-4.353807	composante	-0.079845615
-3.1844356	encore	-0.099163264
-3.8162894	complet	-0.079845615
-4.091317	empêche	-0.079845585
-4.353807	dorénavant	-0.079845615
-4.353807	défilés	-0.079845615
-4.353807	montbéliardais	-0.079845615
-4.091317	air	-0.079845615
-4.353807	tristounet	-0.079845615
-4.353807	Que	-0.079845615
-4.091317	lumière	-0.13787673
-4.353807	Expression	-0.079845615
-4.353807	parue	-0.079845615
-4.091317	revue	-0.079845585
-4.353807	n°	-0.079845615
-4.353807	Verdun	-0.079845615
-4.353807	envoyée	-0.079845615
-3.1844356	tous	-0.29564255
-4.353807	Verdunois	-0.079845615
-4.091317	correspond	-0.15908174
-4.1651454	réalité	-0.079845585
-4.1651454	soulignent	-0.079845615
-4.353807	Christian	-0.079845615
-4.353807	Langlois	-0.079845615
-4.353807	Patrice	-0.079845615
-4.353807	Lanini	-0.079845615
-4.091317	délégués	-0.079845585
-4.353807	syndicaux	-0.079845615
-4.353807	CGT	-0.079845615
-4.353807	Rapides	-0.079845615
-4.353807	remercient	-0.079845615
-4.353807	responsabilités	-0.079845615
-4.353807	aménageant	-0.079845615
-4.1651454	parking	-0.079845615
-4.353807	Tour	-0.079845615
-4.353807	Champ	-0.079845615
-4.353807	Hélas	-0.079845615
-4.353807	satisfaisant	-0.079845615
-3.5848904	directeur	-0.23224914
-2.9796894	vous	-0.15055986
-3.7247722	demandé	-0.104685314
-4.1651454	régler	-0.079845615
-4.091317	problème	-0.10213645
-4.091317	vite	-0.079845615
-3.8162894	titre	-0.11765911
-4.353807	rappel	-0.079845615
-3.434733	nos	-0.079845615
-3.8162894	chers	-0.3122045
-4.353807	bambins	-0.079845615
-4.1651454	noir	-0.079845585
-3.7247722	salle	-0.112051405
-4.1651454	attente	-0.079845615
-4.353807	chauffée	-0.079845615
-4.353807	toilettes	-0.079845615
-4.091317	semblent	-0.079845585
-3.9323866	connaître	-0.13787673
-4.1651454	dangers	-0.079845585
-4.353807	côtoient	-0.079845615
-4.353807	attendant	-0.079845615
-4.353807	bus	-0.079845615
-3.6492238	Affaire	-0.2815485
-4.091317	suivre	-0.079845615
-4.353807	Redoux	-0.079845615
-4.353807	quarante-huit	-0.079845615
-3.5288692	heures	-0.15523754
-4.353807	redoux	-0.079845615
-4.1651454	apparition	-0.079845615
-4.1651454	Sur	-0.10789261
-4.353807	agglomération	-0.079845615
-4.353807	collines	-0.079845615
-4.353807	environnantes	-0.079845615
-4.1651454	neige	-0.079845615
-4.353807	complétement	-0.079845615
-4.1651454	disparu	-0.079845615
-4.091317	conséquence	-0.13787673
-3.9323866	immédiate	-0.12563355
-4.353807	canaux	-0.079845615
-4.353807	Avec	-0.079845615
-4.353807	receler	-0.079845615
-3.9323866	avons	-0.099163264
-3.6492238	conscience	-0.112051405
-4.1651454	Dimanche	-0.079845615
-3.9323866	milieu	-0.13787673
-4.091317	après-midi	-0.12563355
-3.161284	quelques	-0.17779012
-4.353807	adonnaient	-0.079845615
-4.353807	glissades	-0.079845615
-4.1651454	eau	-0.079845615
-4.353807	cachée	-0.079845615
-4.353807	recouvrait	-0.079845615
-4.1651454	Apollonies	-0.079845615
-4.1651454	effervescence	-0.079845615
-3.8162894	parmi	-0.3122045
-4.353807	préparant	-0.079845615
-4.353807	coulisses	-0.079845615
-4.353807	festival	-0.079845615
-4.353807	déroulera	-0.079845615
-3.8162894	avril	-0.18066715
-3.8162894	prochain	-0.18461427
-4.353807	Montée	-0.079845615
-4.353807	collège	-0.079845615
-4.353807	Saint-Jean	-0.079845615
-3.6492238	grande	-0.079845615
-3.9323866	va	-0.079845615
-4.353807	draîner	-0.079845615
-4.353807	cité	-0.079845615
-4.353807	Paix	-0.079845615
-4.353807	coins	-0.079845615
-2.6957855	mais	-0.20110595
-4.353807	Canada	-0.079845615
-4.353807	Belgique	-0.079845615
-4.091317	Suisse	-0.13787673
-3.8162894	quel	-0.11765911
-4.091317	apport	-0.079845615
-4.353807	Création	-0.079845615
-4.1651454	atelier	-0.079845615
-4.353807	Arts	-0.079845615
-4.1651454	plastiques	-0.20487577
-4.353807	Brasiliens	-0.079845615
-3.9323866	présents	-0.079845615
-3.9323866	séance	-0.079845615
-4.1651454	découverte	-0.079845615
-4.353807	arts	-0.079845615
-4.1651454	venir	-0.079845615
-4.353807	Sylvain	-0.079845615
-4.353807	Breda	-0.079845615
-3.8162894	présenter	-0.12563355
-4.353807	panel	-0.079845615
-4.1651454	compétences	-0.079845615
-3.5848904	enquête	-0.1702175
-3.9323866	réalisée	-0.13787673
-4.353807	municipal	-0.079845615
-4.353807	évidence	-0.079845615
-3.9323866	intérêt	-0.079845585
-4.091317	adultes	-0.079845585
-3.8162894	activités	-0.079845585
-4.091317	artistiques	-0.079845585
-4.1651454	fallait	-0.079845615
-3.5848904	commission	-0.1454205
-4.353807	culture	-0.079845615
-4.091317	propose	-0.079845585
-4.091317	animation	-0.15908174
-4.353807	foyer	-0.079845615
-4.1651454	communal	-0.079845615
-3.5848904	fin	-0.22209448
-3.8162894	travaux	-0.16530237
-4.353807	loisirs	-0.079845615
-4.091317	rendez-vous	-0.079845585
-4.1651454	animateur	-0.079845615
-4.353807	partager	-0.079845615
-4.353807	passion	-0.079845615
-4.353807	oeuvres	-0.079845615
-4.091317	bouche	-0.079845615
-4.353807	toiles	-0.079845615
-4.353807	acrylique	-0.079845615
-4.353807	huile	-0.079845615
-4.353807	encre	-0.079845615
-4.091317	Chine	-0.079845585
-4.353807	sculpture	-0.079845615
-3.5848904	techniques	-0.079845615
-3.9323866	adhérents	-0.079845615
-4.353807	manient	-0.079845615
-3.3574107	déjà	-0.079845615
-4.353807	brio	-0.079845615
-4.1651454	pourront	-0.079845615
-4.353807	ensemble	-0.079845615
-3.2917967	personnes	-0.1436837
-4.353807	inscrites	-0.079845615
-4.091317	prochaine	-0.079845585
-3.8162894	objectif	-0.079845615
-4.353807	former	-0.079845615
-3.9323866	groupes	-0.079845585
-4.353807	retrouveront	-0.079845615
-4.353807	mercredis	-0.079845615
-4.353807	vendredis	-0.079845615
-4.091317	Soleuvre	-0.079845585
-3.9323866	bas	-0.079845615
-4.353807	Effort	-0.079845615
-4.353807	Basket	-0.079845615
-4.1651454	Mirecourt	-0.079845615
-4.353807	participait	-0.079845615
-3.9323866	dimanche	-0.079845615
-4.091317	tournoi	-0.079845585
-3.9323866	international	-0.079845615
-4.091317	Luxembourg	-0.079845585
-3.9323866	présentées	-0.079845615
-4.353807	équipes	-0.079845615
-3.9323866	haut	-0.13787673
-4.1651454	telle	-0.079845615
-4.091317	Utrecht	-0.079845585
-4.353807	N1	-0.079845615
-4.353807	hollandaise	-0.079845615
-3.8162894	"D"	-0.079845615
-4.1651454	abord	-0.079845585
-4.353807	Mirecurtiens	-0.079845615
-4.353807	rencontrèrent	-0.079845615
-4.353807	accrochèrent	-0.079845615
-4.091317	longtemps	-0.079845585
-4.353807	céder	-0.079845615
-4.353807	36-32	-0.079845615
-4.353807	Deuxième	-0.079845615
-4.1651454	match	-0.079845615
-3.0104344	contre	-0.30868822
-4.353807	Sarrelouis	-0.079845615
-4.353807	N2	-0.079845615
-4.091317	allemande	-0.079845585
-4.353807	Là	-0.079845615
-4.353807	Franck	-0.079845615
-4.353807	Renard	-0.079845615
-4.1651454	jambes	-0.079845615
-4.353807	montrèrent	-0.079845615
-4.353807	sûrs	-0.079845615
-4.091317	intérieur	-0.079845615
-4.353807	raquette	-0.079845615
-4.353807	emportèrent	-0.079845615
-4.353807	45-36	-0.079845615
-4.353807	Lorrains	-0.079845615
-3.9323866	3e	-0.18461427
-4.091317	voisins	-0.079845585
-4.353807	Joeuf	-0.079845615
-4.091317	fatigue	-0.079845585
-4.353807	commençait	-0.079845615
-4.353807	sentir	-0.079845615
-4.353807	perdit	-0.079845615
-3.434733	trop	-0.079845615
-4.353807	ballons	-0.079845615
-4.353807	mini-rencontres	-0.079845615
-3.161284	cela	-0.18169776
-4.353807	pardonne	-0.079845615
-3.8162894	finale	-0.079845615
-4.353807	joua	-0.079845615
-4.091317	bilan	-0.079845585
-4.353807	entraîneur	-0.079845615
-4.1651454	issue	-0.079845585
-4.091317	préparation	-0.079845615
-4.353807	mitigé	-0.079845615
-4.353807	bonnes	-0.079845615
-4.1651454	choses	-0.079845585
-4.353807	matinée	-0.079845615
-4.1651454	physiquement	-0.079845615
-3.3943532	notre	-0.09364274
-4.353807	affaibli	-0.079845615
-4.353807	fur	-0.079845615
-3.7247722	mesure	-0.14231081
-3.8162894	continue	-0.18461427
-4.353807	optimiser	-0.079845615
-3.5288692	points	-0.11463059
-4.353807	forts	-0.079845615
-4.353807	travailler	-0.079845615
-4.353807	faiblesses	-0.079845615
-4.353807	Rixe	-0.079845615
-4.1651454	Belfortain	-0.079845585
-4.353807	ivre	-0.079845615
-4.353807	interpellé	-0.079845615
-4.353807	lundi	-0.079845615
-4.353807	minuit	-0.079845615
-3.8162894	services	-0.112051405
-4.091317	reçoivent	-0.15908174
-3.5288692	appel	-0.16155927
-4.353807	téléphonique	-0.079845615
-4.353807	informant	-0.079845615
-4.1651454	rixe	-0.079845615
-4.353807	train	-0.079845615
-4.353807	dégénérer	-0.079845615
-4.353807	Ferrer	-0.079845615
-4.353807	Néanmoins	-0.079845615
-3.8162894	témoin	-0.079845615
-4.353807	assure	-0.079845615
-3.9323866	protagonistes	-0.079845615
-4.1651454	fuite	-0.079845615
-3.9323866	voiture	-0.11765911
-3.9323866	donne	-0.079845615
-4.353807	signalement	-0.079845615
-3.5288692	question	-0.18648143
-3.5848904	rapidement	-0.079845615
-4.1651454	localisée	-0.079845615
-4.353807	immobilisée	-0.079845615
-4.353807	hauteur	-0.079845615
-4.353807	succursale	-0.079845615
-4.353807	Peugeot	-0.079845615
-4.353807	comparaîtra	-0.079845615
-4.353807	prochainement	-0.079845615
-3.3574107	devant	-0.3531642
-4.091317	tribunal	-0.15908174
-4.353807	correctionnel	-0.079845615
-3.7247722	répondre	-0.112051405
-3.9323866	conduite	-0.079845615
-4.091317	état	-0.17682421
-4.353807	ivresse	-0.079845615
-4.353807	bagarre	-0.079845615
-4.1651454	poursuit	-0.079845585
-3.7247722	savoir	-0.100062035
-4.091317	quoi	-0.079845615
-4.353807	Lors	-0.079845615
-3.9323866	assemblée	-0.17682421
-3.6492238	générale	-0.1632189
-4.353807	Association	-0.079845615
-4.353807	paroissiale	-0.079845615
-4.353807	dressé	-0.079845615
-4.1651454	vice-président	-0.079845615
-4.353807	Ménétrez	-0.079845615
-4.353807	apparaître	-0.079845615
-4.353807	solde	-0.079845615
-3.6492238	financier	-0.10789261
-4.353807	positif	-0.079845615
-3.5288692	grâce	-0.2392604
-4.353807	rencontré	-0.079845615
-4.353807	loto	-0.079845615
-4.1651454	don	-0.079845615
-4.091317	section	-0.079845615
-4.353807	Fourmis	-0.079845615
-3.5288692	marché	-0.14303242
-4.353807	Noël	-0.079845615
-4.353807	vente	-0.079845585
-4.1651454	fleurs	-0.079845615
-4.353807	occasion	-0.079845615
-4.353807	fête	-0.079845615
-4.353807	Mères	-0.079845615
-4.091317	discuter	-0.15908174
-4.1651454	gestion	-0.20487577
-4.353807	cure	-0.079845615
-4.353807	propriété	-0.079845615
-4.353807	loués	-0.079845615
-4.353807	Apep	-0.079845615
-3.8162894	somme	-0.15201569
-4.353807	modique	-0.079845615
-4.353807	Lorsque	-0.079845615
-4.353807	utilisateurs	-0.079845615
-3.8162894	associations	-0.079845615
-4.353807	particuliers	-0.079845615
-4.353807	occupent	-0.079845615
-3.9323866	frais	-0.18461427
-3.6492238	décidé	-0.21000762
-4.353807	maintenir	-0.079845615
-4.353807	gratuité	-0.079845615
-4.091317	annuel	-0.079845585
-4.353807	offert	-0.079845615
-4.353807	Ccas	-0.079845615
-4.353807	Centre	-0.079845615
-3.9323866	aide	-0.079845615
-4.091317	sociale	-0.079845585
-4.091317	contribution	-0.079845585
-4.353807	baisse	-0.079845615
-4.353807	Elles	-0.079845585
-4.353807	verseront	-0.079845615
-4.091317	organisation	-0.079845585
-4.1651454	précédemment	-0.079845615
-4.353807	utilisations	-0.079845615
-4.353807	renseigner	-0.079845615
-3.8162894	auprès	-0.12563355
-3.7247722	comité	-0.10213645
-4.353807	Investissement	-0.079845615
-4.1651454	envisage	-0.079845615
-4.353807	changer	-0.079845615
-4.353807	portes	-0.079845615
-4.091317	accès	-0.13787673
-4.1651454	venant	-0.079845615
-4.353807	inspecter	-0.079845615
-4.353807	faudra	-0.079845615
-3.9323866	tenir	-0.2152945
-3.4792554	compte	-0.079845615
-4.353807	éventuelles	-0.079845615
-3.7247722	mises	-0.26379552
-4.353807	conformité	-0.079845615
-4.091317	décidées	-0.15908174
-4.353807	ladite	-0.079845615
-4.1651454	finir	-0.079845615
-4.353807	mot	-0.079845615
-4.1651454	Luc	-0.20487577
-4.353807	Stéfann	-0.079845615
-4.091317	rappelle	-0.079845585
-4.353807	vocation	-0.079845615
-3.9323866	soutien	-0.112051405
-4.353807	paroisse	-0.079845615
-3.9323866	petite	-0.079845615
-3.7247722	financière	-0.079845585
-4.1651454	manifestations	-0.079845615
-4.353807	dons	-0.079845615
-4.353807	accomplir	-0.079845615
-4.091317	multiples	-0.079845615
-4.353807	tâches	-0.079845615
-4.353807	démarches	-0.079845615
-4.353807	touchant	-0.079845615
-4.353807	paroissiaux	-0.079845615
-4.353807	contribuer	-0.079845615
-4.353807	convivialité	-0.079845615
-4.353807	paroissiens	-0.079845615
-4.1651454	trésorière	-0.079845615
-4.353807	Marie-Thérèse	-0.079845615
-4.353807	Joyot	-0.079845615
-3.8162894	secrétaire	-0.12563355
-4.353807	Colette	-0.079845615
-4.353807	Mermet	-0.079845615
-4.353807	Jet	-0.079845615
-4.1651454	éponge	-0.079845615
-3.6492238	-il	-0.09834094
-4.353807	Brandt	-0.079845615
-4.353807	actionnaire	-0.079845615
-4.353807	majoritaire	-0.079845615
-4.353807	EFI	-0.079845615
-3.9323866	banque	-0.13787673
-4.353807	Société	-0.079845585
-4.353807	Générale	-0.079845615
-4.091317	possède	-0.079845585
-3.9323866	actions	-0.104685314
-4.353807	Or	-0.079845585
-3.2917967	aurait	-0.09364274
-3.8162894	permis	-0.15908174
-3.9323866	lancer	-0.13787673
-3.8162894	production	-0.19030744
-4.1651454	plaques	-0.079845615
-4.353807	offset	-0.079845615
-4.1651454	numérique	-0.079845615
-4.1651454	technologie	-0.079845615
-4.1651454	parvenue	-0.20487577
-4.353807	maîtriser	-0.079845615
-3.7247722	an	-0.10789261
-4.1651454	sauver	-0.079845615
-3.3574107	car	-0.11463059
-4.353807	attendue	-0.079845615
-4.353807	Las	-0.079845615
-4.091317	raisons	-0.079845615
-4.091317	accordé	-0.079845585
-4.1651454	crédit	-0.079845615
-4.353807	malheurs	-0.079845615
-4.353807	surviennent	-0.079845615
-3.5848904	jamais	-0.079845615
-4.353807	canadien	-0.079845615
-4.1651454	disait	-0.079845615
-4.353807	intéressé	-0.079845615
-4.1651454	distribution	-0.079845585
-3.9323866	Europe	-0.14941917
-4.353807	numériques	-0.079845615
-3.434733	point	-0.20712873
-4.353807	Baume	-0.079845615
-3.5288692	donné	-0.13103244
-3.6492238	signe	-0.14231081
-4.353807	Quant	-0.079845585
-4.353807	chèque	-0.079845615
-3.9323866	euros	-0.16802913
-4.091317	apparemment	-0.079845585
-4.091317	refusé	-0.15908174
-4.353807	honorer	-0.079845615
-4.1651454	condamnation	-0.079845585
-4.1651454	devenait	-0.079845615
-4.353807	inévitable	-0.079845615
-3.9323866	réunion	-0.079845615
-4.353807	indemnisation	-0.079845615
-4.1651454	constitué	-0.079845615
-4.1651454	combattants	-0.12563355
-3.161284	Jacques	-0.42637202
-4.353807	Floch	-0.079845615
-4.091317	réuni	-0.079845585
-3.434733	fois	-0.17029083
-4.353807	analyser	-0.079845615
-3.8162894	propositions	-0.13490967
-4.091317	revendications	-0.15908174
-4.353807	protestent	-0.079845615
-4.353807	décret	-0.079845615
-3.9323866	juillet	-0.10789261
-4.353807	instituant	-0.079845615
-4.1651454	indemnité	-0.079845615
-3.9323866	spécifique	-0.079845615
-4.353807	versée	-0.079845615
-3.5848904	certaines	-0.104685314
-3.6492238	conditions	-0.1632189
-4.091317	orphelins	-0.27179903
-4.1651454	déportés	-0.079845615
-4.353807	juifs	-0.079845615
-3.6492238	particulièrement	-0.079845615
-4.353807	Rabodeau	-0.079845615
-4.353807	préside	-0.079845615
-4.353807	Arsène	-0.079845615
-4.353807	Vauthier	-0.079845615
-4.353807	multiplié	-0.079845615
-4.353807	déployé	-0.079845615
-4.353807	banderoles	-0.079845615
-4.091317	Lionel	-0.15908174
-4.1651454	Jospin	-0.079845615
-3.9323866	récente	-0.079845615
-4.353807	Lunéville	-0.079845615
-4.1651454	répond	-0.079845615
-4.091317	souligner	-0.079845585
-4.353807	papier	-0.079845615
-4.353807	en-tête	-0.079845615
-4.353807	candidat	-0.079845615
-4.1651454	présidentielle	-0.079845585
-3.3943532	ministre	-0.27638116
-4.1651454	néanmoins	-0.20487577
-4.1651454	certain	-0.079845615
-3.8162894	entreprises	-0.079845615
-3.9323866	gouvernement	-0.079845615
-3.8162894	note	-0.11765911
-3.9323866	mission	-0.079845615
-4.353807	méconnaître	-0.079845615
-4.353807	justes	-0.079845615
-4.1651454	victimes	-0.15908174
-4.353807	nazisme	-0.079845615
-3.9323866	trouver	-0.079845615
-4.353807	collectivement	-0.079845615
-4.1651454	meilleure	-0.079845615
-4.353807	reconnaître	-0.079845615
-4.353807	Nation	-0.079845615
-4.353807	ampleur	-0.079845615
-4.353807	souffrances	-0.079845615
-4.353807	subies	-0.079845615
-4.091317	écrit	-0.079845585
-3.6492238	"m"	-0.079845615
-3.5848904	dire	-0.22601534
-4.1651454	reprises	-0.079845615
-4.353807	persécutions	-0.079845615
-4.353807	antisémites	-0.079845615
-4.091317	actes	-0.079845585
-4.353807	découlé	-0.079845615
-4.353807	revêtaient	-0.079845615
-4.1651454	caractère	-0.079845615
-3.9323866	yeux	-0.079845615
-4.353807	représentées	-0.079845615
-4.091317	dites	-0.079845585
-4.353807	onze	-0.079845615
-4.353807	Fondation	-0.079845615
-4.353807	Résistance	-0.079845585
-4.353807	Déportation	-0.079845615
-3.8162894	Union	-0.15523754
-3.9323866	fusillés	-0.079845615
-4.353807	Associations	-0.079845615
-4.353807	anciennes	-0.079845615
-4.353807	internées	-0.079845615
-4.353807	déportées	-0.079845615
-4.353807	internés	-0.079845615
-3.8162894	familles	-0.12563355
-4.1651454	disparus	-0.079845615
-4.353807	Fédération	-0.079845615
-4.353807	résistants	-0.079845615
-4.353807	patriotes	-0.079845615
-4.353807	Confédération	-0.079845615
-4.1651454	volontaires	-0.079845615
-4.1651454	enfin	-0.079845615
-4.353807	massacrés	-0.079845615
-3.2917967	française	-0.2089764
-4.091317	Premier	-0.15908174
-4.091317	tour	-0.079845615
-4.1651454	Petits	-0.20487577
-4.353807	Tigres	-0.079845615
-4.1651454	judo	-0.079845615
-4.353807	OFP	-0.079845585
-4.1651454	organisé	-0.079845615
-4.353807	week-end	-0.079845615
-4.1651454	compétition	-0.079845585
-3.9323866	appelée	-0.13787673
-4.353807	COSEC	-0.079845615
-4.353807	regroupait	-0.079845615
-4.353807	judokas	-0.079845615
-4.353807	Pompey	-0.079845615
-3.9323866	""	-0.079845615
-3.9323866	comporte	-0.079845615
-3.234807	trois	-0.17411183
-4.1651454	tours	-0.079845615
-4.1651454	Faulx	-0.079845615
-4.353807	définir	-0.079845615
-3.8162894	troisième	-0.079845585
-3.9323866	1er	-0.13787673
-3.9323866	mai	-0.18461427
-4.1651454	Nomeny	-0.079845615
-4.1651454	montrer	-0.079845615
-3.8162894	approche	-0.079845615
-4.353807	sportifs	-0.079845615
-4.353807	échauffement	-0.079845615
-4.353807	collectif	-0.079845615
-4.091317	dirigé	-0.27179903
-4.353807	Frédéric	-0.079845615
-4.353807	Pierlot	-0.079845615
-3.5288692	responsables	-0.13490967
-3.9323866	clubs	-0.079845615
-4.353807	Belleville	-0.079845615
-4.353807	Brin-sur-Seille	-0.079845615
-4.353807	Champenoux	-0.079845615
-4.353807	Champigneulles	-0.079845615
-4.353807	Dieulouard	-0.079845615
-4.353807	Jeandelaincourt	-0.079845615
-4.353807	Leyr	-0.079845615
-4.353807	Marbache	-0.079845615
-4.353807	Thiaucourt	-0.079845615
-4.353807	Vallées	-0.079845615
-4.353807	Bouxières-aux-Dames	-0.079845615
-4.353807	encouragé	-0.079845615
-4.1651454	conseillé	-0.079845615
-4.1651454	monde	-0.079845585
-4.353807	essayé	-0.079845615
-4.353807	marquer	-0.079845615
-3.9323866	maximum	-0.13787673
-3.8162894	puisse	-0.079845615
-4.353807	remporter	-0.079845615
-4.353807	écusson	-0.079845615
-4.353807	Tigre	-0.079845615
-4.353807	or	-0.079845615
-3.8162894	argent	-0.09364274
-4.353807	bronze	-0.079845615
-4.1651454	fourni	-0.079845615
-4.1651454	via	-0.20487577
-4.1651454	départemental	-0.079845615
-3.8162894	autour	-0.2437806
-4.353807	tatami	-0.079845615
-4.353807	manqué	-0.079845615
-4.091317	encourager	-0.079845585
-3.9323866	parfois	-0.079845615
-4.353807	sécher	-0.079845615
-4.1651454	larmes	-0.079845615
-4.353807	symbole	-0.079845615
-4.353807	défaite	-0.079845615
-4.353807	rassurent	-0.079845615
-4.353807	rattraper	-0.079845615
-4.353807	Voyage	-0.079845615
-4.091317	coeur	-0.12563355
-4.353807	orage	-0.079845615
-4.1651454	oeil	-0.079845615
-4.1651454	photographique	-0.079845615
-4.353807	Fabrice	-0.079845615
-4.353807	Gillant	-0.079845615
-4.1651454	tente	-0.20487577
-4.353807	percer	-0.079845615
-4.1651454	mystères	-0.079845615
-4.353807	sciences	-0.079845615
-4.1651454	envergure	-0.079845615
-4.353807	MJC	-0.079845615
-4.353807	Nomade	-0.079845615
-4.1651454	commercial	-0.079845615
-4.353807	Nations	-0.079845615
-4.353807	Meusien	-0.079845615
-4.353807	passionné	-0.079845615
-4.353807	météorologie	-0.079845615
-4.353807	tendre	-0.079845615
-4.1651454	enfance	-0.079845615
-3.9323866	passe	-0.13787673
-4.1651454	clair	-0.079845585
-4.353807	observer	-0.079845615
-4.353807	photographier	-0.079845615
-4.353807	phénomènes	-0.079845615
-4.353807	climatiques	-0.079845615
-4.091317	pourra	-0.079845585
-4.091317	clichés	-0.079845585
-3.8162894	correspondant	-0.18461427
-4.353807	Météo	-0.079845615
-4.1651454	Trois	-0.079845615
-4.353807	séances	-0.079845615
-4.353807	prévues	-0.079845615
-3.9323866	acte	-0.079845615
-4.353807	malveillant	-0.079845615
-4.353807	EDF-GDF	-0.079845615
-4.353807	rétablir	-0.079845615
-4.1651454	électricité	-0.079845585
-4.1651454	immeuble	-0.079845585
-4.353807	soulagement	-0.079845615
-4.353807	locataires	-0.079845615
-4.353807	regagner	-0.079845615
-4.353807	logements	-0.079845615
-3.8162894	situation	-0.09688991
-4.1651454	critique	-0.079845615
-4.353807	poussait	-0.079845615
-4.353807	Martial	-0.079845615
-4.353807	Bourquin	-0.079845615
-3.8162894	envisager	-0.12563355
-3.434733	solution	-0.14211766
-4.353807	relogement	-0.079845615
-4.353807	Par	-0.079845585
-4.353807	téléphone	-0.079845615
-4.353807	contactait	-0.079845615
-4.091317	divers	-0.079845585
-4.353807	hôtels	-0.079845615
-4.091317	pouvant	-0.079845585
-4.1651454	accueillir	-0.079845615
-4.1651454	éventuels	-0.079845615
-4.353807	sinistrés	-0.079845615
-4.091317	Si	-0.10789261
-2.9240468	je	-0.23743175
-4.353807	vais	-0.079845615
-4.1651454	ouvrir	-0.079845585
-4.353807	confiait	-0.079845615
-3.8162894	magistrat	-0.079845585
-3.8162894	policiers	-0.079845585
-4.1651454	déterminer	-0.20487577
-4.1651454	causes	-0.079845615
-4.1651454	exactes	-0.079845615
-4.091317	incendie	-0.079845615
-4.1651454	origine	-0.079845615
-4.353807	criminelle	-0.079845615
-3.8162894	pourrait	-0.16530237
-4.353807	CRS	-0.079845615
-4.353807	quartier	-0.079845585
-4.353807	écartait	-0.079845615
-3.8162894	ailleurs	-0.104685314
-4.1651454	thèse	-0.079845615
-4.091317	expliquant	-0.079845585
-4.091317	celui-ci	-0.079845585
-4.353807	tardive	-0.079845615
-4.1651454	conséquences	-0.079845615
-3.8162894	graves	-0.079845615
-4.353807	Pompiers	-0.079845615
-4.353807	effectueront	-0.079845615
-4.353807	rondes	-0.079845615
-4.353807	C.L.	-0.079845615
-4.1651454	Milutinovic	-0.079845615
-4.1651454	TPI	-0.079845585
-4.353807	Arrivé	-0.079845615
-4.353807	Pays-Bas	-0.079845615
-4.1651454	avion	-0.079845585
-4.353807	yougoslave	-0.079845615
-4.1651454	incarcéré	-0.079845615
-4.353807	détention	-0.079845615
-4.353807	Scheveningen	-0.079845615
-4.1651454	banlieue	-0.20487577
-4.353807	Haye	-0.079845615
-3.8162894	devrait	-0.12563355
-4.353807	comparaître	-0.079845615
-4.353807	prochains	-0.079845615
-4.1651454	indiquer	-0.079845615
-4.1651454	plaide	-0.079845615
-3.9323866	coupable	-0.13787673
-3.9323866	faits	-0.079845615
-4.353807	reprochés	-0.079845615
-4.353807	reddition	-0.079845615
-4.091317	proches	-0.13787673
-4.091317	collaborateurs	-0.079845585
-4.353807	Slobodan	-0.079845615
-4.353807	Milosevic	-0.079845615
-4.1651454	inculpés	-0.079845615
-4.353807	retrouvent	-0.079845615
-4.1651454	derrière	-0.079845615
-4.353807	barreaux	-0.079845615
-4.1651454	exception	-0.079845585
-4.353807	Vlajko	-0.079845615
-4.353807	Stojiljkovic	-0.079845615
-4.1651454	suicidé	-0.079845615
-4.091317	transfert	-0.079845615
-4.353807	imminent	-0.079845615
-4.091317	Côte	-0.27179903
-4.353807	Ivoire	-0.079845615
-4.1651454	viols	-0.079845615
-4.353807	pillages	-0.079845615
-4.353807	dénoncé	-0.079845615
-4.091317	violations	-0.15908174
-3.6492238	droits	-0.14082773
-4.353807	Homme	-0.079845615
-4.1651454	ouest	-0.079845615
-3.9323866	tandis	-0.2152945
-4.353807	crise	-0.079845615
-4.1651454	ivoirienne	-0.079845615
-4.353807	entamé	-0.079845615
-4.353807	Marcoussis	-0.079845615
-3.8162894	Paris	-0.10982842
-4.353807	phase	-0.079845615
-3.7247722	négociations	-0.11765911
-4.353807	préoccupé	-0.079845615
-4.353807	signalées	-0.079845615
-3.8162894	déclaré	-0.12563355
-4.353807	porte-parole	-0.079845615
-3.9323866	ministère	-0.15908174
-4.1651454	Affaires	-0.079845615
-4.1651454	étrangères	-0.104685314
-3.4792554	François	-0.22600698
-4.353807	Rivasseau	-0.079845615
-4.353807	ivoirien	-0.079845615
-4.353807	occupé	-0.079845615
-4.353807	mouvements	-0.079845615
-4.353807	rebelles	-0.079845615
-4.353807	table	-0.079845585
-4.1651454	ronde	-0.079845615
-4.1651454	suivent	-0.079845615
-4.1651454	calendrier	-0.079845585
-4.1651454	prévu	-0.079845615
-3.9323866	pourraient	-0.079845615
-4.353807	terminer	-0.079845615
-4.353807	butoir	-0.079845615
-4.091317	janvier	-0.18461427
-4.353807	indiqué	-0.079845615
-4.353807	Quai	-0.079845615
-4.353807	Orsay	-0.079845615
-4.1651454	Présidente	-0.079845615
-4.353807	Délégation	-0.079845615
-3.6492238	femmes	-0.1061917
-4.091317	Assemblée	-0.104685314
-4.1651454	Marie-Jo	-0.20487577
-4.353807	Zimmermann	-0.079845615
-4.1651454	inquiète	-0.079845615
-4.1651454	réformes	-0.079845615
-4.1651454	envisagées	-0.079845615
-3.8162894	européennes	-0.12563355
-4.353807	régionales	-0.079845615
-4.353807	adoptées	-0.079845615
-3.7247722	telles	-0.21179375
-4.1651454	parité	-0.079845615
-3.043523	politique	-0.2100192
-3.4792554	risque	-0.18228465
-4.353807	régresser	-0.079845615
-4.353807	Près	-0.079845615
-4.091317	combat	-0.079845585
-3.8162894	Françoise	-0.17682421
-4.353807	Giroud	-0.079845615
-4.353807	paradoxal	-0.079845615
-4.353807	devoir	-0.079845615
-4.353807	sonnette	-0.079845615
-4.353807	alarme	-0.079845615
-4.1651454	confie	-0.079845615
-4.1651454	députée	-0.20487577
-4.353807	Moselle	-0.079845615
-4.1651454	rendant	-0.079845615
-4.353807	hommage	-0.079845615
-4.1651454	celle	-0.079845585
-4.353807	Condition	-0.079845615
-4.353807	féminine	-0.079845615
-3.9323866	charge	-0.11765911
-3.9323866	dossier	-0.13787673
-3.5288692	RPR	-0.121986166
-4.1651454	celui	-0.079845615
-4.091317	UMP	-0.079845615
-4.1651454	élection	-0.079845615
-3.3943532	Alain	-0.30254093
-4.1651454	Juppé	-0.13787673
-4.353807	revoir	-0.079845615
-4.353807	modes	-0.079845615
-4.1651454	scrutin	-0.079845615
-4.1651454	bataille	-0.079845615
-4.353807	dure	-0.079845615
-4.1651454	reconnaît	-0.079845615
-4.353807	-elle	-0.079845615
-4.1651454	élues	-0.079845585
-4.353807	municipaux	-0.079845615
-4.353807	Aux	-0.079845615
-4.353807	sénatoriales	-0.079845615
-4.1651454	stricte	-0.20487577
-4.353807	alternance	-0.079845615
-3.6492238	femme	-0.10213645
-4.1651454	départements	-0.079845615
-4.353807	élisant	-0.079845615
-4.353807	sénateurs	-0.079845615
-3.9323866	liste	-0.079845615
-4.353807	proportionnelle	-0.079845615
-4.353807	tripler	-0.079845615
-4.353807	PC	-0.079845615
-3.5848904	présenté	-0.12126571
-3.8162894	PS	-0.079845615
-4.353807	contenté	-0.079845615
-4.353807	stagnait	-0.079845615
-4.353807	UDF	-0.079845615
-3.7247722	partis	-0.10789261
-4.353807	recevront	-0.079845615
-3.5848904	chaque	-0.1243647
-4.1651454	millions	-0.112051405
-4.353807	Bilan	-0.079845615
-4.353807	contrasté	-0.079845615
-4.353807	prépare	-0.079845615
-4.1651454	électorales	-0.079845615
-4.353807	défavorables	-0.079845615
-4.353807	celles-ci	-0.079845615
-4.1651454	représenté	-0.079845615
-4.091317	élus	-0.079845615
-4.091317	pourcentage	-0.079845615
-4.1651454	verrait	-0.079845615
-3.8162894	réduit	-0.079845615
-4.353807	comportant	-0.079845615
-3.5848904	cinq	-0.17486282
-4.353807	x	-0.079845615
-4.091317	=	-0.27179903
-4.091317	tête	-0.079845615
-4.353807	explique	-0.079845615
-4.353807	Seule	-0.079845615
-4.1651454	appliquer	-0.079845615
-4.091317	chacune	-0.079845585
-4.353807	sections	-0.079845615
-4.1651454	mène	-0.079845615
-4.091317	campagne	-0.12563355
-4.1651454	menace	-0.079845615
-4.353807	saisir	-0.079845615
-4.091317	Conseil	-0.12334017
-4.353807	constitutionnel	-0.079845585
-3.0104344	si	-0.22954494
-3.8162894	projets	-0.079845615
-4.353807	respectent	-0.079845615
-3.9323866	article	-0.18461427
-4.353807	Constitution	-0.079845615
-4.1651454	dispose	-0.079845615
-4.353807	loi	-0.079845615
-4.1651454	favorise	-0.079845615
-4.353807	égal	-0.079845615
-4.353807	mandats	-0.079845615
-4.353807	électoraux	-0.079845615
-4.091317	fonctions	-0.079845585
-4.353807	électives	-0.079845615
-4.091317	Chantal	-0.079845585
-4.353807	DIDIER	-0.079845615
-4.353807	COURCELLES-LES-MONTBELIARD	-0.079845615
-4.353807	alerte	-0.079845615
-3.8162894	donnée	-0.079845615
-4.1651454	soir	-0.20487577
-4.353807	hébergée	-0.079845615
-4.353807	Courcelles-lès-Montbéliard	-0.079845615
-4.353807	signalée	-0.079845615
-4.353807	disparue	-0.079845615
-3.5848904	reçu	-0.11463059
-4.1651454	envoyé	-0.079845615
-4.353807	patrouilles	-0.079845615
-4.353807	alertaient	-0.079845615
-4.1651454	gendarmerie	-0.11765911
-4.353807	Courcelles	-0.079845615
-4.1651454	-ils	-0.079845615
-3.5848904	prendre	-0.10213645
-4.353807	vêtements	-0.079845615
-4.353807	chauds	-0.079845615
-3.8162894	malgré	-0.12563355
-4.353807	rigueur	-0.079845615
-4.353807	hivernale	-0.079845615
-3.9323866	Des	-0.10982842
-4.353807	fouilles	-0.079845615
-4.1651454	effectuées	-0.079845615
-4.353807	ratissage	-0.079845615
-4.091317	domicile	-0.15908174
-4.1651454	entrepris	-0.079845615
-3.9323866	gendarmes	-0.079845615
-4.353807	craignant	-0.079845615
-4.353807	réquisitionnés	-0.079845615
-4.091317	poursuivre	-0.079845585
-4.353807	recherches	-0.079845615
-4.353807	prévenait	-0.079845615
-4.353807	saine	-0.079845615
-4.353807	sauve	-0.079845615
-4.353807	trouvait	-0.079845615
-4.353807	Lyon	-0.079845615
-4.353807	Jacquin	-0.079845585
-4.353807	éteinte	-0.079845615
-4.353807	hôpital	-0.079845615
-4.1651454	suites	-0.079845615
-4.353807	pénible	-0.079845615
-3.7247722	laquelle	-0.100062035
-4.353807	lutté	-0.079845615
-4.353807	courageusement	-0.079845615
-4.353807	Fachinetti	-0.079845615
-4.353807	née	-0.079845615
-4.353807	Mancenans	-0.079845615
-4.1651454	sein	-0.13787673
-4.1651454	huit	-0.079845615
-4.353807	Geney	-0.079845615
-4.353807	gardé	-0.079845615
-4.353807	vaches	-0.079845615
-4.353807	Alors	-0.079845585
-4.353807	adolescente	-0.079845615
-4.353807	installe	-0.079845615
-4.353807	Isle-sur-le-Doubs	-0.079845615
-4.353807	travaille	-0.079845615
-4.353807	Japy	-0.079845615
-4.353807	naissance	-0.079845615
-4.091317	enfant	-0.079845615
-4.353807	Christiane	-0.079845615
-3.9323866	décide	-0.13787673
-4.1651454	rester	-0.15908174
-4.353807	occuper	-0.079845615
-4.091317	fils	-0.079845585
-3.9323866	Denis	-0.079845615
-3.9323866	René	-0.079845615
-4.091317	reprend	-0.079845585
-4.091317	emploi	-0.079845615
-4.353807	fonderie	-0.079845615
-4.353807	Colombier-Fontaine	-0.079845615
-4.1651454	restera	-0.079845615
-4.353807	retraite	-0.079845615
-4.353807	parfaite	-0.079845615
-4.353807	mérité	-0.079845615
-4.353807	chérissait	-0.079845615
-4.1651454	plaisir	-0.20487577
-3.7247722	recevoir	-0.14683808
-4.353807	époux	-0.079845615
-3.1844356	ancien	-0.23576193
-4.353807	lieutenant	-0.079845615
-4.353807	pompiers	-0.079845615
-4.091317	Pendant	-0.079845585
-4.353807	assistante	-0.079845615
-3.8162894	efficace	-0.12563355
-4.353807	occupant	-0.079845615
-4.353807	secrétariat	-0.079845615
-4.353807	trésorerie	-0.079845615
-4.353807	"lisloise"	-0.079845615
-4.353807	Jardiniers	-0.079845615
-4.353807	perspectives	-0.079845615
-4.353807	"Aujourdhui"	-0.079845615
-4.353807	recensés	-0.079845615
-4.091317	accueillis	-0.079845585
-4.353807	Preuve	-0.079845615
-3.9323866	porte	-0.079845615
-4.353807	Du	-0.079845585
-3.8162894	vue	-0.079845615
-4.1651454	fonctionne	-0.079845615
-3.7247722	essentiellement	-0.079845585
-4.353807	attribuée	-0.079845615
-4.091317	siège	-0.13787673
-4.353807	basé	-0.079845615
-4.353807	Valenciennes	-0.079845615
-3.1844356	ainsi	-0.2717515
-4.353807	cotisation	-0.079845615
-4.091317	permet	-0.13787673
-3.8162894	importante	-0.079845585
-4.353807	Bourse	-0.079845615
-4.353807	plantes	-0.079845615
-4.353807	mairie	-0.079845615
-4.353807	Parc	-0.079845615
-4.353807	évoquer	-0.079845615
-4.353807	Dernièrement	-0.079845615
-4.091317	assisté	-0.15908174
-4.353807	spectacle	-0.079845615
-4.091317	intitulé	-0.15908174
-4.091317	Arturo	-0.112051405
-4.353807	agréable	-0.079845615
-4.1651454	surprise	-0.079845615
-4.1651454	attendait	-0.079845615
-4.353807	Afin	-0.079845615
-4.1651454	raconter	-0.079845615
-3.8162894	moyens	-0.12563355
-4.353807	Hetzel	-0.079845615
-4.1651454	rédigé	-0.079845615
-4.1651454	texte	-0.079845615
-4.353807	eux-mêmes	-0.079845615
-3.9323866	corbeau	-0.079845615
-4.353807	ennuie	-0.079845615
-4.091317	arrive	-0.18461427
-4.1651454	blanc	-0.079845615
-4.1651454	esquimaux	-0.079845615
-4.353807	pêché	-0.079845615
-4.353807	poissons	-0.079845615
-4.1651454	ours	-0.079845615
-4.353807	polaire	-0.079845615
-4.353807	peur	-0.079845615
-4.353807	enfuient	-0.079845615
-3.9323866	idée	-0.11765911
-3.8162894	appelle	-0.12563355
-4.353807	pingouins	-0.079845615
-4.353807	chassent	-0.079845615
-4.353807	lançant	-0.079845615
-4.353807	boules	-0.079845615
-4.353807	Amérique	-0.079845615
-3.5848904	...	-0.13490967
-4.353807	bat	-0.079845615
-4.353807	ailes	-0.079845615
-4.091317	Afrique	-0.079845585
-3.9323866	découvre	-0.079845615
-4.1651454	lion	-0.079845585
-4.353807	frotte	-0.079845615
-4.353807	ventre	-0.079845615
-4.353807	essaie	-0.079845615
-4.353807	chasser	-0.079845615
-4.353807	tapant	-0.079845615
-4.353807	bouclier	-0.079845615
-4.353807	frotter	-0.079845615
-4.353807	faim	-0.079845615
-3.5288692	seulement	-0.100062035
-4.1651454	malade	-0.079845615
-4.353807	sorcier	-0.079845615
-4.353807	soignent	-0.079845615
-4.353807	dansent	-0.079845615
-3.9323866	voit	-0.079845615
-4.091317	énorme	-0.079845585
-4.353807	dragon	-0.079845615
-4.353807	grosse	-0.079845615
-4.353807	marionnette	-0.079845615
-4.353807	rentrer	-0.079845615
-4.353807	aventures	-0.079845615
-4.353807	Rue	-0.079845615
-4.353807	Château	-0.079845615
-4.353807	Manet	-0.079845615
-4.353807	conclusions	-0.079845615
-3.9323866	commissaire	-0.079845615
-4.353807	enquêteur	-0.079845615
-3.7247722	publique	-0.13490967
-4.353807	favorables	-0.079845615
-3.434733	reste	-0.11463059
-4.353807	visa	-0.079845615
-4.1651454	autorités	-0.12563355
-4.353807	tutelle	-0.079845615
-4.353807	améliorer	-0.079845585
-4.353807	dessertes	-0.079845615
-4.353807	voiries	-0.079845615
-4.353807	Chaque	-0.079845615
-3.3943532	cas	-0.20280465
-4.353807	Salle	-0.079845615
-4.1651454	polyvalente	-0.079845615
-4.1651454	offres	-0.079845615
-4.353807	transformation	-0.079845615
-4.353807	artisanal	-0.079845615
-4.353807	Triboulottes	-0.079845615
-4.353807	réunie	-0.079845615
-3.7247722	récemment	-0.079845585
-4.1651454	reçues	-0.079845615
-3.9323866	actuellement	-0.079845615
-4.353807	seuil	-0.079845615
-4.353807	en-dessous	-0.079845615
-4.1651454	duquel	-0.079845615
-3.5848904	possible	-0.22601534
-4.353807	descendre	-0.079845615
-4.353807	architecte	-0.079845615
-3.7247722	suffisamment	-0.079845585
-4.353807	précises	-0.079845615
-4.1651454	prenne	-0.079845615
-4.1651454	décisions	-0.079845615
-4.353807	prévue	-0.079845615
-4.1651454	mardi	-0.079845615
-4.353807	appartiendra	-0.079845615
-4.091317	ensuite	-0.079845585
-4.1651454	décision	-0.15908174
-4.353807	définitive	-0.079845615
-4.1651454	faisabilité	-0.079845615
-4.1651454	sachant	-0.079845615
-4.1651454	lot	-0.079845615
-4.1651454	gros	-0.079845615
-4.091317	oeuvre	-0.104685314
-3.7247722	devra	-0.39138573
-4.091317	probablement	-0.079845585
-4.353807	infructueux	-0.079845615
-4.353807	fera	-0.079845615
-4.353807	objet	-0.079845615
-4.353807	nouvel	-0.079845615
-4.1651454	estimation	-0.079845615
-4.1651454	valable	-0.079845615
-3.8162894	tant	-0.11765911
-4.091317	plan	-0.10789261
-3.7247722	financement	-0.14008814
-4.353807	évolution	-0.079845615
-4.353807	dette	-0.079845615
-4.353807	Balayage	-0.079845615
-4.353807	caniveaux	-0.079845615
-4.353807	consultation	-0.079845615
-4.353807	Amicale	-0.079845615
-4.353807	prononce	-0.079845615
-4.091317	convention	-0.13787673
-4.353807	balayage	-0.079845615
-4.353807	avaloirs	-0.079845615
-4.353807	eaux	-0.079845585
-4.353807	pluviales	-0.079845615
-3.9323866	voie	-0.12563355
-4.353807	Parcelles	-0.079845615
-4.353807	Ceux-ci	-0.079845615
-4.353807	réalisés	-0.079845615
-4.1651454	promoteur	-0.079845615
-4.091317	engage	-0.079845585
-3.4792554	étant	-0.09688991
-4.353807	viticulteur	-0.079845615
-4.353807	acquéreur	-0.079845615
-4.353807	parcelle	-0.079845615
-4.353807	artisanale	-0.079845615
-4.091317	souhaite	-0.079845585
-4.353807	superficie	-0.079845615
-4.091317	portée	-0.079845585
-4.353807	m2	-0.079845615
-4.353807	Accord	-0.079845615
-4.091317	base	-0.079845615
-3.9323866	action	-0.079845615
-4.353807	faveur	-0.079845585
-4.353807	installation	-0.079845615
-4.353807	cantine	-0.079845615
-4.353807	accueil	-0.079845615
-4.353807	regroupement	-0.079845615
-4.353807	pédagogique	-0.079845615
-4.1651454	Michèle	-0.079845615
-4.353807	Demange	-0.079845615
-4.091317	adjoint	-0.13787673
-4.353807	conduira	-0.079845615
-4.353807	opérations	-0.079845615
-3.7247722	questions	-0.15201569
-4.1651454	diverses	-0.079845615
-4.1651454	trésorier	-0.079845615
-4.353807	Toul	-0.079845615
-4.353807	assurance	-0.079845615
-4.091317	personnel	-0.079845585
-4.353807	communaux	-0.079845615
-4.353807	clos	-0.079845615
-4.091317	Pablo	-0.27179903
-4.353807	Correa	-0.079845585
-4.353807	portera	-0.079845615
-4.353807	maillot	-0.079845615
-4.353807	ASNL	-0.079845615
-4.091317	saison	-0.079845585
-3.9323866	signé	-0.079845615
-3.7247722	nouveau	-0.1243647
-4.1651454	contrat	-0.079845615
-4.353807	acceptant	-0.079845615
-4.353807	Rousselot	-0.079845615
-3.8162894	semaines	-0.12563355
-4.353807	Uruguayen	-0.079845615
-4.353807	envisageait	-0.079845615
-4.353807	quitter	-0.079845615
-4.1651454	attaquant	-0.079845615
-4.353807	tenait	-0.079845615
-4.091317	jouer	-0.079845585
-4.353807	refusa	-0.079845615
-4.353807	examina	-0.079845615
-4.1651454	possibilités	-0.079845615
-4.353807	Mans	-0.079845615
-4.353807	Valence	-0.079845615
-4.353807	Sedan	-0.079845615
-3.9323866	quatrième	-0.079845615
-4.091317	dois	-0.112051405
-4.353807	taire	-0.079845615
-3.4792554	me	-0.1120397
-4.353807	intéressantes	-0.079845615
-4.1651454	étais	-0.079845585
-4.353807	attachement	-0.079845615
-4.353807	agissait	-0.079845615
-3.9323866	ma	-0.079845615
-4.091317	dernière	-0.079845585
-4.353807	signer	-0.079845615
-4.1651454	Je	-0.088994846
-4.353807	fais	-0.079845615
-4.1651454	confiance	-0.20487577
-4.353807	joueurs	-0.079845615
-4.091317	atteint	-0.079845585
-3.6492238	mes	-0.112051405
-4.353807	valent	-0.079845615
-3.5848904	ceux	-0.18906847
-4.353807	pourrions	-0.079845615
-4.1651454	chercher	-0.079845615
-4.353807	conforter	-0.079845615
-4.353807	grossir	-0.079845615
-4.1651454	effectif	-0.079845615
-4.353807	allons	-0.079845615
-4.1651454	offensif	-0.079845615
-4.353807	habitué	-0.079845615
-4.353807	Bien	-0.079845615
-4.1651454	sûr	-0.079845585
-4.1651454	obtenu	-0.079845615
-3.5288692	aucune	-0.079845615
-4.1651454	garantie	-0.079845615
-4.353807	revendique	-0.079845615
-4.353807	connais	-0.079845615
-4.353807	qualités	-0.079845615
-4.1651454	envie	-0.079845615
-3.8162894	sens	-0.079845615
-4.1651454	peux	-0.079845585
-4.1651454	tôt	-0.079845585
-4.353807	intégrera	-0.079845615
-4.353807	staff	-0.079845615
-4.1651454	technique	-0.079845615
-4.091317	"puisqu"	-0.079845585
-4.1651454	paraît	-0.079845615
-4.353807	demeurer	-0.079845615
-4.353807	Tonneaux	-0.079845615
-4.091317	Montreux-Vieux	-0.079845585
-4.091317	gravement	-0.079845615
-4.353807	blessées	-0.079845615
-3.5848904	produit	-0.12126571
-4.353807	Républicain	-0.079845615
-4.353807	dépassement	-0.079845615
-4.1651454	circulant	-0.079845615
-4.353807	"Chavannes-sur-lEtang"	-0.079845615
-3.9323866	gauche	-0.079845615
-4.353807	doublait	-0.079845615
-4.353807	mordu	-0.079845615
-4.353807	accotement	-0.079845615
-4.353807	Benattia	-0.079845615
-4.353807	Grabis	-0.079845615
-4.353807	Cernay	-0.079845615
-4.353807	Abdel	-0.079845615
-4.353807	Rhazza	-0.079845615
-4.353807	Retzwiller	-0.079845615
-4.353807	Ledoucin	-0.079845615
-4.353807	Foussemagne	-0.079845615
-4.353807	évacués	-0.079845615
-4.353807	hospitalier	-0.079845615
-4.353807	Dannemarie	-0.079845615
-4.091317	procédé	-0.079845585
-4.353807	constat	-0.079845615
-4.091317	usage	-0.079845585
-4.353807	Arrivant	-0.079845615
-4.353807	Cuvier	-0.079845615
-4.353807	arrête	-0.079845615
-4.353807	acheter	-0.079845615
-4.353807	baguette	-0.079845615
-4.353807	"Lorsqu"	-0.079845615
-4.353807	revient	-0.079845615
-4.091317	individus	-0.079845615
-4.353807	engouffrent	-0.079845615
-4.353807	aussitôt	-0.079845615
-4.353807	forcent	-0.079845615
-4.353807	emmener	-0.079845615
-4.353807	périple	-0.079845615
-4.1651454	Pays	-0.079845615
-4.091317	Bethoncourt	-0.079845585
-4.353807	Sochaux	-0.079845615
-4.353807	Audincourt	-0.079845615
-4.353807	Valentigney	-0.079845615
-4.1651454	départ	-0.079845615
-4.1651454	durera	-0.079845615
-4.353807	demie	-0.079845615
-4.091317	motif	-0.079845585
-4.353807	expédition	-0.079845615
-4.353807	bonnement	-0.079845615
-3.9323866	alimentaire	-0.079845615
-4.1651454	adolescents	-0.079845615
-4.353807	entendaient	-0.079845615
-4.1651454	organiser	-0.079845615
-4.353807	barbecue	-0.079845615
-3.9323866	trouvé	-0.079845615
-4.353807	saucisses	-0.079845615
-4.353807	voulues	-0.079845615
-4.353807	réquisitionner	-0.079845615
-4.353807	quête	-0.079845615
-4.353807	victuailles	-0.079845615
-4.353807	passager	-0.079845615
-4.353807	voler	-0.079845615
-4.353807	contenait	-0.079845615
-4.353807	porte-monnaie	-0.079845615
-4.1651454	propriétaire	-0.079845615
-4.353807	digérer	-0.079845615
-4.353807	forcée	-0.079845615
-4.091317	porter	-0.15908174
-3.9323866	plainte	-0.12563355
-4.1651454	brigade	-0.079845615
-4.353807	déposition	-0.079845615
-4.353807	sortaient	-0.079845615
-4.353807	effectuer	-0.079845615
-4.1651454	routine	-0.079845615
-4.353807	Quelle	-0.079845615
-3.8162894	nez	-0.18461427
-4.353807	description	-0.079845615
-4.353807	faite	-0.079845615
-4.353807	lascars	-0.079845615
-4.353807	promenaient	-0.079845615
-4.1651454	proximité	-0.079845585
-4.353807	interpellés	-0.079845615
-4.353807	Tous	-0.079845585
-4.353807	âgé	-0.079845615
-4.353807	placés	-0.079845615
-4.353807	garde	-0.079845615
-4.353807	bethoncourtoise	-0.079845615
-4.091317	remis	-0.079845585
-4.1651454	liberté	-0.079845615
-4.353807	poche	-0.079845615
-4.1651454	convocation	-0.079845585
-4.353807	officier	-0.079845615
-3.6492238	judiciaire	-0.09834094
-4.091317	audience	-0.079845585
-3.9323866	connus	-0.079845615
-3.9323866	type	-0.10789261
-4.353807	devront	-0.079845615
-4.1651454	violences	-0.079845615
-4.353807	commises	-0.079845615
-4.353807	entraîné	-0.079845615
-4.353807	interruption	-0.079845615
-4.353807	anniversaires	-0.079845615
-4.353807	Belot	-0.079845615
-4.353807	pensionnaires	-0.079845615
-4.353807	fêtaient	-0.079845615
-4.091317	anniversaire	-0.079845585
-4.353807	rite	-0.079845615
-4.1651454	incontournable	-0.079845615
-4.091317	dépend	-0.27179903
-4.091317	santé	-0.079845615
-4.1651454	Questionné	-0.079845615
-4.1651454	Lucien	-0.079845615
-4.353807	Carillon	-0.079845615
-4.1651454	exécuté	-0.079845615
-4.353807	Natif	-0.079845615
-4.353807	Forges	-0.079845615
-4.353807	Méziré	-0.079845615
-4.353807	fréquenté	-0.079845615
-4.1651454	Morvillars	-0.20487577
-4.353807	CEP	-0.079845615
-4.353807	Resté	-0.079845615
-4.1651454	célibataire	-0.079845615
-3.9323866	ai	-0.0975858
-4.1651454	travaillé	-0.079845615
-4.353807	usine	-0.079845615
-4.353807	hameçons	-0.079845615
-4.091317	militaire	-0.079845585
-4.353807	souvient	-0.079845615
-4.353807	visiblement	-0.079845615
-4.1651454	marqué	-0.079845615
-4.1651454	favorablement	-0.079845615
-3.8162894	période	-0.112051405
-4.353807	8e	-0.079845615
-4.353807	Chasseurs	-0.079845615
-4.353807	Roanne	-0.079845615
-4.353807	adonne	-0.079845615
-4.1651454	belote	-0.079845615
-4.353807	copain	-0.079845615
-3.8162894	Pierre	-0.12563355
-4.353807	Brungard	-0.079845615
-4.353807	voyagé	-0.079845615
-4.353807	changé	-0.079845615
-4.353807	employeur	-0.079845615
-4.353807	Mimi	-0.079845615
-3.5848904	présente	-0.14231081
-4.353807	fière	-0.079845615
-4.353807	grand-mère	-0.079845615
-4.353807	arrière-grand-mère	-0.079845615
-4.353807	remarquer	-0.079845615
-4.353807	coquetterie	-0.079845615
-4.353807	Jeux	-0.079845615
-4.353807	olympiques	-0.079845615
-4.353807	inter-établissements	-0.079845615
-4.353807	European	-0.079845615
-4.1651454	Medicines	-0.079845615
-4.353807	Agency	-0.079845615
-4.1651454	EMEA	-0.079845615
-4.353807	H/C/562	-0.079845615
-4.353807	RAPPORT	-0.079845615
-4.353807	EUROPÉEN	-0.079845615
-4.1651454	PUBLIC	-0.20487577
-4.353807	ÉVALUATION	-0.079845615
-4.091317	EPAR	-0.15908174
-3.9323866	ANGIOX	-0.18461427
-3.9323866	document	-0.079845615
-4.091317	résumé	-0.15908174
-3.3943532	rapport	-0.13361338
-3.8162894	européen	-0.079845615
-3.9323866	évaluation	-0.10789261
-3.6492238	informations	-0.100062035
-3.161284	votre	-0.3004698
-4.091317	condition	-0.079845585
-3.3233657	traitement	-0.1490897
-3.7247722	veuillez	-0.14683808
-4.353807	consulter	-0.079845615
-4.1651454	notice	-0.079845615
-4.1651454	comprise	-0.079845615
-4.1651454	contacter	-0.079845615
-3.8162894	médecin	-0.14682756
-4.353807	pharmacien	-0.079845615
-4.353807	souhaitez	-0.079845615
-4.1651454	davantage	-0.079845615
-3.9323866	recommandations	-0.079845615
-4.1651454	CHMP	-0.079845615
-4.1651454	lire	-0.079845615
-4.353807	discussion	-0.079845615
-3.0793424	Angiox	-0.22408962
-3.9323866	poudre	-0.079845615
-4.353807	blanche	-0.079845615
-4.353807	reconstituer	-0.079845615
-4.353807	injectable	-0.079845615
-3.4792554	perfusion	-0.14868475
-4.1651454	goutte	-0.079845615
-4.353807	veine	-0.079845615
-3.5288692	contient	-0.1705017
-3.5848904	principe	-0.19551612
-3.8162894	actif	-0.14231081
-3.5848904	bivalirudine	-0.11753422
-3.5848904	utilisé	-0.15229547
-4.091317	angioplastie	-0.079845585
-4.353807	coronaire	-0.079845615
-4.353807	percutanée	-0.079845585
-3.7247722	ICP	-0.112051405
-4.353807	débloquer	-0.079845615
-4.353807	vaisseaux	-0.079845615
-4.1651454	sanguins	-0.079845615
-3.5848904	médicament	-0.12476082
-4.1651454	délivré	-0.079845615
-3.9323866	ordonnance	-0.12563355
-4.1651454	prescrit	-0.079845615
-3.8162894	expérience	-0.12563355
-3.9323866	prises	-0.13787673
-4.353807	urgentes	-0.079845615
-3.434733	patients	-0.19638726
-4.091317	souffrant	-0.15908174
-3.9323866	cardiaques	-0.13787673
-4.353807	interventions	-0.079845615
-3.5848904	dose	-0.18839864
-3.8162894	durée	-0.1468208
-4.353807	dépendent	-0.079845615
-4.353807	motifs	-0.079845585
-3.6492238	utilisation	-0.13582048
-3.6492238	administrée	-0.13490967
-3.9323866	injection	-0.079845585
-3.5848904	immédiatement	-0.15412347
-4.353807	suivie	-0.079845615
-3.4792554	SCA	-0.13787673
-4.091317	manière	-0.079845615
-3.7247722	traité	-0.14231081
-4.1651454	durer	-0.079845615
-3.6492238	médicaments	-0.094578326
-3.9323866	prévenir	-0.12563355
-4.1651454	caillots	-0.079845585
-4.1651454	subissant	-0.15908174
-4.091317	élevée	-0.079845585
-4.1651454	utilisée	-0.079845615
-4.353807	poursuivie	-0.079845615
-3.9323866	procédure	-0.104685314
-3.7247722	doses	-0.079845615
-3.2917967	doivent	-0.2815194
-4.1651454	réduites	-0.079845615
-4.1651454	rénaux	-0.079845585
-4.353807	Comment	-0.079845585
-3.8162894	coagulation	-0.10213645
-4.091317	sanguine	-0.079845615
-4.091317	poser	-0.079845585
-4.353807	perturbation	-0.079845615
-4.091317	flux	-0.15908174
-4.091317	sanguin	-0.15908174
-3.9323866	sang	-0.10789261
-4.353807	coaguler	-0.079845615
-3.9323866	substance	-0.18461427
-4.353807	synthétique	-0.079845615
-4.353807	dérivée	-0.079845615
-4.353807	hirudine	-0.079845615
-4.1651454	anticoagulante	-0.079845615
-4.353807	produite	-0.079845615
-4.353807	sangsues	-0.079845615
-4.353807	Celle-ci	-0.079845615
-4.1651454	trouve	-0.079845615
-3.9323866	processus	-0.079845615
-4.353807	complexes	-0.079845615
-4.353807	Quelles	-0.079845615
-3.5848904	études	-0.1061917
-4.091317	menées	-0.079845615
-4.353807	20	-0.079845615
-3.2088914	000	-0.23018417
-3.8162894	étude	-0.10673525
-4.353807	principale	-0.079845615
-4.091317	porté	-0.15908174
-4.1651454	14	-0.079845615
-3.9323866	comparé	-0.12563355
-4.091317	efficacité	-0.079845615
-3.7247722	seul	-0.079845585
-3.7247722	inhibiteur	-0.26116014
-4.353807	glycoprotéine	-0.079845615
-4.1651454	IIb/IIIa	-0.11765911
-4.091317	GP	-0.11765911
-4.353807	contribuant	-0.079845615
-4.353807	standard	-0.079845615
-4.353807	combinaison	-0.079845615
-3.6492238	héparine	-0.16218093
-4.091317	anticoagulant	-0.079845615
-4.353807	étudiée	-0.079845615
-4.353807	6	-0.079845615
-4.353807	Durant	-0.079845615
-4.353807	stent	-0.079845615
-4.353807	tube	-0.079845615
-4.353807	artère	-0.079845615
-4.1651454	empêcher	-0.079845615
-4.353807	fermeture	-0.079845615
-4.353807	posé	-0.079845615
-4.091317	anticoagulants	-0.079845585
-3.9323866	administrés	-0.079845615
-4.353807	abciximab	-0.079845615
-4.353807	aspirine	-0.079845615
-4.353807	bénéfice	-0.079845615
-4.353807	démontré	-0.079845615
-4.353807	avéré	-0.079845615
-3.9323866	traitements	-0.079845585
-4.091317	auxquels	-0.15908174
-3.5288692	administré	-0.17486282
-4.091317	globale	-0.079845585
-4.353807	crises	-0.079845615
-4.353807	revascularisations	-0.079845615
-3.4792554	taux	-0.33919388
-4.1651454	hémorragies	-0.079845615
-3.8162894	inférieur	-0.12563355
-4.091317	Chez	-0.15908174
-4.091317	mesures	-0.079845615
-4.1651454	excepté	-0.079845615
-3.9323866	concerne	-0.079845585
-3.5288692	saignement	-0.13445961
-4.091317	majeur	-0.11765911
-4.1651454	révélé	-0.079845585
-4.1651454	nettement	-0.079845615
-3.9323866	indésirable	-0.079845615
-4.1651454	fréquent	-0.079845585
-4.1651454	observé	-0.079845615
-3.8162894	patient	-0.15908174
-4.353807	bénin	-0.079845615
-3.9323866	hypersensibilité	-0.079845615
-4.353807	allergie	-0.079845615
-4.1651454	hirudines	-0.079845615
-4.353807	composants	-0.079845615
-4.353807	constituant	-0.079845615
-4.353807	outre	-0.079845615
-3.7247722	utiliser	-0.10789261
-3.7247722	hémorragie	-0.079845615
-4.1651454	hypertension	-0.079845615
-4.091317	aiguë	-0.079845585
-4.091317	présentant	-0.20487577
-3.8162894	troubles	-0.17486282
-4.1651454	reins	-0.13787673
-4.091317	infection	-0.079845615
-3.9323866	cardiaque	-0.13787673
-4.1651454	complète	-0.079845615
-4.353807	restrictions	-0.079845615
-4.091317	-t	-0.15908174
-4.353807	approuvé	-0.079845615
-4.1651454	conclu	-0.079845615
-4.353807	bénéfices	-0.079845615
-4.091317	supérieurs	-0.079845585
-4.1651454	risques	-0.079845585
-3.9323866	subir	-0.13787673
-4.1651454	urgente	-0.079845615
-4.353807	précoce	-0.079845615
-4.091317	clopidogrel	-0.15908174
-4.091317	recommandé	-0.11765911
-4.353807	octroi	-0.079845615
-3.7247722	autorisation	-0.16530237
-4.353807	Autres	-0.079845615
-3.7247722	relatives	-0.38990864
-4.1651454	Commission	-0.094578326
-3.7247722	européenne	-0.09208792
-4.353807	valide	-0.079845615
-3.5848904	The	-0.13787673
-4.353807	Company	-0.079845615
-4.353807	UK	-0.079845615
-4.353807	Ltd	-0.079845615
-3.6492238	septembre	-0.5163245
-4.353807	©EMEA	-0.079845615
-4.353807	Numéro	-0.079845615
-4.091317	UE	-0.079845615
-4.353807	Nom	-0.079845615
-4.353807	fantaisie	-0.079845615
-4.353807	Dosage	-0.079845615
-4.353807	Forme	-0.079845615
-4.353807	pharmaceutique	-0.079845615
-4.1651454	Voie	-0.15908174
-3.4792554	administration	-0.15453063
-4.353807	Conditionnement	-0.079845615
-4.353807	Taille	-0.079845615
-4.1651454	emballage	-0.079845585
-4.353807	EU	-0.079845615
-4.353807	1/04/289/001	-0.079845615
-4.091317	mg	-0.12563355
-4.1651454	Poudre	-0.15908174
-4.1651454	diluer	-0.079845615
-4.353807	Flacon	-0.079845615
-4.091317	flacons	-0.079845615
-4.353807	1/04/289/002	-0.079845615
-4.353807	ANNEXE	-0.079845585
-4.1651454	I	-0.079845615
-4.353807	RESUME	-0.079845615
-3.9323866	DES	-0.079845615
-4.353807	CARACTERISTIQUES	-0.079845615
-3.7247722	DU	-0.11765911
-4.353807	PRODUIT	-0.079845615
-4.353807	DENOMINATION	-0.079845615
-4.1651454	MEDICAMENT	-0.079845585
-4.353807	COMPOSITION	-0.079845615
-4.353807	QUALITATIVE	-0.079845615
-3.5288692	ET	-0.13103244
-4.353807	QUANTITATIVE	-0.079845615
-3.7247722	flacon	-0.11463059
-4.353807	FORME	-0.079845615
-4.353807	PHARMACEUTIQUE	-0.079845615
-4.353807	DONNEES	-0.079845615
-4.353807	CLINIQUES	-0.079845615
-4.353807	Indications	-0.079845615
-4.1651454	thérapeutiques	-0.079845615
-4.353807	Anticoagulant	-0.079845615
-4.353807	Posologie	-0.079845615
-4.1651454	mode	-0.079845615
-4.091317	destiné	-0.27179903
-3.9323866	intraveineuse	-0.12563355
-4.353807	spécialisé	-0.079845615
-4.091317	syndrome	-0.15908174
-4.1651454	coronarien	-0.20487577
-4.353807	aigu	-0.079845615
-4.091317	procédures	-0.079845615
-4.353807	Adultes	-0.079845615
-4.1651454	Sujets	-0.20487577
-4.353807	Syndrome	-0.079845615
-3.9323866	atteints	-0.2437806
-4.1651454	initiale	-0.079845615
-3.9323866	recommandée	-0.12563355
-3.7247722	bolus	-0.1632189
-4.353807	intraveineux	-0.079845615
-4.353807	kg	-0.079845615
-3.6492238	suivi	-0.14683808
-4.091317	bénéficier	-0.15908174
-4.353807	additionnel	-0.079845615
-4.353807	augmentée	-0.079845615
-4.1651454	ramenée	-0.20487577
-4.091317	maintenue	-0.079845615
-3.2088914	pendant	-0.18070176
-4.1651454	justifie	-0.079845615
-3.4792554	clinique	-0.095650025
-4.353807	Juste	-0.079845615
-4.1651454	bénéficiant	-0.20487577
-4.353807	pontage	-0.079845615
-4.353807	aorto-coronaire	-0.079845615
-4.353807	CEC	-0.079845615
-4.353807	arrêtée	-0.079845615
-4.353807	fractionnée	-0.079845615
-4.1651454	conséquent	-0.079845585
-4.091317	administrer	-0.11765911
-4.1651454	courte	-0.079845615
-3.9323866	insuffisance	-0.3122045
-3.6492238	rénale	-0.15595575
-4.353807	ajustées	-0.079845615
-4.353807	activée	-0.079845615
-3.9323866	ACT	-0.104685314
-4.353807	évaluer	-0.079845615
-3.7247722	valeurs	-0.09688991
-4.1651454	atteignent	-0.079845615
-4.353807	moyenne	-0.079845615
-4.353807	+/-	-0.079845615
-4.353807	secondes	-0.079845585
-3.9323866	supérieure	-0.2152945
-4.1651454	contrôles	-0.079845615
-3.8162894	supplémentaires	-0.079845615
-3.9323866	correctement	-0.13787673
-4.353807	introducteur	-0.079845615
-4.1651454	artériel	-0.079845615
-4.091317	retiré	-0.079845585
-4.1651454	arrêt	-0.079845615
-3.8162894	contrôle	-0.112051405
-3.9323866	supplémentaire	-0.13787673
-4.091317	modérée	-0.12563355
-4.353807	TFG	-0.079845585
-4.353807	30-59	-0.079845615
-3.9323866	ml	-0.12126571
-4.353807	min	-0.079845585
-3.5288692	soient	-0.12907827
-3.5848904	traités	-0.19028224
-4.353807	abaissée	-0.079845615
-4.353807	conforme	-0.079845615
-4.353807	posologie	-0.079845615
-4.353807	décrite	-0.079845615
-4.091317	ci-dessous	-0.15908174
-4.091317	second	-0.15908174
-4.353807	contrôlé	-0.079845615
-4.353807	contre-indiqué	-0.079845615
-4.091317	sévère	-0.079845585
-3.5288692	<	-0.34776115
-4.1651454	dialyse	-0.15908174
-4.091317	rubrique	-0.27179903
-4.353807	Insuffisance	-0.079845615
-4.091317	hépatique	-0.079845615
-4.353807	Aucune	-0.079845615
-4.353807	adaptation	-0.079845615
-3.9323866	nécessaire	-0.12563355
-4.091317	pharmacocinétiques	-0.079845585
-4.353807	montrent	-0.079845615
-4.353807	métabolisme	-0.079845615
-4.1651454	limité	-0.079845615
-4.353807	étudiées	-0.079845615
-4.353807	Enfants	-0.079845615
-3.5848904	données	-0.10982842
-4.091317	pertinentes	-0.15908174
-4.353807	Utilisation	-0.079845615
-3.8162894	poids	-0.18461427
-4.353807	moléculaire	-0.079845615
-4.353807	sous-cutanée	-0.079845615
-4.1651454	inhibiteurs	-0.079845615
-4.353807	Contre-indications	-0.079845615
-4.353807	excipients	-0.079845615
-4.1651454	accru	-0.079845615
-3.5848904	raison	-0.14082773
-4.353807	hémostase	-0.079845615
-4.353807	irréversibles	-0.079845615
-4.353807	Mises	-0.079845615
-4.353807	spéciales	-0.079845615
-4.353807	précautions	-0.079845615
-4.091317	particulières	-0.15908174
-4.1651454	Ne	-0.15908174
-4.353807	intramusculaire	-0.079845615
-4.1651454	Hémorragie	-0.079845615
-4.353807	surveiller	-0.079845615
-3.9323866	attentivement	-0.079845615
-3.8162894	présentent	-0.079845585
-3.7247722	symptômes	-0.13103244
-4.091317	signes	-0.13787673
-4.1651454	combinée	-0.079845615
-4.353807	Section	-0.079845615
-4.353807	plupart	-0.079845615
-3.6492238	saignements	-0.13582048
-3.9323866	associés	-0.13787673
-4.353807	produisent	-0.079845615
-3.5848904	site	-0.25984842
-4.1651454	subissent	-0.20487577
-4.353807	produire	-0.079845585
-4.1651454	importe	-0.079845615
-4.353807	diminutions	-0.079845615
-4.353807	inexpliquées	-0.079845615
-4.353807	hématocrite	-0.079845615
-4.1651454	hémoglobine	-0.079845615
-4.353807	pression	-0.079845585
-4.1651454	artérielle	-0.079845585
-3.8162894	arrêté	-0.112051405
-4.353807	observe	-0.079845615
-4.091317	soupçonne	-0.15908174
-4.353807	antidote	-0.079845615
-4.353807	disparaît	-0.079845615
-4.353807	T½	-0.079845615
-4.353807	concomitante	-0.079845615
-4.1651454	plaquettaires	-0.079845615
-4.353807	entrainer	-0.079845615
-3.8162894	augmentation	-0.19030744
-4.1651454	paramètres	-0.079845615
-3.9323866	cliniques	-0.100062035
-4.1651454	biologiques	-0.079845615
-4.353807	régulièrement	-0.079845615
-4.353807	surveillés	-0.079845615
-4.1651454	warfarine	-0.079845615
-4.353807	INR	-0.079845585
-3.9323866	assurer	-0.079845585
-4.091317	niveaux	-0.079845585
-4.091317	observés	-0.079845585
-4.353807	Hypersensibilité	-0.079845615
-3.9323866	réactions	-0.10789261
-4.091317	allergique	-0.079845585
-4.091317	fréquemment	-0.079845615
-3.9323866	rapportées	-0.12563355
-4.353807	éventualité	-0.079845615
-4.353807	informés	-0.079845615
-4.353807	précoces	-0.079845615
-4.1651454	comportent	-0.079845615
-4.353807	urticariennes	-0.079845615
-3.8162894	urticaire	-0.12563355
-4.353807	généralisée	-0.079845615
-4.091317	sensation	-0.15908174
-4.353807	oppression	-0.079845615
-4.1651454	poitrine	-0.079845585
-4.353807	respiration	-0.079845615
-4.353807	sifflante	-0.079845615
-4.1651454	hypotension	-0.079845615
-4.353807	anaphylaxie	-0.079845615
-3.9323866	choc	-0.079845615
-4.353807	normes	-0.079845615
-4.1651454	médicales	-0.079845615
-4.353807	actuelles	-0.079845615
-4.353807	intra-procédurale	-0.079845615
-4.091317	thrombus	-0.079845585
-4.091317	observée	-0.13787673
-4.1651454	brachythérapie	-0.15908174
-4.1651454	gamma	-0.079845615
-4.091317	prudence	-0.079845615
-4.353807	bêta	-0.079845615
-3.9323866	résultats	-0.079845585
-4.353807	permettent	-0.079845615
-4.1651454	penser	-0.079845615
-4.1651454	produise	-0.079845615
-4.1651454	interactions	-0.079845615
-4.091317	pharmacodynamiques	-0.079845585
-4.091317	mécanisme	-0.079845585
-4.353807	antithrombotiques	-0.079845615
-4.353807	agents	-0.079845615
-4.353807	antiplaquettaires	-0.079845615
-4.353807	augmente	-0.079845615
-4.353807	animales	-0.079845615
-4.353807	concluantes	-0.079845615
-3.6492238	effets	-0.20710826
-4.353807	délétères	-0.079845615
-4.353807	gestation	-0.079845615
-4.091317	développement	-0.11765911
-4.353807	embryonnaire	-0.079845615
-4.353807	foetal	-0.079845615
-4.353807	accouchement	-0.079845615
-4.353807	post-natal	-0.079845615
-4.1651454	nécessité	-0.079845585
-4.353807	absolue	-0.079845615
-4.353807	éventuel	-0.079845615
-4.353807	lait	-0.079845615
-4.353807	maternel	-0.079845615
-4.353807	mères	-0.079845615
-4.353807	allaitent	-0.079845615
-4.353807	aptitude	-0.079845615
-4.1651454	conduire	-0.079845615
-4.1651454	véhicules	-0.20487577
-4.1651454	machines	-0.12563355
-4.353807	étudiés	-0.079845615
-4.353807	Effets	-0.079845585
-3.8162894	indésirables	-0.13695374
-4.1651454	enoxaparine	-0.079845615
-4.353807	GPIIb/IIIa	-0.079845615
-3.7247722	fréquents	-0.23224914
-4.091317	sujets	-0.12563355
-4.091317	sexe	-0.079845585
-4.353807	masculin	-0.079845615
-4.1651454	comparateur	-0.079845615
-4.353807	Environ	-0.079845615
-4.1651454	recevant	-0.079845615
-4.1651454	évènement	-0.079845615
-3.8162894	réaction	-0.079845585
-4.353807	évènements	-0.079845615
-4.353807	listés	-0.079845615
-4.1651454	organes	-0.079845585
-4.353807	tableau	-0.079845615
-4.353807	Plaquettes	-0.079845615
-4.353807	mineurs	-0.079845615
-4.353807	définis	-0.079845615
-4.1651454	hémorragiques	-0.079845615
-4.353807	répondaient	-0.079845615
-4.091317	critères	-0.079845585
-4.091317	majeurs	-0.079845585
-4.1651454	rapportés	-0.079845615
-4.091317	fréquente	-0.15908174
-4.1651454	1/10	-0.20487577
-4.091317	1/100	-0.12563355
-4.1651454	similaires	-0.079845615
-4.353807	observées	-0.079845585
-3.9323866	fréquence	-0.12563355
-4.353807	Bivalidurine	-0.079845615
-4.353807	randomisation	-0.079845615
-4.353807	n	-0.079845615
-3.8162894	Tableau	-0.49364775
-4.353807	survenus	-0.079845615
-3.8162894	ACUITY	-0.10789261
-4.353807	Classes	-0.079845615
-4.1651454	systèmes	-0.079845585
-4.353807	Troubles	-0.079845615
-4.1651454	circulation	-0.079845615
-4.353807	lymphatique	-0.079845615
-4.353807	Fréquent	-0.079845615
-4.353807	immunitaire	-0.079845615
-4.353807	nerveux	-0.079845615
-4.1651454	bradycardie	-0.20487577
-4.353807	Saignements	-0.079845615
-4.353807	Hématomes	-0.079845615
-4.353807	pseudoanévrisme	-0.079845615
-4.353807	vasculaire	-0.079845615
-4.1651454	Nausées	-0.079845615
-4.091317	vomissements	-0.15908174
-4.353807	Rash	-0.079845615
-4.353807	musculo	-0.079845615
-4.353807	squelettiques	-0.079845615
-4.353807	conjonctif	-0.079845615
-3.7247722	os	-0.14941917
-4.091317	généraux	-0.079845585
-4.1651454	accidents	-0.079845615
-3.9323866	liés	-0.13787673
-4.1651454	Douleur	-0.15908174
-4.353807	dorsale	-0.079845615
-4.1651454	thoracique	-0.13787673
-4.353807	aine	-0.079845615
-4.1651454	survenue	-0.079845585
-3.8162894	suivants	-0.26379552
-4.1651454	intracrânienne	-0.079845615
-4.353807	rétropéritonéale	-0.079845615
-4.353807	intraoculaire	-0.079845615
-4.353807	exigeant	-0.079845615
-4.353807	radiologique	-0.079845615
-4.1651454	chirurgicale	-0.079845585
-4.353807	accéder	-0.079845615
-4.091317	hématome	-0.079845585
-4.353807	cm	-0.079845615
-4.353807	ponction	-0.079845615
-3.9323866	chute	-0.18461427
-4.091317	concentration	-0.079845615
-4.353807	g	-0.079845615
-4.353807	dL	-0.079845615
-3.9323866	source	-0.13787673
-4.353807	manifeste	-0.079845615
-4.353807	ré-intervention	-0.079845615
-4.1651454	nécessitant	-0.20487577
-4.353807	transfusion	-0.079845615
-3.9323866	produits	-0.079845615
-4.353807	rétropéritonéal	-0.079845615
-4.353807	gastro-intestinal	-0.079845615
-4.1651454	oreille	-0.079845615
-4.1651454	gorge	-0.13787673
-4.353807	thrombocytopénie	-0.079845615
-4.1651454	concomitant	-0.079845615
-3.9323866	acide	-0.3122045
-4.353807	acétylsalicylique	-0.079845615
-4.353807	recevaient	-0.079845615
-4.091317	mortalité	-0.15908174
-4.353807	nul	-0.079845615
-3.9323866	suivantes	-0.079845615
-3.9323866	basées	-0.2152945
-4.091317	REPLACE	-0.27179903
-4.353807	moitié	-0.079845615
-4.353807	Peu	-0.079845585
-4.353807	1/1000	-0.079845615
-4.353807	Thrombocytopénie	-0.079845615
-4.091317	anémie	-0.079845585
-4.353807	Réactions	-0.079845615
-4.1651454	allergiques	-0.079845615
-4.1651454	Maux	-0.20487577
-4.353807	Tachycardie	-0.079845615
-4.353807	ventriculaire	-0.079845615
-4.353807	angine	-0.079845615
-4.1651454	respiratoires	-0.079845585
-4.1651454	thoraciques	-0.079845615
-4.353807	médiastinaux	-0.079845615
-4.353807	Dyspnée	-0.079845615
-4.353807	cutanés	-0.079845615
-4.353807	tissus	-0.079845615
-4.353807	sous-cutanés	-0.079845615
-4.353807	recueillies	-0.079845615
-4.353807	séparément	-0.079845615
-4.1651454	celles	-0.079845615
-4.1651454	défini	-0.079845615
-3.9323866	perte	-0.21179375
-4.353807	unités	-0.079845615
-4.353807	hématies	-0.079845615
-4.353807	concentrées	-0.079845615
-4.353807	traduisant	-0.079845615
-4.353807	dl	-0.079845615
-4.353807	identifié	-0.079845615
-4.353807	Données	-0.079845615
-4.353807	comparée	-0.079845615
-4.353807	+	-0.079845615
-4.353807	Site	-0.079845615
-4.353807	Autre	-0.079845615
-4.353807	Rétropéritonéal	-0.079845615
-4.353807	Gastro-intestinal	-0.079845615
-4.353807	Oreille	-0.079845615
-4.353807	Uro-génital	-0.079845615
-4.353807	Cardio-pulmonaire	-0.079845615
-4.353807	Table	-0.079845615
-4.353807	Fréquence	-0.079845615
-4.353807	inconnue	-0.079845615
-4.353807	Réaction	-0.079845615
-4.1651454	anaphylactique	-0.079845615
-3.7247722	incluant	-0.11765911
-4.1651454	fatal	-0.079845615
-4.353807	Thrombus	-0.079845615
-4.353807	Surdosage	-0.079845615
-4.1651454	surdosage	-0.079845615
-4.353807	correspondants	-0.079845615
-3.9323866	allant	-0.13787673
-4.353807	rapporté	-0.079845615
-3.434733	ni	-0.14355803
-4.1651454	étroitement	-0.079845615
