# Input file: /home/jiangnan/Desktop/IntroML/ML_Projet/PoS_Classifier/train_sentence/train_set_pud_sentence.txt
# Token count: 22298
# Smoothing: Modified Kneser-Ney
\data\
ngram 1=3709
ngram 2=13300
ngram 3=18633

\1-grams:
-4.137214	<unk>	0
0	<s>	-0.6126601
-3.5007794	</s>	0
-3.781767	La	-0.08435716
-3.8706973	distribution	-0.20097317
-1.3271397	de	-0.40083182
-1.911136	la	-0.24994169
-3.4079912	présente	-0.103361785
-3.8706973	version	-0.08435719
-2.4061954	ce	-0.35862428
-3.2101285	contrat	-0.13566716
-2.4319017	ne	-0.19071133
-3.8706973	crée	-0.08435719
-3.0375528	aucune	-0.08435719
-3.9937685	relation	-0.08435719
-3.5007794	juridique	-0.08435719
-2.818537	entre	-0.32552725
-1.9006199	les	-0.20623247
-3.781767	parties	-0.11070853
-2.1018429	au	-0.26314637
-3.618934	présenté	-0.08435719
-3.781767	ci-après	-0.15852566
-1.5259391	et	-0.40769702
-3.4079912	Creative	-0.58945954
-3.9937685	Commons	-0.08435719
-1.4144135	.	-1.6054485
-3.8706973	fournit	-0.08435719
-2.629721	cette	-0.14372021
-3.781767	offre	-0.1387627
-2.6160188	-	-0.119000584
-3.5007794	type	-0.16043213
-1.8356062	en	-0.22647002
-2.0092463	"l"	-0.24505636
-3.5007794	état	-0.17451549
-1.6842059	à	-0.42886686
-3.618934	seule	-0.08435719
-3.618934	fin	-0.12732267
-1.7255673	"d"	-0.28459644
-3.618934	information	-0.08435719
-3.8706973	saurait	-0.08435719
-2.740067	être	-0.09984319
-3.2666223	tenu	-0.12323626
-3.618934	responsable	-0.15852566
-1.674839	des	-0.23714791
-3.9937685	éventuels	-0.08435719
-3.9937685	préjudices	-0.08435719
-3.8706973	résultant	-0.08435719
-1.911136	du	-0.29397982
-3.781767	contenu	-0.17501023
-2.1638649	ou	-0.24586
-3.618934	utilisation	-0.11252351
-3.9937685	Contrat	-0.08435719
-3.781767	"L"	-0.09172442
-3.781767	Oeuvre	-0.114607
-2.1985483	est	-0.2444224
-3.9937685	protégée	-0.08435719
-2.136193	par	-0.4339144
-1.9164912	le	-0.24649003
-3.2101285	droit	-0.13289265
-3.8706973	propriété	-0.15852566
-3.8706973	littéraire	-0.08435719
-3.8706973	artistique	-0.08435719
-2.4499254	(	-0.22917703
-3.8706973	auteur	-0.08435719
-3.0746999	droits	-0.18467908
-3.9937685	voisins	-0.08435719
-3.9937685	producteurs	-0.08435719
-3.8706973	bases	-0.20097317
-3.8706973	données	-0.08435719
-2.5418077	)	-0.25378895
-3.003334	toute	-0.17383742
-3.5007794	autre	-0.08435719
-3.8706973	loi	-0.11986001
-3.618934	applicable	-0.16043213
-3.618934	exercice	-0.114607
-2.0936637	sur	-0.6198894
-2.740067	tout	-0.19709753
-3.4079912	proposé	-0.11986001
-3.781767	présent	-0.11986001
-3.8706973	vaut	-0.08435719
-3.9937685	acceptation	-0.08435719
-3.781767	celui-ci	-0.08435719
-3.9937685	Selon	-0.08435719
-3.5007794	termes	-0.2077492
-3.5007794	obligations	-0.14712265
-3.33158	partie	-0.12323626
-3.9937685	offrante	-0.08435719
-3.8706973	propose	-0.08435719
-3.9937685	acceptante	-0.08435719
-3.1153243	certains	-0.13691546
-3.618934	présentés	-0.08435719
-3.8706973	acceptant	-0.08435719
-3.8706973	approuve	-0.08435719
-3.5007794	conditions	-0.14632851
-3.8706973	Aux	-0.08435719
-3.618934	autorisation	-0.08435719
-2.1591287	une	-0.18459935
-3.618934	oeuvre	-0.12251057
-2.0738654	qui	-0.26795506
-3.781767	constitue	-0.08435719
-3.781767	dite	-0.12732267
-3.781767	collective	-0.11070853
-3.33158	sera	-0.114607
-2.3515425	pas	-0.16084924
-3.781767	considérée	-0.2884295
-2.818537	comme	-0.17173183
-3.9937685	derivée	-0.08435719
-3.5007794	telle	-0.11070853
-1.89803	que	-0.5295765
-3.9937685	définie	-0.08435719
-3.5007794	personnes	-0.1053088
-3.9937685	physiques	-0.08435719
-3.9937685	morales	-0.08435719
-3.9937685	proposent	-0.08435719
-3.2666223	mise	-0.36605096
-3.618934	disposition	-0.1077004
-3.4079912	selon	-0.17451549
-3.9937685	Paternité	-0.08435719
-3.9937685	Pas	-0.08435719
-3.9937685	commerciale	-0.08435719
-3.9937685	Partage	-0.08435719
-3.9937685	initiales	-0.08435719
-2.3371124	a	-0.20128553
-3.8706973	identique	-0.08435719
-2.303005	__DIGIT__	-0.29800862
-3.9937685	Exceptions	-0.08435719
-2.3442676	aux	-0.12508777
-3.9937685	exclusifs	-0.08435719
-3.9937685	Autorisation	-0.08435719
-3.9937685	Soumis	-0.08435719
-3.9937685	définis	-0.08435719
-1.8656975	dans	-0.778214
-3.5007794	ceci	-0.08435719
-3.5007794	pendant	-0.17501023
-3.8706973	durée	-0.08435719
-3.4079912	protection	-0.21487734
-3.4079912	offrant	-0.11702362
-3.8706973	accorde	-0.08435719
-3.9937685	mondiale	-0.08435719
-3.8706973	exercer	-0.08435719
-3.781767	titre	-0.08435719
-3.8706973	gratuit	-0.20097317
-3.0375528	non	-0.15492424
-3.8706973	exclusif	-0.08435719
-3.781767	suivants	-0.2884295
-2.9143825	:	-1.0417571
-3.5007794	reproduire	-0.15852566
-3.9937685	incorporer	-0.08435719
-3.33158	plusieurs	-0.08435719
-3.618934	oeuvres	-0.32465827
-3.8706973	dites	-0.08435719
-3.9937685	derivées	-0.08435719
-2.236244	"qu"	-0.5777705
-3.8706973	incorporée	-0.20097317
-3.8706973	collectives	-0.15852566
-2.6160188	;	-1.3298222
-3.618934	créer	-0.08435719
-3.8706973	distribuer	-0.08435719
-3.9937685	exemplaires	-0.08435719
-3.9937685	enregistrements	-0.08435719
-3.33158	présenter	-0.114607
-3.8706973	représenter	-0.20097317
-3.781767	communiquer	-0.08435719
-3.1153243	public	-0.10644006
-3.9937685	procédé	-0.08435719
-3.1153243	technique	-0.11408676
-2.818537	y	-0.28340772
-3.9937685	compris	-0.08435719
-3.9937685	Distribuer	-0.08435719
-3.9937685	phonogrammes	-0.08435719
-3.4079912	lorsque	-0.11986001
-3.781767	base	-0.11070853
-3.9937685	extraire	-0.08435719
-3.9937685	réutiliser	-0.08435719
-3.9937685	substantielles	-0.08435719
-3.781767	Les	-0.08435719
-3.8706973	mentionnés	-0.08435719
-3.5007794	ci-dessus	-0.08435719
-3.2666223	peuvent	-0.13120373
-3.9937685	exercés	-0.08435719
-2.840589	tous	-0.27933463
-3.9937685	supports	-0.08435719
-3.8706973	médias	-0.08435719
-3.8706973	procédés	-0.20097317
-3.5007794	techniques	-0.11986001
-3.8706973	formats	-0.08435719
-3.9937685	incluent	-0.08435719
-3.8706973	effectuer	-0.08435719
-3.781767	modifications	-0.08435719
-3.33158	nécessaires	-0.11070853
-3.9937685	techniquement	-0.08435719
-3.2666223	autres	-0.11070853
-2.5651636	sont	-0.1077004
-3.8706973	expressément	-0.08435719
-3.8706973	autorisés	-0.20097317
-2.942057	dont	-0.1491133
-2.4592257	il	-0.35392296
-2.4319017	"n"	-0.35612738
-3.618934	aurait	-0.08435719
-3.781767	gestion	-0.08435719
-3.9937685	demeure	-0.08435719
-3.9937685	réservé	-0.08435719
-3.2101285	notamment	-0.1077004
-3.9937685	mécanismes	-0.08435719
-3.9937685	obligatoire	-0.08435719
-3.33158	applicables	-0.24146228
-3.9937685	décrits	-0.08435719
-3.8706973	article	-0.20097317
-3.9937685	d	-0.08435719
-3.781767	accordée	-0.15852566
-3.9937685	assujettie	-0.08435719
-3.781767	limitée	-0.08435719
-3.5007794	respect	-0.18098032
-3.9937685	restrictions	-0.08435719
-3.781767	suivantes	-0.15852566
-3.9937685	Acceptant	-0.08435719
-2.9143825	peut	-0.18612508
-3.9937685	offrir	-0.08435719
-3.9937685	imposer	-0.08435719
-3.9937685	altèrent	-0.08435719
-3.9937685	restreignent	-0.08435719
-3.8706973	accordés	-0.08435719
-3.8706973	bénéficiaire	-0.08435719
-3.9937685	céder	-0.08435719
-2.9143825	doit	-0.2577402
-3.9937685	conserver	-0.08435719
-3.9937685	intactes	-0.08435719
-3.2101285	toutes	-0.48187995
-3.4079912	informations	-0.1406517
-3.9937685	renvoient	-0.08435719
-3.8706973	exonération	-0.20097317
-3.618934	responsabilité	-0.08435719
-3.618934	voie	-0.11986001
-3.9937685	numérique	-0.08435719
-3.9937685	utilisant	-0.08435719
-3.33158	mesure	-0.08435719
-3.8706973	contrôle	-0.08435719
-3.8706973	accès	-0.08435719
-3.33158	serait	-0.08435719
-3.9937685	contradictoire	-0.08435719
-2.519644	avec	-0.32834572
-3.2101285	cet	-0.12323626
-3.4079912	accord	-0.08435719
-3.9937685	contractuel	-0.08435719
-3.9937685	mentions	-0.08435719
-2.5651636	"s"	-0.1963663
-3.9937685	appliquent	-0.08435719
-2.740067	mais	-0.15062144
-3.9937685	dehors	-0.08435719
-3.9937685	elle-même	-0.08435719
-3.9937685	soumettent	-0.08435719
-3.8706973	Si	-0.08435719
-3.33158	demande	-0.14406401
-3.618934	devra	-0.08435719
-3.33158	possible	-0.12710096
-3.8706973	retirer	-0.08435719
-3.5007794	référence	-0.08435719
-3.33158	dit	-0.08435719
-3.618934	demandé	-0.08435719
-3.9937685	dérivée	-0.08435719
-3.781767	uniquement	-0.08435719
-3.1153243	sous	-0.103361785
-3.9937685	ultérieure	-0.08435719
-3.781767	comprenant	-0.2884295
-3.8706973	mêmes	-0.08435719
-3.8706973	options	-0.08435719
-2.2037373	un	-0.16654135
-3.9937685	Icommons	-0.08435719
-3.9937685	exemple	-0.08435719
-3.781767	paternité	-0.08435719
-3.9937685	Identique	-0.08435719
-3.8706973	Japon	-0.08435719
-3.9937685	avertissement	-0.08435719
-3.8706973	garanties	-0.08435719
-3.9937685	originale	-0.08435719
-3.9937685	indiqué	-0.08435719
-3.8706973	Dans	-0.103361785
-3.4079912	adresse	-0.24146228
-3.9937685	Internet	-0.08435719
-3.9937685	Identifiant	-0.08435719
-3.9937685	Uniforme	-0.08435719
-3.9937685	Ressource	-0.08435719
-3.9937685	URI	-0.08435719
-3.781767	existe	-0.08435719
-3.9937685	spécifié	-0.08435719
-3.9937685	associé	-0.08435719
-3.1153243	moins	-0.09821202
-3.9937685	renvoie	-0.08435719
-3.8706973	légales	-0.08435719
-3.1601446	cas	-0.09733303
-3.781767	indiquer	-0.08435719
-3.618934	éléments	-0.11070853
-3.9937685	identifiant	-0.08435719
-3.1601446	«	-0.08435719
-3.9937685	traduction	-0.08435719
-3.9937685	anglaise	-0.08435719
-3.8706973	original	-0.08435719
-3.2666223	»	-0.12732267
-3.9937685	Scénario	-0.08435719
-3.9937685	basé	-0.08435719
-3.8706973	Ces	-0.08435719
-3.9937685	attribution	-0.08435719
-3.2666223	doivent	-0.1077004
-3.8706973	exécutées	-0.08435719
-3.618934	manière	-0.09587196
-3.781767	raisonnable	-0.15852566
-3.9937685	Cependant	-0.08435719
-2.797551	ces	-0.09445128
-3.8706973	minimum	-0.08435719
-3.8706973	apparaître	-0.08435719
-3.5007794	place	-0.08435719
-3.0746999	aussi	-0.09921879
-3.9937685	visible	-0.08435719
-3.8706973	celles	-0.08435719
-3.5007794	laquelle	-0.08435719
-3.9937685	apparaissent	-0.08435719
-3.1153243	même	-0.09921879
-3.8706973	nature	-0.08435719
-3.9937685	Garantie	-0.08435719
-3.9937685	Limitation	-0.08435719
-3.9937685	À	-0.08435719
-3.9937685	exception	-0.08435719
-3.5007794	ordre	-0.1387627
-3.781767	imposées	-0.15852566
-3.9937685	réparations	-0.08435719
-3.8706973	régime	-0.20097317
-3.781767	vis-à-vis	-0.08435719
-3.8706973	tiers	-0.08435719
-3.2666223	raison	-0.13236997
-3.9937685	violation	-0.08435719
-3.781767	prévues	-0.08435719
-3.4079912	aucun	-0.08435719
-3.9937685	théorie	-0.08435719
-3.9937685	légale	-0.08435719
-3.5007794	ni	-0.12732267
-3.618934	préjudice	-0.08435719
-3.8706973	direct	-0.20097317
-3.9937685	indirect	-0.08435719
-3.9937685	matériel	-0.08435719
-3.9937685	moral	-0.08435719
-3.618934	exécution	-0.12365941
-3.9937685	hypothèse	-0.08435719
-3.0746999	où	-0.14712265
-3.33158	avait	-0.15016147
-3.8706973	connaissance	-0.08435719
-3.8706973	existence	-0.08435719
-3.8706973	tel	-0.08435719
-3.9937685	Tout	-0.08435719
-3.9937685	manquement	-0.08435719
-3.8706973	entraîne	-0.08435719
-3.8706973	résiliation	-0.08435719
-3.9937685	automatique	-0.08435719
-3.9937685	découlent	-0.08435719
-3.9937685	conserve	-0.08435719
-3.003334	ses	-0.104287855
-3.781767	effets	-0.1387627
-3.781767	envers	-0.15852566
-2.519644	ont	-0.22851528
-3.781767	reçu	-0.08435719
-3.2101285	part	-0.16644697
-3.2101285	tant	-0.15985933
-3.33158	elles	-0.103361785
-3.8706973	respectent	-0.08435719
-3.781767	pleinement	-0.08435719
-3.0746999	leurs	-0.11986004
-3.9937685	sections	-0.08435719
-3.9937685	continuent	-0.08435719
-3.8706973	appliquer	-0.08435719
-3.33158	après	-0.11070853
-3.781767	limites	-0.08435719
-3.9937685	indiquées	-0.08435719
-3.9937685	applique	-0.08435719
-3.9937685	Néanmoins	-0.08435719
-2.740067	se	-0.13316633
-3.9937685	réserve	-0.08435719
-3.4079912	moment	-0.114607
-3.781767	exploiter	-0.15852566
-3.9937685	contractuelles	-0.08435719
-3.8706973	différentes	-0.08435719
-3.9937685	cesser	-0.08435719
-3.9937685	diffusion	-0.08435719
-3.8706973	cependant	-0.08435719
-3.781767	recours	-0.15852566
-3.9937685	option	-0.08435719
-3.9937685	conduire	-0.08435719
-2.942057	été	-0.092576005
-3.8706973	accordé	-0.08435719
-3.9937685	continuera	-0.08435719
-3.2666223	"jusqu"	-0.22774825
-3.0375528	sa	-0.0919997
-3.9937685	intervienne	-0.08435719
-3.9937685	décrites	-0.08435719
-3.9937685	Divers	-0.08435719
-3.4079912	chaque	-0.08435719
-3.9937685	reproduction	-0.08435719
-3.4079912	communication	-0.08435719
-3.8706973	identiques	-0.08435719
-3.33158	ceux	-0.3567268
-3.9937685	Aucune	-0.08435719
-3.5007794	limite	-0.08435719
-3.9937685	renonciation	-0.08435719
-3.5007794	modification	-0.21863857
-3.33158	dispositions	-0.10038333
-3.8706973	pourra	-0.08435719
-3.9937685	acceptée	-0.08435719
-3.0375528	sans	-0.15372646
-3.8706973	consentement	-0.08435719
-3.618934	écrit	-0.1387627
-3.8706973	signé	-0.08435719
-3.9937685	compétente	-0.08435719
-3.8706973	Ce	-0.103361785
-3.5007794	seul	-0.08435719
-3.9937685	propos	-0.08435719
-3.4079912	ici	-0.08435719
-3.8706973	Il	-0.11070853
-3.8706973	élément	-0.08435719
-3.8706973	annexe	-0.08435719
-3.8706973	supplémentaire	-0.08435719
-3.618934	mandat	-0.08435719
-3.8706973	portant	-0.20097317
-3.33158	pourrait	-0.08435719
-3.781767	quelconque	-0.15852566
-3.8706973	provenance	-0.08435719
-3.8706973	modifié	-0.08435719
-3.9937685	mutuel	-0.08435719
-3.9937685	décline	-0.08435719
-3.781767	égard	-0.08435719
-3.618934	quel	-0.12732267
-2.777532	soit	-0.09296452
-3.9937685	fondement	-0.08435719
-3.9937685	légal	-0.08435719
-3.9937685	subi	-0.08435719
-3.9937685	surviendrait	-0.08435719
-3.003334	rapport	-0.15494838
-2.840589	si	-0.1877939
-3.9937685	identifié	-0.08435719
-1.983349	pour	-0.31779322
-3.4079912	mettre	-0.24146228
-3.9937685	jouira	-0.08435719
-3.8706973	fins	-0.08435719
-3.9937685	limitées	-0.08435719
-3.618934	informer	-0.20097317
-3.9937685	CPCC	-0.08435719
-3.9937685	utilisera	-0.08435719
-3.9937685	marque	-0.08435719
-3.8706973	indication	-0.08435719
-3.9937685	logo	-0.08435719
-3.9937685	afférent	-0.08435719
-3.781767	préalable	-0.15852566
-3.8706973	Toute	-0.15852566
-3.9937685	autorisée	-0.08435719
-3.9937685	effectuée	-0.08435719
-3.33158	conformité	-0.15016147
-3.781767	lignes	-0.2884295
-3.9937685	directrices	-0.08435719
-3.618934	jour	-0.10038333
-3.618934	telles	-0.08435719
-3.33158	disponibles	-0.1967215
-2.9143825	son	-0.11993711
-3.5007794	site	-0.11986001
-3.781767	internet	-0.15852566
-3.618934	simple	-0.1387627
-3.9937685	contacté	-0.08435719
-3.9937685	Http	-0.08435719
-3.9937685	Reprise	-0.08435719
-3.5007794	session	-0.14712265
-3.9937685	Je	-0.08435719
-3.9937685	déclare	-0.08435719
-3.9937685	reprise	-0.08435719
-3.618934	Parlement	-0.16043213
-3.1601446	européen	-0.13172817
-3.9937685	interrompue	-0.08435719
-3.9937685	vendredi	-0.08435719
-3.8706973	décembre	-0.15852566
-3.5007794	dernier	-0.12732267
-2.4784462	je	-0.3325003
-2.602736	vous	-0.19603053
-3.9937685	renouvelle	-0.08435719
-3.618934	mes	-0.08435719
-3.9937685	voeux	-0.08435719
-3.9937685	espérant	-0.08435719
-3.781767	avez	-0.08435719
-3.8706973	passé	-0.08435719
-3.8706973	bonnes	-0.08435719
-3.781767	vacances	-0.15852566
-3.8706973	En	-0.095258266
-3.8706973	attendant	-0.08435719
-3.8706973	souhaiterais	-0.08435719
-3.8706973	certain	-0.08435719
-3.618934	nombre	-0.2513084
-3.618934	collègues	-0.08435719
-3.33158	me	-0.08435719
-2.3163283	nous	-0.1724398
-3.9937685	observions	-0.08435719
-3.8706973	minute	-0.15852566
-3.9937685	silence	-0.08435719
-3.9937685	victimes	-0.08435719
-3.9937685	tempêtes	-0.08435719
-3.618934	différents	-0.08435719
-2.840589	pays	-0.1934245
-3.9937685	Union	-0.08435719
-3.9937685	Européenne	-0.08435719
-3.9937685	touchés	-0.08435719
-3.8706973	invite	-0.08435719
-3.9937685	lever	-0.08435719
-3.618934	Le	-0.092616916
-3.2101285	parlement	-0.14981002
-3.9937685	debout	-0.08435719
-3.8706973	observe	-0.20097317
-3.8706973	Madame	-0.1387627
-3.8706973	présidente	-0.11070853
-3.003334	"c"	-0.6863695
-3.9937685	motion	-0.08435719
-3.618934	procédure	-0.08435719
-3.9937685	Vous	-0.08435719
-3.9937685	probablement	-0.08435719
-3.9937685	appris	-0.08435719
-3.9937685	presse	-0.08435719
-3.8706973	télévision	-0.08435719
-3.9937685	attentats	-0.08435719
-3.9937685	bombe	-0.08435719
-3.9937685	crimes	-0.08435719
-3.9937685	perpétrés	-0.08435719
-3.8706973	Sri	-0.20097317
-3.9937685	Lanka	-0.08435719
-3.8706973	vient	-0.15852566
-3.9937685	assassinée	-0.08435719
-2.9716158	M.	-0.1849187
-3.9937685	Kumar	-0.08435719
-3.8706973	Ponnambalam	-0.08435719
-3.8706973	rendu	-0.08435719
-3.9937685	visite	-0.08435719
-3.2666223	quelques	-0.08435719
-3.2666223	mois	-0.1387627
-3.8706973	peine	-0.08435719
-3.9937685	Ne	-0.08435719
-3.9937685	pensez	-0.08435719
-3.781767	-vous	-0.08435719
-3.5007794	madame	-0.32465827
-3.8706973	conviendrait	-0.08435719
-3.9937685	écrire	-0.08435719
-3.618934	lettre	-0.08435719
-3.5007794	président	-0.096558906
-3.5007794	lui	-0.08435719
-3.781767	déplore	-0.08435719
-3.9937685	morts	-0.08435719
-3.9937685	violentes	-0.08435719
-3.618934	celle	-0.12732267
-3.9937685	inviter	-0.08435719
-3.8706973	instamment	-0.08435719
-3.0746999	faire	-0.14119416
-3.618934	pouvoir	-0.08435719
-3.781767	chercher	-0.08435719
-3.9937685	réconciliation	-0.08435719
-3.9937685	pacifique	-0.08435719
-3.781767	terme	-0.08435719
-3.5007794	situation	-0.08435719
-3.33158	particulièrement	-0.08435719
-3.781767	difficile	-0.08435719
-3.8706973	assemblée	-0.08435719
-3.8706973	ferai	-0.08435719
-3.9937685	Evans	-0.08435719
-3.9937685	suggéré	-0.08435719
-3.8706973	voudrais	-0.12732267
-3.33158	demander	-0.16043213
-3.618934	conseil	-0.11986001
-3.5007794	sujet	-0.08435719
-3.781767	concerne	-0.08435719
-3.9937685	irrecevabilité	-0.08435719
-3.9937685	Ma	-0.08435719
-3.33158	question	-0.13891034
-3.781767	porte	-0.2884295
-3.5007794	jeudi	-0.12732267
-3.9937685	soulèverai	-0.08435719
-3.0375528	donc	-0.11252351
-3.781767	nouvelle	-0.14712265
-3.1601446	fois	-0.103361785
-3.2666223	mon	-0.12073105
-3.781767	sens	-0.08435719
-3.618934	principe	-0.08435719
-3.9937685	stabilité	-0.08435719
-3.781767	relative	-0.12732267
-3.781767	fondamental	-0.1387627
-3.2101285	politique	-0.114607
-3.781767	commune	-0.12732267
-3.9937685	pêche	-0.08435719
-3.2101285	proposition	-0.15016147
-3.9937685	bouleversant	-0.08435719
-3.9937685	juridiquement	-0.08435719
-3.9937685	irrecevable	-0.08435719
-3.618934	savoir	-0.08435719
-2.8883665	on	-0.12113758
-3.9937685	avancer	-0.08435719
-3.8706973	objection	-0.08435719
-3.8706973	législative	-0.08435719
-3.8706973	suis	-0.1053088
-3.9937685	habilité	-0.08435719
-3.8706973	"C"	-0.15852566
-3.9937685	exactement	-0.08435719
-3.9937685	-là	-0.08435719
-3.9937685	pourrez	-0.08435719
-3.4079912	effet	-0.08435719
-3.8706973	souhaitez	-0.15852566
-3.8706973	soulever	-0.08435719
-3.8706973	"cest-à-dire"	-0.08435719
-3.33158	avant	-0.14712265
-3.8706973	début	-0.08435719
-3.9937685	présentation	-0.08435719
-3.5007794	alors	-0.32465827
-3.9937685	déroule	-0.08435719
-3.618934	première	-0.08435719
-3.618934	année	-0.08435719
-3.781767	condamné	-0.08435719
-3.8706973	mort	-0.08435719
-3.8706973	Texas	-0.08435719
-3.9937685	États-Unis	-0.08435719
-3.9937685	jeune	-0.08435719
-3.8706973	homme	-0.08435719
-3.781767	ans	-0.12732267
-3.9937685	appelé	-0.08435719
-3.9937685	Hicks	-0.08435719
-3.9937685	fixée	-0.08435719
-3.9937685	malheureusement	-0.08435719
-3.9937685	prochain	-0.08435719
-3.618934	conformément	-0.22774825
-3.9937685	orientation	-0.08435719
-3.618934	désormais	-0.1387627
-3.8706973	constamment	-0.08435719
-3.9937685	exprimée	-0.08435719
-3.8706973	communauté	-0.08435719
-3.618934	européenne	-0.08435719
-3.9937685	intervenir	-0.08435719
-3.8706973	auprès	-0.08435719
-3.9937685	gouverneur	-0.08435719
-3.5007794	monsieur	-0.11986001
-3.9937685	Bush	-0.08435719
-3.8706973	faisant	-0.08435719
-3.8706973	jouer	-0.08435719
-3.9937685	prestige	-0.08435719
-2.863821	votre	-0.15361454
-3.9937685	institution	-0.08435719
-3.9937685	représentez	-0.08435719
-3.003334	car	-0.1487407
-3.9937685	suspendre	-0.08435719
-3.9937685	condamnation	-0.08435719
-3.9937685	gracier	-0.08435719
-3.9937685	Et	-0.08435719
-3.618934	principes	-0.08435719
-3.618934	avons	-0.08435719
-3.781767	toujours	-0.08435719
-3.9937685	soutenus	-0.08435719
-3.9937685	Merci	-0.08435719
-3.9937685	Segni	-0.08435719
-2.9716158	bien	-0.09821202
-3.9937685	volontiers	-0.08435719
-2.840589	fait	-0.17743549
-3.8706973	ligne	-0.08435719
-3.8706973	positions	-0.08435719
-3.003334	notre	-0.1077004
-3.8706973	adoptées	-0.08435719
-3.781767	attirer	-0.1387627
-3.5007794	attention	-0.16911985
-3.8706973	régulièrement	-0.08435719
-3.9937685	occupé	-0.08435719
-3.9937685	Nous	-0.08435719
-3.9937685	réjouissons	-0.08435719
-3.9937685	enceinte	-0.08435719
-3.8706973	tribunal	-0.08435719
-3.2666223	ait	-0.11986001
-3.9937685	prononcé	-0.08435719
-3.9937685	libération	-0.08435719
-3.5007794	clairement	-0.08435719
-3.5007794	établi	-0.12732267
-3.8706973	Russie	-0.08435719
-3.781767	environnementales	-0.08435719
-3.2101285	était	-0.10038333
-3.9937685	constitutionnel	-0.08435719
-3.9937685	semblerait	-0.08435719
-3.618934	nouveau	-0.08435719
-3.2666223	mis	-0.52877825
-3.8706973	accusation	-0.08435719
-3.8706973	ministère	-0.20097317
-3.5007794	ayant	-0.08435719
-3.9937685	interjeté	-0.08435719
-3.9937685	appel	-0.08435719
-3.8706973	savons	-0.08435719
-3.8706973	ailleurs	-0.08435719
-2.9143825	très	-0.095258266
-3.8706973	nombreuses	-0.08435719
-3.9937685	résolutions	-0.08435719
-3.003334	lors	-0.27650794
-3.618934	dernière	-0.08435719
-3.4079912	période	-0.26957664
-3.781767	seulement	-0.08435719
-3.618934	faux	-0.1387627
-3.9937685	accuser	-0.08435719
-3.9937685	Alexandre	-0.08435719
-3.9937685	Nikitin	-0.08435719
-3.618934	activité	-0.08435719
-3.9937685	criminelle	-0.08435719
-3.9937685	trahison	-0.08435719
-3.618934	sommes	-0.08435719
-3.9937685	concernés	-0.08435719
-3.33158	résultats	-0.13236997
-3.9937685	profitons	-0.08435719
-3.9937685	forment	-0.08435719
-3.2666223	programmes	-0.15372646
-3.8706973	européens	-0.08435719
-3.8706973	mer	-0.08435719
-3.9937685	Barents	-0.08435719
-3.9937685	pourquoi	-0.08435719
-3.8706973	prie	-0.08435719
-3.8706973	examiner	-0.08435719
-3.5007794	projet	-0.12732267
-3.9937685	dépeignant	-0.08435719
-3.8706973	faits	-0.08435719
-3.8706973	essentiels	-0.20097317
-3.9937685	affaire	-0.08435719
-3.781767	position	-0.17501023
-3.9937685	découle	-0.08435719
-3.781767	décisions	-0.08435719
-3.9937685	Oui	-0.08435719
-3.618934	Schroedter	-0.08435719
-2.9143825	"j"	-0.21182403
-3.9937685	examinerai	-0.08435719
-3.781767	relatifs	-0.15852566
-3.8706973	aurai	-0.08435719
-3.9937685	abord	-0.08435719
-3.8706973	féliciter	-0.08435719
-3.1601446	avoir	-0.08435719
-3.8706973	parole	-0.08435719
-3.9937685	chaînes	-0.08435719
-3.33158	réellement	-0.08435719
-3.9937685	augmenté	-0.08435719
-3.9937685	significative	-0.08435719
-3.1153243	nos	-0.08435719
-3.5007794	locaux	-0.12732267
-3.9937685	Toutefois	-0.08435719
-3.9937685	avais	-0.08435719
-3.8706973	réalisé	-0.08435719
-3.2666223	nécessaire	-0.22629866
-3.9937685	puissions	-0.08435719
-3.781767	disposer	-0.15852566
-3.8706973	chaîne	-0.08435719
-3.9937685	néerlandaise	-0.08435719
-3.9937685	Plooij	-0.08435719
-3.9937685	Van	-0.08435719
-3.9937685	Gorsel	-0.08435719
-3.9937685	peux	-0.08435719
-3.33158	dire	-0.23213284
-3.8706973	réunion	-0.08435719
-3.8706973	questeurs	-0.08435719
-3.9937685	mercredi	-0.08435719
-3.9937685	Elle	-0.08435719
-3.781767	espère	-0.15852566
-3.9937685	examinée	-0.08435719
-3.781767	esprit	-0.11986001
-3.618934	positif	-0.19503242
-3.5007794	comment	-0.08435719
-3.8706973	-il	-0.08435719
-3.781767	conforme	-0.08435719
-3.781767	réglementation	-0.08435719
-3.8706973	matière	-0.08435719
-3.618934	santé	-0.08435719
-3.5007794	sécurité	-0.17692252
-3.33158	vote	-0.11702362
-2.777532	?	-1.1730361
-3.9937685	Comment	-0.08435719
-3.9937685	test	-0.08435719
-3.781767	qualité	-0.08435719
-3.9937685	air	-0.08435719
-3.9937685	bâtiment	-0.08435719
-3.5007794	depuis	-0.08435719
-3.9937685	élection	-0.08435719
-3.8706973	comité	-0.08435719
-3.9937685	hygiène	-0.08435719
-2.4592257	plus	-0.12522607
-3.9937685	réuni	-0.08435719
-3.9937685	ayons	-0.08435719
-3.618934	jamais	-0.08435719
-3.9937685	évacuation	-0.08435719
-3.8706973	bâtiments	-0.08435719
-3.9937685	Bruxelles	-0.08435719
-3.9937685	Strasbourg	-0.08435719
-3.9937685	consignes	-0.08435719
-3.8706973	incendie	-0.08435719
-3.9937685	escaliers	-0.08435719
-3.8706973	aient	-0.08435719
-3.9937685	améliorés	-0.08435719
-3.618934	accident	-0.1387627
-3.9937685	respecte	-0.08435719
-3.781767	zones	-0.11986001
-3.9937685	fumeurs	-0.08435719
-3.9937685	Lynne	-0.08435719
-3.8706973	parfaitement	-0.08435719
-3.8706973	vais	-0.08435719
-3.8706973	vérifier	-0.08435719
-3.2666223	cela	-0.08435719
-3.9937685	effectivement	-0.08435719
-3.9937685	soumettre	-0.08435719
-2.6736288	également	-0.1351154
-3.8706973	problème	-0.08435719
-3.9937685	collège	-0.08435719
-3.8706973	certaine	-0.08435719
-3.781767	auront	-0.08435719
-3.9937685	cure	-0.08435719
-3.781767	sorte	-0.1387627
-3.9937685	respections	-0.08435719
-3.9937685	votons	-0.08435719
-3.33158	mme	-0.1077004
-3.9937685	Díez	-0.08435719
-3.9937685	González	-0.08435719
-3.9937685	moi-même	-0.08435719
-3.8706973	avions	-0.08435719
-3.33158	questions	-0.08435719
-3.4079912	certaines	-0.08435719
-3.781767	opinions	-0.08435719
-3.9937685	exprimées	-0.08435719
-3.9937685	vice	-0.08435719
-3.781767	De	-0.11986001
-3.8706973	Palacio	-0.08435719
-3.9937685	publiées	-0.08435719
-3.781767	journal	-0.08435719
-3.9937685	espagnol	-0.08435719
-3.2666223	services	-0.15584409
-3.9937685	compétents	-0.08435719
-3.9937685	inclues	-0.08435719
-3.9937685	avançant	-0.08435719
-3.9937685	réponses	-0.08435719
-3.8706973	avaient	-0.08435719
-3.1153243	déjà	-0.101745926
-3.9937685	apportées	-0.08435719
-3.781767	précédente	-0.08435719
-3.618934	auxquelles	-0.08435719
-3.9937685	répondu	-0.08435719
-3.9937685	précédemment	-0.08435719
-3.9937685	rapportaient	-0.08435719
-3.781767	intervention	-0.08435719
-3.8706973	dossier	-0.08435719
-3.781767	précis	-0.08435719
-3.9937685	déclarations	-0.08435719
-3.9937685	parues	-0.08435719
-3.9937685	Abc	-0.08435719
-3.9937685	novembre	-0.08435719
-3.9937685	avouerai	-0.08435719
-3.781767	choses	-0.11986001
-3.8706973	semblent	-0.08435719
-3.781767	petit	-0.08435719
-3.5007794	peu	-0.08435719
-3.9937685	confuses	-0.08435719
-3.9937685	Donc	-0.08435719
-3.8706973	allons	-0.08435719
-3.9937685	revoir	-0.08435719
-3.9937685	sérieusement	-0.08435719
-3.781767	semaine	-0.08435719
-3.781767	va	-0.08435719
-3.5007794	envoyer	-0.2513084
-3.8706973	message	-0.08435719
-3.8706973	clair	-0.08435719
-3.9937685	exprimant	-0.08435719
-3.8706973	mécontentement	-0.08435719
-3.618934	quant	-0.41336823
-3.4079912	décision	-0.12998715
-3.8706973	prise	-0.08435719
-3.1601446	"aujourdhui"	-0.15242667
-3.9937685	refuser	-0.08435719
-3.8706973	renouveler	-0.20097317
-3.9937685	embargo	-0.08435719
-3.9937685	armes	-0.08435719
-3.8706973	destination	-0.20097317
-3.8706973	Indonésie	-0.08435719
-3.9937685	souscrit	-0.08435719
-3.781767	large	-0.08435719
-3.781767	majorité	-0.15852566
-3.5007794	extrêmement	-0.08435719
-3.8706973	dangereuse	-0.08435719
-2.9143825	compte	-0.2137457
-2.942057	devrait	-0.29305768
-3.5007794	dès	-0.19503242
-3.2101285	étant	-0.13617878
-3.4079912	donné	-0.1077004
-3.5007794	grande	-0.12073105
-3.618934	députés	-0.12732267
-3.9937685	souhaite	-0.08435719
-3.9937685	refusant	-0.08435719
-3.8706973	prolonger	-0.08435719
-3.618934	états	-0.2184241
-3.618934	membres	-0.098697774
-3.4079912	font	-0.08435719
-3.8706973	preuve	-0.08435719
-3.9937685	irresponsabilité	-0.08435719
-3.9937685	aucuns	-0.08435719
-3.9937685	explosive	-0.08435719
-3.8706973	passe	-0.08435719
-3.8706973	figure	-0.08435719
-3.9937685	instant	-0.08435719
-3.4079912	parmi	-0.2742137
-3.8706973	demandes	-0.08435719
-3.8706973	urgence	-0.08435719
-3.0746999	programme	-0.16014399
-3.5007794	commission	-0.08838647
-3.8706973	Prodi	-0.08435719
-3.8706973	ensemble	-0.08435719
-3.781767	législature	-0.08435719
-3.8706973	départ	-0.08435719
-3.4079912	groupe	-0.117917344
-3.618934	parti	-0.08435719
-3.8706973	socialistes	-0.08435719
-3.9937685	obtenu	-0.08435719
-3.9937685	unanimité	-0.08435719
-3.9937685	conférence	-0.08435719
-3.9937685	présidents	-0.08435719
-3.8706973	septembre	-0.12732267
-3.9937685	approbation	-0.08435719
-3.9937685	explicite	-0.08435719
-3.9937685	réitéré	-0.08435719
-3.781767	engagement	-0.08435719
-3.9937685	discours	-0.08435719
-3.9937685	investiture	-0.08435719
-3.9937685	Cet	-0.08435719
-3.2101285	important	-0.17127009
-3.9937685	organisme	-0.08435719
-3.9937685	détient	-0.08435719
-3.9937685	traités	-0.08435719
-3.9937685	monopole	-0.08435719
-3.618934	initiative	-0.08435719
-3.8706973	conséquent	-0.08435719
-3.8706973	décide	-0.08435719
-3.4079912	essentiel	-0.08435719
-3.9937685	quelle	-0.08435719
-3.618934	cours	-0.2141544
-3.5007794	cinq	-0.08435719
-3.8706973	prochaines	-0.20097317
-3.4079912	années	-0.11070853
-3.9937685	rappelle	-0.08435719
-3.8706973	outre	-0.08435719
-3.9937685	Présidente	-0.08435719
-3.8706973	voté	-0.08435719
-3.1601446	deux	-0.103361785
-3.8706973	confiance	-0.08435719
-3.9937685	Au	-0.08435719
-3.9937685	votée	-0.08435719
-3.781767	juillet	-0.15852566
-3.8706973	ensuite	-0.08435719
-3.8706973	entrée	-0.20097317
-3.8706973	fonction	-0.08435719
-3.9937685	redonné	-0.08435719
-3.9937685	écoulé	-0.08435719
-3.5007794	suffisamment	-0.08435719
-3.33158	temps	-0.12732267
-3.9937685	prépare	-0.08435719
-3.618934	prendre	-0.08435719
-3.8706973	expliquer	-0.08435719
-3.618934	citoyens	-0.14712265
-3.781767	résolution	-0.15852566
-3.8706973	recommandait	-0.20097317
-3.8706973	présentée	-0.08435719
-3.9937685	brefs	-0.08435719
-3.8706973	délais	-0.08435719
-3.8706973	événements	-0.08435719
-3.1153243	produits	-0.15242667
-3.1153243	\xad	-0.08435719
-3.8706973	nés	-0.08435719
-3.9937685	marge	-0.08435719
-3.8706973	servent	-0.08435719
-3.4079912	elle	-0.11986001
-3.781767	but	-0.08435719
-3.9937685	corroborer	-0.08435719
-3.9937685	ratifier	-0.08435719
-3.781767	prises	-0.15852566
-3.8706973	celle-ci	-0.08435719
-3.9937685	créent	-0.08435719
-3.9937685	dilemme	-0.08435719
-3.9937685	dires	-0.08435719
-3.9937685	Mon	-0.08435719
-3.9937685	estimant	-0.08435719
-3.781767	là	-0.08435719
-3.9937685	écouter	-0.08435719
-3.9937685	débattre	-0.08435719
-3.9937685	réfléchir	-0.08435719
-3.781767	pensons	-0.08435719
-3.9937685	justifie	-0.08435719
-3.9937685	ajournement	-0.08435719
-3.9937685	croyons	-0.08435719
-3.9937685	rétablir	-0.08435719
-3.618934	agir	-0.11986001
-3.9937685	concitoyennes	-0.08435719
-3.9937685	concitoyens	-0.08435719
-3.9937685	prétexte	-0.08435719
-3.781767	texte	-0.08435719
-3.9937685	refuse	-0.08435719
-3.781767	Commission	-0.114607
-3.8706973	exprimer	-0.08435719
-3.8706973	tenue	-0.08435719
-3.33158	débat	-0.15016147
-3.9937685	réforme	-0.08435719
-3.781767	connaît	-0.08435719
-3.8706973	textes	-0.08435719
-3.781767	maintenant	-0.08435719
-3.9937685	procède	-0.08435719
-3.9937685	Applaudissements	-0.08435719
-3.9937685	PSE	-0.08435719
-3.9937685	répondre	-0.08435719
-3.9937685	rires	-0.08435719
-3.9937685	entends	-0.08435719
-3.5007794	"m"	-0.08435719
-3.781767	larges	-0.08435719
-3.9937685	pans	-0.08435719
-3.9937685	socialiste	-0.08435719
-3.9937685	aimeraient	-0.08435719
-3.8706973	supprimer	-0.20097317
-3.5007794	point	-0.13236997
-3.9937685	scrutin	-0.08435719
-3.8706973	sein	-0.1387627
-3.618934	responsables	-0.1387627
-3.9937685	disposaient	-0.08435719
-3.2101285	travail	-0.15035631
-3.8706973	sais	-0.08435719
-3.9937685	correcte	-0.08435719
-3.8706973	quoi	-0.08435719
-3.9937685	PPE	-0.08435719
-3.9937685	DE	-0.08435719
-3.8706973	gré	-0.08435719
-3.9937685	maintes	-0.08435719
-3.9937685	saisi	-0.08435719
-3.9937685	Des	-0.08435719
-3.8706973	existent	-0.08435719
-3.9937685	opposent	-0.08435719
-3.9937685	taxe	-0.08435719
-3.9937685	retiré	-0.08435719
-3.8706973	Poettering	-0.15852566
-3.9937685	entendons	-0.08435719
-3.9937685	Wurtz	-0.08435719
-3.9937685	exprime	-0.08435719
-3.003334	contre	-0.23618984
-3.781767	souligner	-0.08435719
-3.781767	manque	-0.1387627
-3.8706973	logique	-0.08435719
-3.618934	beaucoup	-0.08435719
-3.781767	voter	-0.08435719
-3.2666223	visant	-0.52877825
-3.9937685	orale	-0.08435719
-3.2101285	concernant	-0.27701986
-3.8706973	impôt	-0.08435719
-3.9937685	capital	-0.08435719
-3.9937685	rejette	-0.08435719
-3.9937685	voix	-0.08435719
-3.9937685	abstentions	-0.08435719
-3.5007794	remercier	-0.11986001
-3.9937685	coup	-0.08435719
-3.781767	publicité	-0.08435719
-3.5007794	donner	-0.12732267
-3.9937685	"J"	-0.08435719
-3.781767	ai	-0.08435719
-2.9716158	"	-0.20127988
-3.9937685	présidence	-0.08435719
-3.781767	proclamé	-0.08435719
-3.9937685	résultat	-0.08435719
-3.33158	lieu	-0.11070853
-3.9937685	remets	-0.08435719
-3.5007794	plan	-0.15016147
-3.781767	stratégique	-0.08435719
-3.618934	signalé	-0.12732267
-3.9937685	demandais	-0.08435719
-3.8706973	nom	-0.08435719
-3.9937685	saurai	-0.08435719
-3.9937685	issue	-0.08435719
-3.33158	permettre	-0.16043213
-3.781767	fournir	-0.08435719
-3.8706973	explication	-0.20097317
-3.8706973	utile	-0.20097317
-3.9937685	consigner	-0.08435719
-3.781767	procès	-0.15852566
-3.9937685	verbal	-0.08435719
-3.781767	gens	-0.1077004
-3.9937685	perçoivent	-0.08435719
-3.9937685	venons	-0.08435719
-3.9937685	lumière	-0.08435719
-2.777532	leur	-0.10225312
-3.8706973	propre	-0.08435719
-3.618934	analyse	-0.08435719
-3.9937685	Moi	-0.08435719
-3.8706973	effectué	-0.08435719
-3.9937685	tombée	-0.08435719
-3.8706973	devrions	-0.08435719
-3.8706973	rester	-0.08435719
-3.9937685	Cela	-0.08435719
-3.8706973	crois	-0.15852566
-3.9937685	claires	-0.08435719
-3.5007794	seront	-0.08435719
-3.9937685	consignées	-0.08435719
-3.8706973	Lorsque	-0.08435719
-3.9937685	adopterons	-0.08435719
-3.781767	demain	-0.08435719
-3.9937685	séance	-0.08435719
-3.9937685	estimeront	-0.08435719
-3.9937685	expliquées	-0.08435719
-3.618934	pourront	-0.08435719
-3.9937685	semble	-0.08435719
-3.5007794	bonne	-0.08435719
-3.8706973	formule	-0.08435719
-3.8706973	Bien	-0.08435719
-3.9937685	entendu	-0.08435719
-3.9937685	tiendra	-0.08435719
-3.8706973	explications	-0.08435719
-3.8706973	complémentaires	-0.20097317
-3.9937685	meilleure	-0.08435719
-3.9937685	procéder	-0.08435719
-3.9937685	entraîneraient	-0.08435719
-3.9937685	loin	-0.08435719
-3.9937685	Monsieur	-0.08435719
-3.9937685	Cox	-0.08435719
-3.9937685	Hänsch	-0.08435719
-3.9937685	-ce	-0.08435719
-3.781767	convient	-0.13236997
-3.781767	reflète	-0.08435719
-3.8706973	correctement	-0.08435719
-3.9937685	formuler	-0.08435719
-3.781767	puis	-0.08435719
-3.8706973	accepte	-0.08435719
-3.9937685	réserves	-0.08435719
-3.9937685	"S"	-0.08435719
-3.9937685	pourrons	-0.08435719
-3.8706973	éventuellement	-0.08435719
-3.9937685	corriger	-0.08435719
-3.9937685	adopte	-0.08435719
-3.781767	travaux	-0.12732267
-3.003334	ainsi	-0.40115497
-3.8706973	pouvons	-0.08435719
-3.9937685	résigner	-0.08435719
-3.8706973	entendre	-0.08435719
-3.781767	parler	-0.12732267
-3.781767	souvent	-0.08435719
-3.618934	accidents	-0.08435719
-3.9937685	provoquent	-0.08435719
-3.9937685	routes	-0.08435719
-3.8706973	voies	-0.08435719
-3.9937685	ferrées	-0.08435719
-3.8706973	navigables	-0.08435719
-3.8706973	dégâts	-0.08435719
-3.5007794	importants	-0.08435719
-3.9937685	imputables	-0.08435719
-3.781767	concernées	-0.08435719
-3.8706973	prennent	-0.08435719
-3.5007794	assez	-0.08435719
-3.9937685	sérieux	-0.08435719
-3.781767	transport	-0.1053088
-3.781767	marchandises	-0.12732267
-3.618934	dangereuses	-0.12732267
-3.9937685	ignorance	-0.08435719
-3.781767	formation	-0.13120373
-3.9937685	chauffeur	-0.08435719
-3.33158	personne	-0.11986001
-3.8706973	divers	-0.08435719
-3.781767	moyens	-0.1387627
-3.781767	arrive	-0.08435719
-3.33158	trop	-0.16043213
-3.9937685	bénin	-0.08435719
-3.9937685	tourne	-0.08435719
-3.781767	catastrophe	-0.11986001
-3.9937685	Autrichien	-0.08435719
-3.781767	pense	-0.1387627
-3.1601446	encore	-0.08435719
-3.9937685	souvenir	-0.08435719
-3.9937685	vivace	-0.08435719
-3.9937685	coûté	-0.08435719
-3.9937685	vies	-0.08435719
-3.9937685	tunnel	-0.08435719
-3.9937685	Tauern	-0.08435719
-3.9937685	imposé	-0.08435719
-3.8706973	suite	-0.08435719
-3.781767	nombreux	-0.08435719
-3.9937685	reconstruction	-0.08435719
-3.9937685	destructions	-0.08435719
-3.9937685	provoquées	-0.08435719
-3.618934	impact	-0.1053088
-3.8706973	financier	-0.08435719
-3.9937685	gigantesque	-0.08435719
-3.9937685	Cette	-0.08435719
-3.9937685	rénovation	-0.08435719
-3.8706973	étendue	-0.08435719
-3.9937685	coupé	-0.08435719
-3.2666223	importante	-0.11070853
-3.9937685	nord	-0.08435719
-3.8706973	sud	-0.08435719
-3.5007794	Europe	-0.1332066
-3.9937685	trafic	-0.08435719
-3.9937685	détournement	-0.08435719
-3.9937685	résulté	-0.08435719
-3.9937685	accablé	-0.08435719
-3.9937685	milliers	-0.08435719
-3.9937685	Ue	-0.08435719
-3.9937685	supportable	-0.08435719
-3.8706973	communes	-0.08435719
-3.2101285	vraiment	-0.14233778
-3.9937685	enfer	-0.08435719
-3.9937685	Notre	-0.08435719
-3.781767	réponse	-0.08435719
-3.781767	catastrophes	-0.1387627
-3.9937685	prévention	-0.08435719
-3.33158	directive	-0.120469555
-3.4079912	soumis	-0.16043213
-3.618934	permet	-0.1387627
-3.781767	vue	-0.1387627
-3.9937685	formés	-0.08435719
-3.9937685	contenter	-0.08435719
-3.9937685	évoluer	-0.08435719
-3.8706973	vers	-0.08435719
-3.8706973	devons	-0.08435719
-3.781767	veiller	-0.15852566
-3.9937685	conséquente	-0.08435719
-3.4079912	projets	-0.1053088
-3.618934	chose	-0.1387627
-3.003334	soient	-0.08435719
-3.9937685	appliqués	-0.08435719
-3.9937685	combler	-0.08435719
-3.9937685	carences	-0.08435719
-3.9937685	réseau	-0.08435719
-3.9937685	ignorer	-0.08435719
-3.618934	transports	-0.13432695
-3.8706973	énormément	-0.08435719
-3.618934	commissaire	-0.103361785
-3.8706973	augmenter	-0.08435719
-3.9937685	avenir	-0.08435719
-3.8706973	tunnels	-0.08435719
-3.1153243	afin	-0.36605096
-3.9937685	devions	-0.08435719
-3.618934	face	-0.20097317
-3.9937685	ampleur	-0.08435719
-3.8706973	Koch	-0.08435719
-3.8706973	occupe	-0.08435719
-3.8706973	centrale	-0.08435719
-3.9937685	félicite	-0.08435719
-3.8706973	excellent	-0.20097317
-3.9937685	ferroviaire	-0.08435719
-3.9937685	Paddington	-0.08435719
-3.9937685	Londres	-0.08435719
-3.9937685	effroyable	-0.08435719
-3.9937685	Norvège	-0.08435719
-3.9937685	avion	-0.08435719
-3.9937685	transportant	-0.08435719
-3.9937685	passagers	-0.08435719
-3.9937685	naturelle	-0.08435719
-3.9937685	Erika	-0.08435719
-3.9937685	Bretagne	-0.08435719
-3.618934	quatre	-0.11986001
-3.8706973	derniers	-0.08435719
-3.9937685	rappellent	-0.08435719
-3.781767	croire	-0.08435719
-3.9937685	garantie	-0.08435719
-3.9937685	office	-0.08435719
-3.781767	faut	-0.08435719
-3.9937685	population	-0.08435719
-3.9937685	motivés	-0.08435719
-3.9937685	qualifiés	-0.08435719
-3.5007794	rapporteur	-0.18809529
-3.9937685	retient	-0.08435719
-3.8706973	six	-0.08435719
-3.9937685	dix	-0.08435719
-3.1153243	amendements	-0.08435719
-3.8706973	lecture	-0.08435719
-3.9937685	teneur	-0.08435719
-3.9937685	conséquence	-0.08435719
-3.9937685	soutiendra	-0.08435719
-3.8706973	législation	-0.1387627
-3.618934	rapidement	-0.08435719
-3.9937685	promulguée	-0.08435719
-3.9937685	fournira	-0.08435719
-3.9937685	outil	-0.08435719
-3.781767	lutte	-0.1387627
-3.9937685	union	-0.08435719
-3.9937685	atteigne	-0.08435719
-3.618934	haut	-0.11986001
-3.2666223	niveau	-0.122456
-3.5007794	améliorer	-0.13617878
-3.781767	reste	-0.08435719
-3.781767	montre	-0.08435719
-3.8706973	actualité	-0.1387627
-3.8706973	remarques	-0.20097317
-3.8706973	tiens	-0.15852566
-3.9937685	formulée	-0.08435719
-3.9937685	agit	-0.08435719
-3.5007794	harmonisation	-0.11986001
-3.2666223	exigences	-0.16025788
-3.781767	examens	-0.08435719
-3.8706973	minimales	-0.08435719
-3.1601446	mesures	-0.16687867
-3.8706973	autant	-0.08435719
-3.8706973	naturellement	-0.08435719
-3.8706973	raisons	-0.08435719
-3.9937685	lesquelles	-0.08435719
-3.9937685	prêter	-0.08435719
-3.618934	particulière	-0.1387627
-3.9937685	Ou	-0.08435719
-3.9937685	bateliers	-0.08435719
-3.9937685	navires	-0.08435719
-3.9937685	orientale	-0.08435719
-3.9937685	amarrent	-0.08435719
-3.9937685	bateaux	-0.08435719
-3.781767	côte	-0.08435719
-3.9937685	rend	-0.08435719
-3.9937685	situations	-0.08435719
-3.9937685	évidentes	-0.08435719
-3.9937685	enquête	-0.08435719
-3.9937685	menée	-0.08435719
-3.9937685	ports	-0.08435719
-3.9937685	belges	-0.08435719
-3.9937685	finnois	-0.08435719
-3.9937685	japonais	-0.08435719
-3.9937685	révélé	-0.08435719
-3.9937685	cent	-0.08435719
-3.9937685	conteneurs	-0.08435719
-3.9937685	chargement	-0.08435719
-3.781767	partiellement	-0.08435719
-3.9937685	dangereux	-0.08435719
-3.1601446	étaient	-0.12323626
-3.9937685	déchargés	-0.08435719
-3.9937685	Bref	-0.08435719
-3.9937685	examinons	-0.08435719
-3.9937685	conseillers	-0.08435719
-3.8706973	1er	-0.15852566
-3.8706973	janvier	-0.15852566
-3.5007794	entreprises	-0.08435719
-3.9937685	conseiller	-0.08435719
-3.9937685	pose	-0.08435719
-3.618934	problèmes	-0.08435719
-3.781767	actuellement	-0.08435719
-3.5007794	importantes	-0.12732267
-3.781767	financièrement	-0.08435719
-3.9937685	Elles	-0.08435719
-3.781767	vont	-0.08435719
-3.9937685	débarrasser	-0.08435719
-3.9937685	cargaison	-0.08435719
-3.8706973	mélanger	-0.08435719
-3.9937685	cargaisons	-0.08435719
-3.9937685	engendre	-0.08435719
-3.9937685	série	-0.08435719
-3.9937685	Pour	-0.08435719
-3.5007794	activités	-0.08435719
-3.8706973	développées	-0.08435719
-3.8706973	forme	-0.08435719
-3.4079912	rapports	-0.08435719
-3.8706973	annuels	-0.08435719
-3.9937685	analyses	-0.08435719
-3.9937685	reprises	-0.08435719
-3.9937685	certificats	-0.08435719
-3.8706973	ISO	-0.20097317
-3.4079912	assurer	-0.08435719
-3.9937685	permets	-0.08435719
-3.8706973	conclure	-0.08435719
-3.781767	accords	-0.08435719
-3.9937685	satisfaisants	-0.08435719
-3.8706973	an	-0.08435719
-3.9937685	demi	-0.08435719
-3.618934	ils	-0.1305606
-3.9937685	adhéreront	-0.08435719
-3.9937685	conventions	-0.08435719
-3.9937685	vigueur	-0.08435719
-3.9937685	conférera	-0.08435719
-3.9937685	avantage	-0.08435719
-3.9937685	concurrentiel	-0.08435719
-3.9937685	temporaire	-0.08435719
-3.8706973	grave	-0.08435719
-3.9937685	soi	-0.08435719
-3.781767	accorder	-0.1387627
-3.5007794	priorité	-0.1077004
-3.5007794	aspects	-0.11986001
-3.8706973	transportées	-0.08435719
-3.8706973	route	-0.08435719
-3.9937685	rail	-0.08435719
-3.9937685	navigable	-0.08435719
-3.9937685	aussitôt	-0.08435719
-3.8706973	acquis	-0.08435719
-3.8706973	candidats	-0.08435719
-3.8706973	attire	-0.08435719
-3.9937685	juste	-0.08435719
-3.618934	importance	-0.114607
-3.618934	quantités	-0.1387627
-3.9937685	traversant	-0.08435719
-3.9937685	engendrent	-0.08435719
-3.9937685	sciemment	-0.08435719
-3.8706973	risques	-0.08435719
-3.781767	personnel	-0.11986001
-3.9937685	charge	-0.08435719
-3.781767	société	-0.08435719
-3.781767	général	-0.08435719
-3.9937685	Par	-0.08435719
-3.8706973	satisfaire	-0.08435719
-3.8706973	strictes	-0.08435719
-3.4079912	normes	-0.17757145
-3.1153243	/	-0.16186306
-3.781767	CE	-0.11070853
-3.8706973	adéquates	-0.08435719
-3.9937685	organisation	-0.08435719
-3.8706973	ravi	-0.08435719
-3.9937685	aurais	-0.08435719
-3.9937685	préféré	-0.08435719
-3.9937685	fixes	-0.08435719
-3.9937685	uniformisées	-0.08435719
-3.9937685	diplômes	-0.08435719
-3.8706973	internationaux	-0.08435719
-3.8706973	paraît	-0.08435719
-3.9937685	réalisable	-0.08435719
-3.618934	amendement	-0.1387627
-3.9937685	soutiens	-0.08435719
-3.9937685	joie	-0.08435719
-3.781767	chers	-0.2884295
-3.781767	collègue	-0.08435719
-3.9937685	émettre	-0.08435719
-3.9937685	rares	-0.08435719
-3.9937685	Mme	-0.08435719
-3.8706973	convaincu	-0.20097317
-3.8706973	vu	-0.08435719
-3.9937685	demeurera	-0.08435719
-3.9937685	morte	-0.08435719
-3.8706973	considère	-0.08435719
-3.9937685	déposée	-0.08435719
-3.8706973	mars	-0.20097317
-3.9937685	occupons	-0.08435719
-3.9937685	réagi	-0.08435719
-3.8706973	délai	-0.08435719
-3.781767	long	-0.08435719
-3.781767	deuxième	-0.08435719
-3.8706973	évoqué	-0.08435719
-3.9937685	Fondamentalement	-0.08435719
-3.781767	avis	-0.08435719
-3.618934	domaines	-0.08435719
-3.9937685	touchant	-0.08435719
-3.9937685	viser	-0.08435719
-3.781767	flexibilité	-0.08435719
-3.8706973	règlements	-0.08435719
-3.781767	quelque	-0.08435719
-3.9937685	sceptique	-0.08435719
-3.2101285	parce	-0.46452075
-3.9937685	différente	-0.08435719
-3.9937685	Suède	-0.08435719
-3.9937685	Allemagne	-0.08435719
-3.781767	Italie	-0.08435719
-3.8706973	Autriche	-0.08435719
-3.8706973	genre	-0.08435719
-3.9937685	devait	-0.08435719
-3.8706973	mener	-0.08435719
-3.9937685	apparition	-0.08435719
-3.9937685	insatisfaisants	-0.08435719
-3.9937685	opter	-0.08435719
-3.618934	troisième	-0.1387627
-3.9937685	Comme	-0.08435719
-3.8706973	Rack	-0.08435719
-3.9937685	viens	-0.08435719
-3.781767	région	-0.08435719
-3.9937685	transit	-0.08435719
-3.8706973	joue	-0.08435719
-3.8706973	rôle	-0.08435719
-3.781767	particulier	-0.11070853
-3.8706973	voulons	-0.08435719
-3.9937685	détérioration	-0.08435719
-3.9937685	unilatérale	-0.08435719
-3.781767	concurrence	-0.08435719
-3.9937685	prévalant	-0.08435719
-3.8706973	profit	-0.08435719
-3.618934	tels	-0.41336823
-3.4079912	régions	-0.12323626
-3.8706973	magnifique	-0.08435719
-3.781767	collaboration	-0.08435719
-3.9937685	positive	-0.08435719
-3.781767	examen	-0.08435719
-3.9937685	aptitude	-0.08435719
-3.4079912	commun	-0.11986001
-3.618934	institutions	-0.08435719
-3.5007794	coopération	-0.08435719
-3.9937685	régionale	-0.08435719
-3.8706973	concrètement	-0.08435719
-3.9937685	inclut	-0.08435719
-3.9937685	pratiquement	-0.08435719
-3.8706973	acceptés	-0.08435719
-3.9937685	harmonise	-0.08435719
-3.8706973	accepter	-0.08435719
-3.9937685	date	-0.08435719
-3.8706973	proposée	-0.08435719
-3.9937685	réaliste	-0.08435719
-3.9937685	projetée	-0.08435719
-3.9937685	sachant	-0.08435719
-3.9937685	débattons	-0.08435719
-3.9937685	Très	-0.08435719
-3.781767	brièvement	-0.08435719
-3.8706973	interventions	-0.08435719
-3.781767	domaine	-0.08435719
-3.9937685	Simpson	-0.08435719
-3.9937685	considérer	-0.08435719
-3.5007794	processus	-0.08435719
-3.9937685	abouti	-0.08435719
-3.9937685	marges	-0.08435719
-3.8706973	aborder	-0.08435719
-3.8706973	auxquels	-0.08435719
-3.9937685	mm.	-0.08435719
-3.8706973	Swoboda	-0.08435719
-3.8706973	constituent	-0.08435719
-3.9937685	doute	-0.08435719
-3.8706973	sensible	-0.08435719
-3.618934	efforts	-0.08435719
-3.5007794	voir	-0.12732267
-3.781767	accroître	-0.15852566
-3.8706973	Lors	-0.08435719
-3.9937685	gros	-0.08435719
-3.8706973	survenus	-0.08435719
-3.9937685	dernièrement	-0.08435719
-3.9937685	marchandise	-0.08435719
-3.9937685	transportée	-0.08435719
-3.9937685	margarine	-0.08435719
-3.9937685	kilos	-0.08435719
-3.9937685	peinture	-0.08435719
-3.9937685	présentaient	-0.08435719
-3.9937685	normalement	-0.08435719
-3.9937685	provoqué	-0.08435719
-3.9937685	véritable	-0.08435719
-3.781767	étudier	-0.08435719
-3.9937685	ajuster	-0.08435719
-3.8706973	garantir	-0.08435719
-3.8706973	maximum	-0.08435719
-3.9937685	terminer	-0.08435719
-3.9937685	types	-0.08435719
-3.9937685	organiserons	-0.08435719
-3.9937685	maritime	-0.08435719
-3.9937685	devrons	-0.08435719
-3.9937685	discuter	-0.08435719
-3.2666223	objectifs	-0.08435719
-3.9937685	aérien	-0.08435719
-3.9937685	Mais	-0.08435719
-3.8706973	mesdames	-0.20097317
-3.9937685	messieurs	-0.08435719
-3.8706973	objectif	-0.08435719
-3.781767	prioritaire	-0.15852566
-3.8706973	dirai	-0.08435719
-3.8706973	attendons	-0.08435719
-3.9937685	survienne	-0.08435719
-3.8706973	consacrer	-0.08435719
-3.618934	corps	-0.08435719
-3.9937685	âme	-0.08435719
-3.8706973	aspect	-0.08435719
-3.9937685	travaillons	-0.08435719
-3.9937685	dessus	-0.08435719
-3.8706973	circonstances	-0.08435719
-3.9937685	évidence	-0.08435719
-3.4079912	efficace	-0.08435719
-3.9937685	réitérer	-0.08435719
-3.9937685	remerciements	-0.08435719
-3.9937685	intervenants	-0.08435719
-3.9937685	clos	-0.08435719
-3.618934	aura	-0.08435719
-3.9937685	heures	-0.08435719
-3.9937685	Transport	-0.08435719
-3.8706973	appelle	-0.08435719
-3.9937685	A5-0104	-0.08435719
-3.8706973	tourisme	-0.08435719
-3.9937685	Conseil	-0.08435719
-3.618934	modifiant	-0.22774825
-3.8706973	rapprochement	-0.20097317
-3.8706973	législations	-0.08435719
-3.8706973	États	-0.15852566
-3.9937685	COM	-0.08435719
-3.9937685	C5-0004	-0.08435719
-3.9937685	COD	-0.08435719
-3.9937685	contient	-0.08435719
-3.781767	transitoires	-0.08435719
-3.9937685	validité	-0.08435719
-3.9937685	liée	-0.08435719
-3.8706973	conclusion	-0.08435719
-3.9937685	Cen	-0.08435719
-3.8706973	normalisation	-0.08435719
-3.9937685	retards	-0.08435719
-3.9937685	entraînent	-0.08435719
-3.618934	application	-0.114607
-3.9937685	annexes	-0.08435719
-3.9937685	adaptées	-0.08435719
-3.8706973	évolution	-0.08435719
-3.781767	industrielle	-0.08435719
-3.9937685	soumise	-0.08435719
-3.9937685	inaction	-0.08435719
-3.9937685	obligerait	-0.08435719
-3.8706973	modifier	-0.08435719
-3.9937685	bref	-0.08435719
-3.9937685	laps	-0.08435719
-3.8706973	CEN	-0.08435719
-3.9937685	entraînerait	-0.08435719
-3.781767	coûts	-0.08435719
-3.9937685	incertitudes	-0.08435719
-3.8706973	inutiles	-0.08435719
-3.1153243	communautaire	-0.13691546
-3.8706973	existante	-0.20097317
-3.9937685	réglementations	-0.08435719
-3.9937685	repoussant	-0.08435719
-3.9937685	supprime	-0.08435719
-3.9937685	cessé	-0.08435719
-3.618934	pertinentes	-0.08435719
-3.8706973	règle	-0.08435719
-3.8706973	procédures	-0.08435719
-3.9937685	ad	-0.08435719
-3.9937685	hoc	-0.08435719
-3.9937685	b	-0.08435719
-3.9937685	promulgation	-0.08435719
-3.5007794	nationales	-0.08435719
-3.9937685	réduites	-0.08435719
-3.9937685	strictement	-0.08435719
-3.9937685	délimitées	-0.08435719
-3.9937685	inscrit	-0.08435719
-3.9937685	subsidiarité	-0.08435719
-3.9937685	bénéficiant	-0.08435719
-3.8706973	compétences	-0.08435719
-3.9937685	accrues	-0.08435719
-3.9937685	édicter	-0.08435719
-3.618934	spécifiques	-0.08435719
-3.9937685	déterminées	-0.08435719
-3.9937685	prévoyant	-0.08435719
-3.9937685	bénéficie	-0.08435719
-3.781767	soutien	-0.08435719
-3.8706973	experts	-0.08435719
-3.8706973	juin	-0.20097317
-3.9937685	redéfini	-0.08435719
-3.9937685	modalités	-0.08435719
-3.9937685	conférées	-0.08435719
-3.9937685	Sur	-0.08435719
-3.781767	propositions	-0.08435719
-3.9937685	introduites	-0.08435719
-3.9937685	objet	-0.08435719
-3.9937685	unanime	-0.08435719
-3.9937685	portent	-0.08435719
-3.781767	justement	-0.08435719
-3.9937685	comitologique	-0.08435719
-3.9937685	modifiée	-0.08435719
-3.9937685	voudrions	-0.08435719
-3.9937685	sûrs	-0.08435719
-3.9937685	considérants	-0.08435719
-3.8706973	formulé	-0.08435719
-3.781767	lequel	-0.08435719
-3.9937685	fixé	-0.08435719
-3.781767	trois	-0.08435719
-3.9937685	On	-0.08435719
-3.781767	insiste	-0.08435719
-3.9937685	nécessité	-0.08435719
-3.8706973	transparence	-0.08435719
-3.8706973	accrue	-0.08435719
-3.9937685	Enfin	-0.08435719
-3.781767	continuer	-0.15852566
-3.618934	utiliser	-0.14712265
-3.8706973	citernes	-0.08435719
-3.9937685	véhicules	-0.08435719
-3.8706973	service	-0.08435719
-3.9937685	construction	-0.08435719
-3.9937685	entretien	-0.08435719
-3.9937685	répondent	-0.08435719
-3.9937685	millénaire	-0.08435719
-3.9937685	commenter	-0.08435719
-3.9937685	arrêtée	-0.08435719
-3.9937685	sinon	-0.08435719
-3.9937685	seraient	-0.08435719
-3.9937685	obligés	-0.08435719
-3.8706973	nationale	-0.08435719
-3.9937685	transitoire	-0.08435719
-3.9937685	courte	-0.08435719
-3.9937685	ferait	-0.08435719
-3.9937685	entraîner	-0.08435719
-3.9937685	augmenterait	-0.08435719
-3.781767	bureaucratie	-0.08435719
-3.9937685	Mes	-0.08435719
-3.8706973	concernent	-0.08435719
-3.9937685	résistance	-0.08435719
-3.9937685	froid	-0.08435719
-3.8706973	substances	-0.1387627
-3.9937685	"D"	-0.08435719
-3.9937685	\xad20º	-0.08435719
-3.781767	suffisante	-0.15852566
-3.9937685	imaginer	-0.08435719
-3.618934	quand	-0.08435719
-3.9937685	bord	-0.08435719
-3.9937685	Méditerranée	-0.08435719
-3.8706973	Laponie	-0.08435719
-3.9937685	température	-0.08435719
-3.9937685	descend	-0.08435719
-3.9937685	nettement	-0.08435719
-3.9937685	dessous	-0.08435719
-3.9937685	favorables	-0.08435719
-3.8706973	eux	-0.08435719
-3.9937685	abaissée	-0.08435719
-3.9937685	-40º	-0.08435719
-3.781767	maintenir	-0.08435719
-3.9937685	septentrionales	-0.08435719
-3.9937685	permettez	-0.08435719
-3.9937685	diligence	-0.08435719
-3.9937685	témoigné	-0.08435719
-3.9937685	reprenant	-0.08435719
-3.9937685	vol	-0.08435719
-3.9937685	trouvé	-0.08435719
-3.9937685	exceptionnel	-0.08435719
-3.8706973	thème	-0.08435719
-3.9937685	proprement	-0.08435719
-3.8706973	compter	-0.08435719
-3.5007794	européennes	-0.08435719
-3.9937685	agisse	-0.08435719
-3.9937685	sûre	-0.08435719
-3.781767	contribue	-0.15852566
-3.618934	fond	-0.16043213
-3.8706973	faisons	-0.08435719
-3.9937685	contrariant	-0.08435719
-3.9937685	remercions	-0.08435719
-3.9937685	accompli	-0.08435719
-3.9937685	avancé	-0.08435719
-3.9937685	négligence	-0.08435719
-3.9937685	tardé	-0.08435719
-3.9937685	élaborer	-0.08435719
-3.9937685	harmoniser	-0.08435719
-3.9937685	regard	-0.08435719
-3.781767	fonctionnement	-0.15852566
-3.8706973	marché	-0.08435719
-3.781767	intérieur	-0.08435719
-3.8706973	fonctionne	-0.08435719
-3.9937685	échelle	-0.08435719
-3.5007794	règles	-0.08435719
-3.9937685	Ari	-0.08435719
-3.8706973	Vatanen	-0.08435719
-3.9937685	tienne	-0.08435719
-3.8706973	grands	-0.08435719
-3.9937685	froids	-0.08435719
-3.8706973	connaître	-0.08435719
-3.9937685	circonstance	-0.08435719
-3.9937685	exige	-0.08435719
-3.8706973	prenne	-0.08435719
-3.8706973	considération	-0.08435719
-3.8706973	températures	-0.08435719
-3.9937685	basses	-0.08435719
-3.9937685	emballages	-0.08435719
-3.9937685	imprimer	-0.08435719
-3.8706973	souplesse	-0.08435719
-3.9937685	acceptera	-0.08435719
-3.8706973	engagée	-0.08435719
-3.9937685	faveur	-0.08435719
-3.9937685	reconnu	-0.08435719
-3.9937685	caractère	-0.08435719
-3.9937685	Car	-0.08435719
-3.9937685	claire	-0.08435719
-3.9937685	regrettons	-0.08435719
-3.9937685	capable	-0.08435719
-3.9937685	réaliser	-0.08435719
-3.9937685	fixés	-0.08435719
-3.781767	parvenir	-0.1387627
-3.8706973	appropriée	-0.08435719
-3.8706973	permettent	-0.08435719
-3.8706973	introduire	-0.15852566
-3.9937685	différentiels	-0.08435719
-3.9937685	témoignent	-0.08435719
-3.9937685	diversité	-0.08435719
-3.9937685	instants	-0.08435719
-3.9937685	parlait	-0.08435719
-3.9937685	inférieures	-0.08435719
-3.9937685	-20	-0.08435719
-3.781767	degrés	-0.08435719
-3.9937685	-40	-0.08435719
-3.9937685	acceptons	-0.08435719
-3.9937685	évidemment	-0.08435719
-3.8706973	justifié	-0.08435719
-3.8706973	concrètes	-0.08435719
-3.9937685	variété	-0.08435719
-3.8706973	climatique	-0.08435719
-3.9937685	traduit	-0.08435719
-3.9937685	parfois	-0.08435719
-3.8706973	spécificités	-0.08435719
-3.8706973	envisager	-0.08435719
-3.9937685	normalisations	-0.08435719
-3.9937685	caractérisations	-0.08435719
-3.9937685	déclaré	-0.08435719
-3.9937685	insistons	-0.08435719
-3.9937685	accélèrent	-0.08435719
-3.9937685	dramatique	-0.08435719
-3.9937685	malgré	-0.08435719
-3.9937685	retrouvions	-0.08435719
-3.33158	devant	-0.14712265
-3.781767	difficultés	-0.08435719
-3.9937685	incapables	-0.08435719
-3.781767	apporter	-0.15852566
-3.9937685	solution	-0.08435719
-3.8706973	Tous	-0.1387627
-3.9937685	apports	-0.08435719
-3.9937685	parlementaire	-0.08435719
-3.9937685	débouché	-0.08435719
-3.8706973	repris	-0.20097317
-3.9937685	proposés	-0.08435719
-3.9937685	Coordination	-0.08435719
-3.8706973	Fonds	-0.08435719
-3.781767	structurels	-0.103361785
-3.8706973	cohésion	-0.08435719
-3.9937685	A5-0108	-0.08435719
-3.4079912	fonds	-0.14632851
-3.618934	coordination	-0.12323626
-3.9937685	Président	-0.08435719
-3.8706973	ma	-0.08435719
-3.9937685	Royaume-uni	-0.08435719
-3.9937685	représente	-0.08435719
-3.9937685	Galles	-0.08435719
-3.8706973	êtes	-0.08435719
-3.9937685	majeure	-0.08435719
-3.9937685	devenu	-0.08435719
-3.9937685	éligible	-0.08435719
-3.8706973	voient	-0.08435719
-3.5007794	moyen	-0.12732267
-3.9937685	enrayer	-0.08435719
-3.9937685	grandes	-0.08435719
-3.9937685	indubitablement	-0.08435719
-3.9937685	confrontés	-0.08435719
-3.9937685	fossé	-0.08435719
-3.9937685	riches	-0.08435719
-3.9937685	pauvres	-0.08435719
-3.9937685	creuser	-0.08435719
-3.9937685	restructuration	-0.08435719
-3.9937685	souhaitons	-0.08435719
-3.9937685	apporte	-0.08435719
-3.8706973	améliorations	-0.08435719
-3.2666223	économique	-0.16911985
-3.5007794	points	-0.08435719
-3.9937685	moi	-0.08435719
-3.9937685	placer	-0.08435719
-3.33158	premier	-0.08435719
-3.9937685	espérons	-0.08435719
-3.9937685	traitera	-0.08435719
-3.9937685	liés	-0.08435719
-3.8706973	additionnalité	-0.08435719
-3.9937685	déplorons	-0.08435719
-3.8706973	chiffres	-0.08435719
-3.9937685	britanniques	-0.08435719
-3.9937685	masqué	-0.08435719
-3.9937685	gallois	-0.08435719
-3.9937685	dotera	-0.08435719
-3.9937685	financements	-0.08435719
-3.9937685	appropriés	-0.08435719
-3.9937685	garantira	-0.08435719
-3.8706973	allant	-0.08435719
-3.9937685	encontre	-0.08435719
-3.8706973	gouvernement	-0.20097317
-3.9937685	britannique	-0.08435719
-3.2666223	participation	-0.14406401
-3.8706973	secteur	-0.08435719
-3.618934	privé	-0.08435719
-3.8706973	phase	-0.08435719
-3.8706973	planification	-0.08435719
-3.781767	sûr	-0.08435719
-3.8706973	principal	-0.08435719
-3.8706973	élan	-0.08435719
-3.9937685	dépenses	-0.08435719
-3.9937685	demandons	-0.08435719
-3.9937685	dépensés	-0.08435719
-3.9937685	transparente	-0.08435719
-3.8706973	défaut	-0.08435719
-3.9937685	devenir	-0.08435719
-3.9937685	amie	-0.08435719
-3.8706973	traite	-0.08435719
-3.9937685	angles	-0.08435719
-3.781767	commencer	-0.08435719
-3.9937685	parlerai	-0.08435719
-3.9937685	angle	-0.08435719
-3.9937685	recherche	-0.08435719
-3.9937685	estimons	-0.08435719
-3.618934	fort	-0.08435719
-3.618934	conclusions	-0.08435719
-3.8706973	infrastructures	-0.08435719
-3.2666223	devraient	-0.11070853
-3.9937685	élargies	-0.08435719
-3.9937685	implantant	-0.08435719
-3.9937685	écoles	-0.08435719
-3.9937685	professionnelles	-0.08435719
-3.9937685	universités	-0.08435719
-3.618934	mieux	-0.11070853
-3.9937685	populations	-0.08435719
-3.9937685	formées	-0.08435719
-3.8706973	demeurer	-0.08435719
-3.9937685	origine	-0.08435719
-3.9937685	voulions	-0.08435719
-3.9937685	précisément	-0.08435719
-3.9937685	optique	-0.08435719
-3.9937685	aurions	-0.08435719
-3.9937685	souhaité	-0.08435719
-3.9937685	réfléchissant	-0.08435719
-3.9937685	attache	-0.08435719
-3.8706973	incidence	-0.08435719
-3.9937685	progression	-0.08435719
-3.781767	commerce	-0.08435719
-3.781767	électronique	-0.11070853
-3.9937685	Autrefois	-0.08435719
-3.9937685	pauvreté	-0.08435719
-3.9937685	richesse	-0.08435719
-3.9937685	tributaires	-0.08435719
-3.9937685	structures	-0.08435719
-3.781767	vie	-0.08435719
-3.9937685	chargée	-0.08435719
-3.781767	élaboration	-0.15852566
-3.5007794	pris	-0.12732267
-3.9937685	industrie	-0.08435719
-3.9937685	extérieur	-0.08435719
-3.618934	énergie	-0.10038333
-3.9937685	là-dessus	-0.08435719
-3.8706973	puisque	-0.08435719
-3.9937685	énergétiques	-0.08435719
-3.781767	davantage	-0.08435719
-3.8706973	énergies	-0.20097317
-3.8706973	renouvelables	-0.08435719
-3.618934	grâce	-0.22774825
-3.4079912	ressources	-0.1387627
-3.781767	permis	-0.08435719
-3.9937685	exploitation	-0.08435719
-3.781767	formes	-0.15852566
-3.9937685	insuffisance	-0.08435719
-3.9937685	financement	-0.08435719
-3.8706973	pu	-0.08435719
-3.9937685	compensée	-0.08435719
-3.9937685	conséquents	-0.08435719
-3.781767	emploi	-0.103361785
-3.9937685	affaires	-0.08435719
-3.8706973	sociales	-0.08435719
-3.9937685	approuvés	-0.08435719
-3.9937685	trait	-0.08435719
-3.8706973	économie	-0.08435719
-3.33158	sociale	-0.18372142
-3.9937685	Social	-0.08435719
-3.9937685	Risk	-0.08435719
-3.9937685	Capital	-0.08435719
-3.9937685	soutenir	-0.08435719
-3.8706973	plans	-0.08435719
-3.4079912	développement	-0.23077904
-3.781767	potentialités	-0.15852566
-3.9937685	renforcement	-0.08435719
-3.9937685	envisagé	-0.08435719
-3.9937685	fournisseur	-0.08435719
-3.781767	potentiel	-0.08435719
-3.9937685	emplois	-0.08435719
-3.8706973	exclusion	-0.08435719
-3.618934	action	-0.11070853
-3.8706973	constructive	-0.20097317
-3.9937685	envisagent	-0.08435719
-3.8706973	choix	-0.08435719
-3.9937685	Flautre	-0.08435719
-3.9937685	souligne	-0.08435719
-3.9937685	cruel	-0.08435719
-3.9937685	désespérément	-0.08435719
-3.4079912	besoin	-0.24146228
-3.9937685	réfèrent	-0.08435719
-3.9937685	piliers	-0.08435719
-3.8706973	stratégie	-0.08435719
-3.2101285	actions	-0.23067616
-3.5007794	social	-0.21863857
-3.8706973	oubli	-0.08435719
-3.8706973	donne	-0.08435719
-3.9937685	impression	-0.08435719
-3.781767	sait	-0.08435719
-3.9937685	sujettes	-0.08435719
-3.8706973	révision	-0.08435719
-3.781767	nationaux	-0.08435719
-3.9937685	rassurer	-0.08435719
-3.9937685	réparera	-0.08435719
-3.9937685	remplissant	-0.08435719
-3.8706973	agriculture	-0.08435719
-3.618934	rural	-0.08435719
-3.8706973	défis	-0.08435719
-3.781767	lesquels	-0.08435719
-3.9937685	trouvons	-0.08435719
-3.8706973	rurales	-0.08435719
-3.8706973	changements	-0.08435719
-3.9937685	interviennent	-0.08435719
-3.618934	économiques	-0.1387627
-3.9937685	perte	-0.08435719
-3.9937685	croissante	-0.08435719
-3.9937685	poids	-0.08435719
-3.9937685	agricole	-0.08435719
-3.618934	sources	-0.22774825
-3.9937685	revenu	-0.08435719
-3.9937685	rurale	-0.08435719
-3.9937685	Ceci	-0.08435719
-3.8706973	ajouté	-0.08435719
-3.9937685	déficiences	-0.08435719
-3.781767	réseaux	-0.08435719
-3.618934	généralement	-0.08435719
-3.9937685	saisonnière	-0.08435719
-3.9937685	diversifiée	-0.08435719
-3.9937685	accentuent	-0.08435719
-3.9937685	exode	-0.08435719
-3.8706973	conséquences	-0.08435719
-3.9937685	attendre	-0.08435719
-3.8706973	jeunes	-0.08435719
-3.9937685	disparaissent	-0.08435719
-3.9937685	acquièrent	-0.08435719
-3.8706973	trouvent	-0.08435719
-3.9937685	défavorable	-0.08435719
-3.9937685	absence	-0.08435719
-3.9937685	obstacle	-0.08435719
-3.9937685	implantation	-0.08435719
-3.9937685	création	-0.08435719
-3.9937685	%	-0.08435719
-3.9937685	quarts	-0.08435719
-3.8706973	agriculteurs	-0.08435719
-3.9937685	partiel	-0.08435719
-3.9937685	revenus	-0.08435719
-3.9937685	appoint	-0.08435719
-3.8706973	efficaces	-0.15852566
-3.9937685	transcendants	-0.08435719
-3.8706973	fixer	-0.08435719
-3.9937685	centrer	-0.08435719
-3.5007794	nouveaux	-0.11986001
-3.781767	postes	-0.2884295
-3.8706973	secteurs	-0.08435719
-3.9937685	sport	-0.08435719
-3.9937685	culture	-0.08435719
-3.9937685	restauration	-0.08435719
-3.9937685	patrimoine	-0.08435719
-3.9937685	reconversion	-0.08435719
-3.618934	nouvelles	-0.08435719
-3.8706973	technologies	-0.15852566
-3.9937685	etc	-0.08435719
-3.8706973	vrai	-0.20097317
-3.781767	veut	-0.08435719
-3.618934	éviter	-0.14712265
-3.9937685	désintégration	-0.08435719
-3.9937685	villes	-0.08435719
-3.9937685	fantômes	-0.08435719
-3.8706973	jouent	-0.20097317
-3.8706973	territoire	-0.08435719
-3.9937685	préservation	-0.08435719
-3.9937685	biodiversité	-0.08435719
-3.8706973	environnement	-0.08435719
-3.9937685	définir	-0.08435719
-3.781767	critères	-0.08435719
-3.9937685	généraux	-0.08435719
-3.9937685	aménagement	-0.08435719
-3.8706973	équilibre	-0.08435719
-3.9937685	parvenue	-0.08435719
-3.618934	fondamentaux	-0.17501023
-3.8706973	établissement	-0.1387627
-3.781767	estime	-0.08435719
-3.9937685	maintien	-0.08435719
-3.8706973	milieu	-0.08435719
-3.9937685	prioritaires	-0.08435719
-3.9937685	remerciant	-0.08435719
-3.781767	volonté	-0.08435719
-3.9937685	dialogue	-0.08435719
-3.781767	groupes	-0.08435719
-3.8706973	politiques	-0.08435719
-3.8706973	trouver	-0.08435719
-3.9937685	formules	-0.08435719
-3.9937685	compromis	-0.08435719
-3.9937685	avalanche	-0.08435719
-3.9937685	peut-être	-0.08435719
-3.9937685	attendait	-0.08435719
-3.9937685	écho	-0.08435719
-3.8706973	train	-0.08435719
-3.9937685	yeux	-0.08435719
-3.8706973	approuvées	-0.08435719
-3.9937685	inutile	-0.08435719
-3.9937685	purement	-0.08435719
-3.9937685	rhétorique	-0.08435719
-3.9937685	souligné	-0.08435719
-3.9937685	accordons	-0.08435719
-3.8706973	synergies	-0.08435719
-3.8706973	initiatives	-0.08435719
-3.5007794	communautaires	-0.08435719
-3.9937685	rentable	-0.08435719
-3.9937685	élimination	-0.08435719
-3.8706973	progressive	-0.08435719
-3.8706973	inégalités	-0.1387627
-3.9937685	définitive	-0.08435719
-3.9937685	correspond	-0.08435719
-3.9937685	arriver	-0.08435719
-3.8706973	rapide	-0.08435719
-3.9937685	satisfaction	-0.08435719
-3.9937685	participent	-0.08435719
-3.9937685	créateurs	-0.08435719
-3.9937685	véritables	-0.08435719
-3.9937685	entrepreneurs	-0.08435719
-3.9937685	garantissent	-0.08435719
-3.9937685	patrons	-0.08435719
-3.8706973	surtout	-0.08435719
-3.781767	petites	-0.08435719
-3.9937685	moyennes	-0.08435719
-3.9937685	sentent	-0.08435719
-3.9937685	exclus	-0.08435719
-3.781767	participer	-0.08435719
-3.9937685	parle	-0.08435719
-3.9937685	réception	-0.08435719
-3.9937685	aurons	-0.08435719
-3.9937685	manqué	-0.08435719
-3.9937685	chance	-0.08435719
-3.781767	atteindre	-0.08435719
-3.781767	ceux-ci	-0.08435719
-3.9937685	surmonter	-0.08435719
-3.9937685	miser	-0.08435719
-3.9937685	résolument	-0.08435719
-3.9937685	communications	-0.08435719
-3.9937685	entreprise	-0.08435719
-3.8706973	privée	-0.08435719
-3.9937685	unissant	-0.08435719
-3.9937685	administrations	-0.08435719
-3.5007794	publiques	-0.08435719
-3.9937685	complétant	-0.08435719
-3.9937685	obstruction	-0.08435719
-3.9937685	créera	-0.08435719
-3.9937685	richesses	-0.08435719
-3.8706973	incombe	-0.08435719
-3.5007794	rappeler	-0.08435719
-3.8706973	cause	-0.08435719
-3.9937685	éligibilité	-0.08435719
-3.9937685	discréditées	-0.08435719
-3.9937685	conservateur	-0.08435719
-3.9937685	Permettez	-0.08435719
-3.9937685	-moi	-0.08435719
-3.9937685	chef	-0.08435719
-3.9937685	Hague	-0.08435719
-3.9937685	ministre	-0.08435719
-3.781767	respecté	-0.08435719
-3.9937685	valu	-0.08435719
-3.9937685	sévère	-0.08435719
-3.9937685	Wulf-Mathies	-0.08435719
-3.8706973	réglementaires	-0.08435719
-3.9937685	suggère	-0.08435719
-3.8706973	aller	-0.08435719
-3.9937685	relire	-0.08435719
-3.781767	règlement	-0.08435719
-3.781767	identifier	-0.08435719
-3.8706973	capacités	-0.20097317
-3.8706973	haute	-0.08435719
-3.9937685	technologie	-0.08435719
-3.9937685	reportages	-0.08435719
-3.8706973	montrent	-0.08435719
-3.9937685	perd	-0.08435719
-3.8706973	terrain	-0.08435719
-3.9937685	Unis	-0.08435719
-3.9937685	industries	-0.08435719
-3.9937685	pleine	-0.08435719
-3.9937685	croissance	-0.08435719
-3.9937685	couches	-0.08435719
-3.9937685	supplémentaires	-0.08435719
-3.9937685	paperasserie	-0.08435719
-3.9937685	laissée	-0.08435719
-3.9937685	interprétation	-0.08435719
-3.9937685	personnelle	-0.08435719
-3.9937685	fonctionnaire	-0.08435719
-3.9937685	publique	-0.08435719
-3.9937685	cohérence	-0.08435719
-3.9937685	interne	-0.08435719
-3.8706973	direction	-0.08435719
-3.9937685	locales	-0.08435719
-3.8706973	régionaux	-0.08435719
-3.9937685	indicatives	-0.08435719
-3.8706973	souples	-0.08435719
-3.9937685	aider	-0.08435719
-3.9937685	gestionnaires	-0.08435719
-3.8706973	utilisateurs	-0.08435719
-3.9937685	crédits	-0.08435719
-3.9937685	valoriser	-0.08435719
-3.9937685	régénération	-0.08435719
-3.9937685	constate	-0.08435719
-3.9937685	consulté	-0.08435719
-3.9937685	voulu	-0.08435719
-3.5007794	orientations	-0.08435719
-3.9937685	Espérons	-0.08435719
-3.8706973	utiles	-0.08435719
-3.618934	évaluation	-0.114607
-3.9937685	mi	-0.08435719
-3.9937685	parcours	-0.08435719
-3.8706973	pratique	-0.20097317
-3.9937685	vaste	-0.08435719
-3.9937685	successifs	-0.08435719
-3.781767	stade	-0.08435719
-3.9937685	réflexion	-0.08435719
-3.9937685	orienter	-0.08435719
-3.9937685	gardant	-0.08435719
-3.781767	réduction	-0.12732267
-3.9937685	disparités	-0.08435719
-3.8706973	régionales	-0.08435719
-3.9937685	met	-0.08435719
-3.9937685	accent	-0.08435719
-3.8706973	acteurs	-0.08435719
-3.781767	PME	-0.08435719
-3.781767	importe	-0.08435719
-3.9937685	outre-mer	-0.08435719
-3.8706973	périphériques	-0.20097317
-3.8706973	augmente	-0.08435719
-3.9937685	interaction	-0.08435719
-3.9937685	ville	-0.08435719
-3.781767	campagne	-0.1387627
-3.618934	efficacité	-0.14712265
-3.9937685	dû	-0.08435719
-3.9937685	souffrir	-0.08435719
-3.9937685	lente	-0.08435719
-3.781767	complexe	-0.15852566
-3.9937685	Souvent	-0.08435719
-3.9937685	attribuées	-0.08435719
-3.9937685	laissé	-0.08435719
-3.781767	durable	-0.08435719
-3.9937685	concernée	-0.08435719
-3.781767	faudrait	-0.08435719
-3.9937685	produisent	-0.08435719
-3.9937685	occasion	-0.08435719
-3.8706973	intéressant	-0.08435719
-3.781767	bon	-0.08435719
-3.9937685	soutient	-0.08435719
-3.9937685	dépassé	-0.08435719
-3.9937685	consultative	-0.08435719
-3.9937685	subordonnée	-0.08435719
-3.9937685	Elisabeth	-0.08435719
-3.8706973	plénière	-0.08435719
-3.8706973	régional	-0.1387627
-3.8706973	territoires	-0.08435719
-3.9937685	table	-0.08435719
-3.9937685	Compte	-0.08435719
-3.9937685	précède	-0.08435719
-3.9937685	exiger	-0.08435719
-3.8706973	partir	-0.15852566
-3.9937685	cadres	-0.08435719
-3.9937685	appui	-0.08435719
-3.9937685	étudiés	-0.08435719
-3.8706973	adoption	-0.08435719
-3.9937685	présentons	-0.08435719
-3.9937685	perdre	-0.08435719
-3.9937685	devoir	-0.08435719
-3.781767	représentants	-0.1387627
-3.9937685	constatons	-0.08435719
-3.9937685	condition	-0.08435719
-3.9937685	insuffisante	-0.08435719
-3.9937685	prenons	-0.08435719
-3.9937685	indicateur	-0.08435719
-3.618934	produit	-0.11070853
-3.9937685	brut	-0.08435719
-3.9937685	habitant	-0.08435719
-3.9937685	risquons	-0.08435719
-3.9937685	tromper	-0.08435719
-3.9937685	Certains	-0.08435719
-3.9937685	parlé	-0.08435719
-3.8706973	chômage	-0.08435719
-3.9937685	diminution	-0.08435719
-3.9937685	démographie	-0.08435719
-3.9937685	faudra	-0.08435719
-3.8706973	indicateurs	-0.08435719
-3.8706973	permettant	-0.20097317
-3.9937685	sociétés	-0.08435719
-3.9937685	apparaît	-0.08435719
-3.8706973	prospères	-0.08435719
-3.9937685	comptent	-0.08435719
-3.9937685	chômeurs	-0.08435719
-3.9937685	oblige	-0.08435719
-3.9937685	décidée	-0.08435719
-3.781767	eu	-0.08435719
-3.8706973	donnée	-0.08435719
-3.9937685	retard	-0.08435719
-3.9937685	puisse	-0.08435719
-3.9937685	protagonistes	-0.08435719
-3.9937685	représentons	-0.08435719
-3.9937685	Ceux-ci	-0.08435719
-3.781767	façon	-0.08435719
-3.9937685	apparence	-0.08435719
-3.9937685	bureaucratique	-0.08435719
-3.9937685	Ils	-0.08435719
-3.9937685	dimension	-0.08435719
-3.9937685	responsabilités	-0.08435719
-3.781767	établie	-0.08435719
-3.8706973	veux	-0.08435719
-3.8706973	expérience	-0.08435719
-3.9937685	passée	-0.08435719
-3.9937685	proposer	-0.08435719
-3.9937685	productivité	-0.08435719
-3.8706973	favorable	-0.08435719
-3.5007794	principales	-0.08435719
-3.9937685	administration	-0.08435719
-3.8706973	recommandations	-0.08435719
-3.9937685	invités	-0.08435719
-3.781767	stratégies	-0.08435719
-3.8706973	intégrées	-0.08435719
-3.9937685	revitaliser	-0.08435719
-3.9937685	entres	-0.08435719
-3.9937685	urbaines	-0.08435719
-3.9937685	poursuivra	-0.08435719
-3.8706973	financières	-0.08435719
-3.9937685	dirigeants	-0.08435719
-3.9937685	définies	-0.08435719
-3.8706973	sommet	-0.08435719
-3.9937685	Berlin	-0.08435719
-3.781767	mai	-0.08435719
-3.8706973	contribué	-0.20097317
-3.9937685	compétitivité	-0.08435719
-3.9937685	soutenu	-0.08435719
-3.9937685	clés	-0.08435719
-3.9937685	joué	-0.08435719
-3.9937685	aidant	-0.08435719
-3.9937685	favorisés	-0.08435719
-3.8706973	amélioré	-0.08435719
-3.9937685	financé	-0.08435719
-3.781767	cycle	-0.15852566
-3.9937685	globaux	-0.08435719
-3.9937685	lutter	-0.08435719
-3.8706973	longue	-0.08435719
-3.9937685	interrompent	-0.08435719
-3.9937685	prématurément	-0.08435719
-3.9937685	scolarité	-0.08435719
-3.9937685	alphabétisation	-0.08435719
-3.9937685	adultes	-0.08435719
-3.9937685	désaccord	-0.08435719
-3.33158	approche	-0.13236997
-3.9937685	souscris	-0.08435719
-3.9937685	vues	-0.08435719
-3.9937685	préférerions	-0.08435719
-3.9937685	Mccarthy	-0.08435719
-3.9937685	rapporteurs	-0.08435719
-3.9937685	jointes	-0.08435719
-3.9937685	dis	-0.08435719
-3.8706973	grand	-0.08435719
-3.9937685	secours	-0.08435719
-3.781767	augmentation	-0.1387627
-3.8706973	égalité	-0.08435719
-3.9937685	chances	-0.08435719
-3.9937685	totalement	-0.08435719
-3.9937685	grief	-0.08435719
-3.9937685	insulaire	-0.08435719
-3.9937685	négligé	-0.08435719
-3.8706973	îles	-0.20097317
-3.9937685	continuerons	-0.08435719
-3.9937685	relancer	-0.08435719
-3.9937685	paragraphe	-0.08435719
-3.9937685	traité	-0.08435719
-3.9937685	Amsterdam	-0.08435719
-3.8706973	prévoit	-0.08435719
-3.8706973	intégrée	-0.08435719
-3.9937685	enfin	-0.08435719
-3.8706973	code	-0.08435719
-3.8706973	conduite	-0.08435719
-3.9937685	informé	-0.08435719
-3.9937685	évolutions	-0.08435719
-3.9937685	détails	-0.08435719
-3.9937685	demie	-0.08435719
-3.9937685	mérite	-0.08435719
-3.9937685	ouverte	-0.08435719
-3.9937685	attentive	-0.08435719
-3.8706973	uns	-0.08435719
-3.9937685	disponibilité	-0.08435719
-3.9937685	observons	-0.08435719
-3.9937685	associerai	-0.08435719
-3.8706973	regret	-0.08435719
-3.8706973	exprimé	-0.08435719
-3.8706973	marche	-0.08435719
-3.9937685	négociation	-0.08435719
-3.9937685	avancée	-0.08435719
-3.9937685	penser	-0.08435719
-3.9937685	immédiat	-0.08435719
-3.8706973	mots	-0.08435719
-3.9937685	entrons	-0.08435719
-3.9937685	programmation	-0.08435719
-3.9937685	routine	-0.08435719
-3.9937685	relever	-0.08435719
-3.781767	celui	-0.2884295
-3.781767	national	-0.15852566
-3.9937685	subventions	-0.08435719
-3.9937685	suffisent	-0.08435719
-3.8706973	publics	-0.08435719
-3.9937685	poser	-0.08435719
-3.8706973	défi	-0.08435719
-3.9937685	élargissement	-0.08435719
-3.9937685	considérables	-0.08435719
-3.9937685	budgétaires	-0.08435719
-3.9937685	géographiques	-0.08435719
-3.9937685	Voilà	-0.08435719
-3.9937685	chantiers	-0.08435719
-3.9937685	associer	-0.08435719
-3.8706973	naturelles	-0.08435719
-3.9937685	évoquer	-0.08435719
-3.8706973	appartient	-0.08435719
-3.5007794	chacun	-0.11986001
-3.9937685	redistribuer	-0.08435719
-3.9937685	enveloppes	-0.08435719
-3.9937685	tendance	-0.08435719
-3.9937685	vouloir	-0.08435719
-3.9937685	disparaisse	-0.08435719
-3.9937685	complètement	-0.08435719
-3.9937685	"Aujourdhui"	-0.08435719
-3.9937685	accusent	-0.08435719
-3.5007794	abonnés	-0.08435719
-3.9937685	absents	-0.08435719
-3.9937685	financer	-0.08435719
-3.9937685	soyons	-0.08435719
-3.9937685	capables	-0.08435719
-3.9937685	instaurions	-0.08435719
-3.9937685	demandions	-0.08435719
-3.8706973	assurent	-0.20097317
-3.9937685	aides	-0.08435719
-3.9937685	mobilisées	-0.08435719
-3.9937685	réparer	-0.08435719
-3.9937685	causés	-0.08435719
-3.618934	financiers	-0.1387627
-3.9937685	monétaires	-0.08435719
-3.9937685	renforce	-0.08435719
-3.9937685	montée	-0.08435719
-3.9937685	Or	-0.08435719
-3.9937685	freiner	-0.08435719
-3.9937685	tournée	-0.08435719
-3.9937685	besoins	-0.08435719
-3.781767	sociaux	-0.08435719
-3.618934	vise	-0.22774825
-3.8706973	convergence	-0.08435719
-3.9937685	proposons	-0.08435719
-3.9937685	unifié	-0.08435719
-3.9937685	permettrait	-0.08435719
-3.9937685	alimenter	-0.08435719
-3.781767	utilisés	-0.22774825
-3.9937685	accompagner	-0.08435719
-3.9937685	systèmes	-0.08435719
-3.9937685	floue	-0.08435719
-3.9937685	redonne	-0.08435719
-3.9937685	conduira	-0.08435719
-3.9937685	mondialisation	-0.08435719
-3.9937685	précises	-0.08435719
-3.9937685	relance	-0.08435719
-3.9937685	Dès	-0.08435719
-3.9937685	au-delà	-0.08435719
-3.9937685	intentions	-0.08435719
-3.9937685	clarifie	-0.08435719
-3.9937685	engage	-0.08435719
-3.9937685	dernières	-0.08435719
-3.9937685	rencontré	-0.08435719
-3.9937685	excessive	-0.08435719
-3.9937685	implication	-0.08435719
-3.9937685	quasi	-0.08435719
-3.9937685	absente	-0.08435719
-3.8706973	opérateurs	-0.08435719
-3.9937685	local	-0.08435719
-3.9937685	concertation	-0.08435719
-3.9937685	instrument	-0.08435719
-3.9937685	déséquilibres	-0.08435719
-3.9937685	Avant	-0.08435719
-3.8706973	inscrire	-0.08435719
-3.9937685	Combien	-0.08435719
-3.9937685	coûte	-0.08435719
-3.781767	inscription	-0.08435719
-3.0375528	Facebook	-0.14893863
-3.9937685	Est	-0.08435719
-3.9937685	facturer	-0.08435719
-3.9937685	aurez	-0.08435719
-3.8706973	payer	-0.08435719
-3.9937685	revanche	-0.08435719
-3.9937685	possibilité	-0.08435719
-3.8706973	acheter	-0.20097317
-3.9937685	cadeaux	-0.08435719
-3.9937685	articles	-0.08435719
-3.9937685	applications	-0.08435719
-3.8706973	jeux	-0.08435719
-3.9937685	Quel	-0.08435719
-3.781767	âge	-0.08435719
-3.9937685	minimal	-0.08435719
-3.9937685	requis	-0.08435719
-3.9937685	devez	-0.08435719
-3.9937685	Peut	-0.08435719
-3.8706973	-on	-0.08435719
-3.9937685	partager	-0.08435719
-3.9937685	"quelqu"	-0.08435719
-3.8706973	comptes	-0.08435719
-3.9937685	conçus	-0.08435719
-3.9937685	individuelle	-0.08435719
-3.9937685	autorisons	-0.08435719
-3.9937685	communs	-0.08435719
-3.781767	pouvez	-0.1077004
-3.8706973	Étant	-0.20097317
-3.618934	individu	-0.1387627
-3.8706973	réel	-0.08435719
-3.9937685	communique	-0.08435719
-3.9937685	noms	-0.08435719
-3.9937685	Après	-0.08435719
-3.9937685	pages	-0.08435719
-3.8706973	amitié	-0.08435719
-3.781767	consulter	-0.08435719
-3.9937685	interactions	-0.08435719
-3.2101285	vos	-0.12732267
-3.781767	amis	-0.08435719
-3.9937685	regroupées	-0.08435719
-3.9937685	endroit	-0.08435719
-3.9937685	Pourquoi	-0.08435719
-3.9937685	reçois	-0.08435719
-3.781767	courrier	-0.15852566
-3.9937685	invitation	-0.08435719
-3.9937685	ami	-0.08435719
-3.618934	membre	-0.17451549
-3.9937685	rejoindre	-0.08435719
-3.8706973	invitations	-0.08435719
-3.9937685	contacts	-0.08435719
-3.9937685	saisissant	-0.08435719
-3.9937685	chargeant	-0.08435719
-3.8706973	ajouter	-0.15852566
-3.9937685	existant	-0.08435719
-3.781767	recevoir	-0.08435719
-3.9937685	voulez	-0.08435719
-3.9937685	lien	-0.08435719
-3.9937685	désinscription	-0.08435719
-3.9937685	trouve	-0.08435719
-3.8706973	bas	-0.08435719
-3.9937685	Création	-0.08435719
-3.9937685	Quelle	-0.08435719
-3.9937685	différence	-0.08435719
-3.8706973	connexion	-0.08435719
-3.9937685	possédez	-0.08435719
-3.8706973	suivant	-0.08435719
-3.8706973	étapes	-0.08435719
-3.781767	simples	-0.08435719
-3.9937685	disposez	-0.08435719
-3.9937685	connecter	-0.08435719
-3.618934	page	-0.15852566
-3.9937685	Saisissez	-0.08435719
-3.4079912	mot	-0.58945954
-3.8706973	section	-0.08435719
-3.9937685	située	-0.08435719
-3.8706973	cliquez	-0.20097317
-3.9937685	Quels	-0.08435719
-3.9937685	minimaux	-0.08435719
-3.9937685	renforcer	-0.08435719
-3.9937685	créez	-0.08435719
-3.781767	utilisez	-0.08435719
-3.9937685	combinaison	-0.08435719
-3.8706973	lettres	-0.08435719
-3.9937685	marques	-0.08435719
-3.9937685	ponctuation	-0.08435719
-3.9937685	caractères	-0.08435719
-3.9937685	entrez	-0.08435719
-3.9937685	minuscules	-0.08435719
-3.9937685	majuscules	-0.08435719
-3.9937685	allonger	-0.08435719
-3.9937685	choisissez	-0.08435719
-3.9937685	facile	-0.08435719
-3.9937685	mémoriser	-0.08435719
-3.9937685	deviner	-0.08435719
-3.9937685	Votre	-0.08435719
-3.9937685	différent	-0.08435719
-3.9937685	propriétaire	-0.08435719
-3.9937685	perdez	-0.08435719
-3.8706973	Paramètres	-0.08435719
-3.9937685	Cliquez	-0.08435719
-3.9937685	menu	-0.08435719
-3.9937685	supérieure	-0.08435719
-3.9937685	droite	-0.08435719
-3.9937685	sélectionnez	-0.08435719
-3.9937685	colonne	-0.08435719
-3.9937685	gauche	-0.08435719
-3.9937685	suivez	-0.08435719
-3.9937685	affichera	-0.08435719
-3.9937685	Conseils	-0.08435719
-3.618934	choisir	-0.08435719
-3.9937685	Choisissez	-0.08435719
-3.9937685	divulguez	-0.08435719
-3.9937685	Assurez	-0.08435719
-3.9937685	précise	-0.08435719
-3.9937685	impossible	-0.08435719
-3.9937685	mettant	-0.08435719
-3.9937685	Atteignez	-0.08435719
-3.8706973	millions	-0.15852566
-3.8706973	clients	-0.08435719
-3.9937685	potentiels	-0.08435719
-3.9937685	Créer	-0.08435719
-3.9937685	contacter	-0.08435719
-3.9937685	équipe	-0.08435719
-3.9937685	vente	-0.08435719
-3.9937685	Touchez	-0.08435719
-3.8706973	ciblés	-0.08435719
-3.9937685	Plus	-0.08435719
-3.9937685	centres	-0.08435719
-3.781767	intérêt	-0.08435719
-3.9937685	Essayez	-0.08435719
-3.9937685	images	-0.08435719
-3.781767	publicités	-0.08435719
-3.9937685	Faites	-0.08435719
-3.9937685	web	-0.08435719
-3.9937685	Utilisez	-0.08435719
-3.4079912	bouton	-0.2742137
-3.9937685	aime	-0.08435719
-3.9937685	Bâtissez	-0.08435719
-3.9937685	autour	-0.08435719
-3.9937685	Contrôlez	-0.08435719
-3.8706973	budget	-0.1387627
-3.9937685	Définissez	-0.08435719
-3.9937685	quotidien	-0.08435719
-3.9937685	Ajustez	-0.08435719
-3.9937685	clic	-0.08435719
-3.9937685	CPC	-0.08435719
-3.9937685	affichage	-0.08435719
-3.9937685	CPM	-0.08435719
-3.9937685	bons	-0.08435719
-3.8706973	prospects	-0.08435719
-3.9937685	jours	-0.08435719
-3.9937685	intéressés	-0.08435719
-3.8706973	CM	-0.20097317
-3.9937685	Photographics	-0.08435719
-3.9937685	converti	-0.08435719
-3.8706973	investissement	-0.08435719
-3.781767	publicitaire	-0.1387627
-3.9937685	dollars	-0.08435719
-3.8706973	quasiment	-0.08435719
-3.9937685	Parmi	-0.08435719
-3.9937685	utilisatrices	-0.08435719
-3.9937685	rendues	-0.08435719
-3.9937685	tarification	-0.08435719
-3.9937685	souple	-0.08435719
-3.8706973	suggestions	-0.20097317
-3.9937685	rendent	-0.08435719
-3.618934	campagnes	-0.41336823
-3.8706973	publicitaires	-0.08435719
-3.8706973	G5	-0.08435719
-3.9937685	cible	-0.08435719
-3.9937685	étudiants	-0.08435719
-3.9937685	campus	-0.08435719
-3.9937685	garde-meubles	-0.08435719
-3.8706973	Storquest	-0.08435719
-3.8706973	proposées	-0.08435719
-3.781767	système	-0.08435719
-3.9937685	gérer	-0.08435719
-3.9937685	filtres	-0.08435719
-3.9937685	ciblage	-0.08435719
-3.8706973	études	-0.08435719
-3.9937685	géographie	-0.08435719
-3.9937685	figurent	-0.08435719
-3.9937685	rentables	-0.08435719
-3.9937685	locations	-0.08435719
-3.9937685	Équivalent	-0.08435719
-3.9937685	Google	-0.08435719
-3.9937685	Adwords	-0.08435719
-3.5007794	coût	-0.16043213
-3.9937685	piste	-0.08435719
-3.9937685	client	-0.08435719
-3.8706973	conduit	-0.20097317
-3.9937685	Combiner	-0.08435719
-3.8706973	solutions	-0.08435719
-3.9937685	marketing	-0.08435719
-3.9937685	retour	-0.08435719
-3.8706973	Une	-0.08435719
-3.9937685	présence	-0.08435719
-3.8706973	intermédiaire	-0.08435719
-3.9937685	Page	-0.08435719
-3.8706973	évènements	-0.08435719
-3.9937685	convertir	-0.08435719
-3.8706973	recommandation	-0.08435719
-3.8706973	aide	-0.08435719
-3.9937685	utilisateur	-0.08435719
-3.9937685	affiliés	-0.08435719
-3.781767	ANA	-0.08435719
-3.8706973	suivi	-0.08435719
-3.9937685	créant	-0.08435719
-3.9937685	acquérir	-0.08435719
-3.9937685	messages	-0.08435719
-3.9937685	développant	-0.08435719
-3.9937685	intéressante	-0.08435719
-3.9937685	conduisent	-0.08435719
-3.781767	taux	-0.15852566
-3.9937685	clics	-0.08435719
-3.8706973	obtenir	-0.08435719
-3.9937685	conversions	-0.08435719
-3.9937685	mené	-0.08435719
-3.8706973	unique	-0.08435719
-3.9937685	achat	-0.08435719
-3.9937685	impulsif	-0.08435719
-3.8706973	plupart	-0.1387627
-3.9937685	considéré	-0.08435719
-3.8706973	abonner	-0.08435719
-3.8706973	Chacun	-0.1387627
-3.9937685	abonné	-0.08435719
-3.9937685	actualités	-0.08435719
-3.9937685	journalistes	-0.08435719
-3.9937685	célébrités	-0.08435719
-3.781767	monde	-0.1387627
-3.618934	profil	-0.1387627
-3.618934	mises	-0.41336823
-3.618934	fil	-0.41336823
-3.9937685	Trouver	-0.08435719
-3.9937685	personnalisé	-0.08435719
-3.9937685	voyez	-0.08435719
-3.9937685	photos	-0.08435719
-3.9937685	limiter	-0.08435719
-3.9937685	marquants	-0.08435719
-3.9937685	Vos	-0.08435719
-3.9937685	propres	-0.08435719
-3.9937685	autoriser	-0.08435719
-3.9937685	passer	-0.08435719
-3.9937685	réservant	-0.08435719
-3.8706973	publications	-0.08435719
-3.9937685	personnelles	-0.08435719
-3.9937685	connaissez	-0.08435719
-3.9937685	Questions	-0.08435719
-3.9937685	fréquentes	-0.08435719
-3.9937685	profils	-0.08435719
-3.9937685	Seules	-0.08435719
-3.9937685	activé	-0.08435719
-3.8706973	abonnement	-0.08435719
-3.9937685	activez	-0.08435719
-3.9937685	fonctionnalité	-0.08435719
-3.9937685	affiché	-0.08435719
-3.9937685	publiez	-0.08435719
-3.8706973	paramètre	-0.20097317
-3.9937685	apparaîtra	-0.08435719
-3.9937685	cliquent	-0.08435719
-3.9937685	autorise	-0.08435719
-3.9937685	quelles	-0.08435719
-3.8706973	quantité	-0.08435719
-3.9937685	verront	-0.08435719
-3.8706973	apprendre	-0.08435719
-3.9937685	consultez	-0.08435719
-3.9937685	Aide	-0.08435719
-3.9937685	Découvrez	-0.08435719
-3.9937685	différences	-0.08435719
-3.9937685	Directive	-0.08435719
-3.9937685	établissant	-0.08435719
-3.4079912	cadre	-0.12323626
-3.8706973	fixation	-0.08435719
-3.8706973	écoconception	-0.08435719
-3.618934	consommateurs	-0.08435719
-3.9937685	CEE	-0.08435719
-3.9937685	directives	-0.08435719
-3.9937685	entraves	-0.08435719
-3.9937685	prévenir	-0.08435719
-3.9937685	déloyale	-0.08435719
-3.9937685	représentent	-0.08435719
-3.9937685	consommation	-0.08435719
-3.781767	impacts	-0.08435719
-3.8706973	environnementaux	-0.08435719
-3.9937685	observés	-0.08435719
-3.8706973	présentent	-0.08435719
-3.8706973	performances	-0.08435719
-3.8706973	fonctionnelles	-0.08435719
-3.9937685	similaires	-0.08435719
-3.9937685	encourager	-0.08435719
-3.781767	amélioration	-0.11986001
-3.9937685	permanente	-0.08435719
-3.8706973	environnemental	-0.08435719
-3.781767	global	-0.08435719
-3.9937685	recensant	-0.08435719
-3.9937685	négatifs	-0.08435719
-3.9937685	évitant	-0.08435719
-3.9937685	transfert	-0.08435719
-3.781767	pollution	-0.08435719
-3.9937685	excessifs	-0.08435719
-3.9937685	axe	-0.08435719
-3.9937685	préventive	-0.08435719
-3.9937685	optimiser	-0.08435719
-3.9937685	conservant	-0.08435719
-3.8706973	usage	-0.08435719
-3.9937685	opportunités	-0.08435719
-3.9937685	réelles	-0.08435719
-3.9937685	fabricant	-0.08435719
-3.8706973	consommateur	-0.08435719
-3.618934	énergétique	-0.15016147
-3.9937685	résidant	-0.08435719
-3.9937685	finale	-0.08435719
-3.9937685	électricité	-0.08435719
-3.8706973	facteur	-0.08435719
-3.9937685	contribuant	-0.08435719
-3.9937685	substantielle	-0.08435719
-3.9937685	réalisation	-0.08435719
-3.9937685	émissions	-0.08435719
-3.781767	gaz	-0.08435719
-3.9937685	serre	-0.08435719
-3.781767	indique	-0.15852566
-3.8706973	changement	-0.20097317
-3.9937685	PECC	-0.08435719
-3.9937685	priorités	-0.08435719
-3.9937685	sixième	-0.08435719
-3.8706973	no	-0.20097317
-3.9937685	économies	-0.08435719
-3.9937685	approvisionnement	-0.08435719
-3.781767	réduire	-0.12732267
-3.9937685	dépendance	-0.08435719
-3.9937685	importations	-0.08435719
-3.9937685	substantiels	-0.08435719
-3.781767	conception	-0.11986001
-3.8706973	"puisqu"	-0.20097317
-3.9937685	avère	-0.08435719
-3.9937685	causée	-0.08435719
-3.781767	durant	-0.2884295
-3.9937685	déterminée	-0.08435719
-3.9937685	associés	-0.08435719
-3.9937685	engagés	-0.08435719
-3.8706973	établir	-0.15852566
-3.9937685	cohérent	-0.08435719
-3.618934	libre	-0.08435719
-3.8706973	circulation	-0.08435719
-3.9937685	conformes	-0.08435719
-3.9937685	respecter	-0.08435719
-3.9937685	loyale	-0.08435719
-3.5007794	international	-0.17451549
-3.9937685	tenant	-0.08435719
-3.9937685	échéant	-0.08435719
-3.9937685	valides	-0.08435719
-3.9937685	thématiques	-0.08435719
-3.9937685	élevé	-0.08435719
-3.9937685	réduisant	-0.08435719
-3.9937685	bénéficiera	-0.08435719
-3.9937685	finalement	-0.08435719
-3.9937685	finals	-0.08435719
-3.8706973	requiert	-0.08435719
-3.9937685	adéquat	-0.08435719
-3.8706973	sanitaire	-0.08435719
-3.9937685	envisagées	-0.08435719
-3.9937685	saine	-0.08435719
-3.9937685	justifiées	-0.08435719
-3.5007794	relatives	-0.32465827
-3.8706973	fondées	-0.20097317
-3.9937685	preuves	-0.08435719
-3.9937685	scientifiques	-0.08435719
-3.781767	spécifique	-0.08435719
-3.9937685	surgit	-0.08435719
-3.8706973	fixées	-0.08435719
-3.9937685	paragraphes	-0.08435719
-3.9937685	notification	-0.08435719
-3.9937685	Afin	-0.08435719
-3.9937685	maximiser	-0.08435719
-3.8706973	avantages	-0.08435719
-3.9937685	avérer	-0.08435719
-3.781767	caractéristiques	-0.1387627
-3.9937685	performance	-0.08435719
-3.781767	environnementale	-0.12732267
-3.9937685	conseils	-0.08435719
-3.9937685	respectant	-0.08435719
-3.9937685	livre	-0.08435719
-3.9937685	vert	-0.08435719
-3.781767	principaux	-0.08435719
-3.9937685	novateurs	-0.08435719
-3.9937685	Prendre	-0.08435719
-3.8706973	aisément	-0.08435719
-3.8706973	faciliter	-0.20097317
-3.9937685	prévoir	-0.08435719
-3.9937685	intégré	-0.08435719
-3.8706973	considérations	-0.08435719
-3.9937685	globale	-0.08435719
-3.9937685	souhaitable	-0.08435719
-3.9937685	quantifiées	-0.08435719
-3.9937685	urgente	-0.08435719
-3.781767	contribuer	-0.08435719
-3.9937685	engagements	-0.08435719
-3.9937685	protocole	-0.08435719
-3.9937685	Kyoto	-0.08435719
-3.9937685	convention	-0.08435719
-3.9937685	Nations	-0.08435719
-3.9937685	Unies	-0.08435719
-3.9937685	climatiques	-0.08435719
-3.9937685	CCNUCC	-0.08435719
-3.8706973	encouragée	-0.08435719
-3.618934	faible	-0.08435719
-3.9937685	concourir	-0.08435719
-3.9937685	contribution	-0.08435719
-3.9937685	décennal	-0.08435719
-3.781767	production	-0.08435719
-3.9937685	durables	-0.08435719
-3.8706973	adopté	-0.08435719
-3.9937685	mondial	-0.08435719
-3.9937685	Johannesburg	-0.08435719
-3.9937685	performants	-0.08435719
-3.9937685	marchés	-0.08435719
-3.9937685	méthode	-0.08435719
-3.9937685	collaborer	-0.08435719
-3.9937685	activement	-0.08435719
-3.9937685	intéressées	-0.08435719
-3.8706973	contraignantes	-0.08435719
-3.8706973	consultation	-0.08435719
-3.9937685	adéquate	-0.08435719
-3.9937685	œuvre	-0.08435719
-3.8706973	introduction	-0.20097317
-3.8706973	intermédiaires	-0.08435719
-3.9937685	prédiction	-0.08435719
-3.781767	adapter	-0.08435719
-3.9937685	cycles	-0.08435719
-3.9937685	facilite	-0.08435719
-3.9937685	alternatives	-0.08435719
-3.8706973	autorégulation	-0.08435719
-3.9937685	stratégiques	-0.08435719
-3.9937685	onéreuse	-0.08435719
-3.8706973	législatives	-0.08435719
-3.9937685	forces	-0.08435719
-3.9937685	parviennent	-0.08435719
-3.8706973	progresser	-0.08435719
-3.9937685	vitesse	-0.08435719
-3.9937685	acceptable	-0.08435719
-3.9937685	volontaires	-0.08435719
-3.9937685	remplacement	-0.08435719
-3.9937685	fournies	-0.08435719
-3.8706973	valeur	-0.08435719
-3.9937685	ajoutée	-0.08435719
-3.9937685	représentativité	-0.08435719
-3.9937685	quantifiés	-0.08435719
-3.9937685	échelonnés	-0.08435719
-3.9937685	civile	-0.08435719
-3.8706973	durabilité	-0.08435719
-3.9937685	chapitre	-0.08435719
-3.9937685	intitulée	-0.08435719
-3.9937685	conclus	-0.08435719
-3.8706973	simplifier	-0.08435719
-3.9937685	réglementaire	-0.08435719
-3.9937685	évaluer	-0.08435719
-3.781767	favoriser	-0.08435719
-3.8706973	intégration	-0.08435719
-3.9937685	concept	-0.08435719
-3.9937685	facilitée	-0.08435719
-3.9937685	largement	-0.08435719
-3.9937685	accessibles	-0.08435719
-3.9937685	stricte	-0.08435719
-3.9937685	réglementés	-0.08435719
-3.9937685	artisanal	-0.08435719
-3.8706973	syndicats	-0.08435719
-3.9937685	commerciaux	-0.08435719
-3.9937685	détaillants	-0.08435719
-3.9937685	importateurs	-0.08435719
-3.9937685	associations	-0.08435719
-3.9937685	organisations	-0.08435719
-3.9937685	élabore	-0.08435719
-3.9937685	tenir	-0.08435719
-3.9937685	dûment	-0.08435719
-3.9937685	valoir	-0.08435719
-3.9937685	préservée	-0.08435719
-3.8706973	toxiques	-0.08435719
-3.9937685	diminuer	-0.08435719
-3.8706973	niveaux	-0.08435719
-3.618934	existants	-0.08435719
-3.9937685	justifiés	-0.08435719
-3.8706973	modules	-0.08435719
-3.8706973	destinés	-0.20097317
-3.9937685	prévus	-0.08435719
-3.9937685	phases	-0.08435719
-3.9937685	apposition	-0.08435719
-3.9937685	marquage	-0.08435719
-3.781767	autorités	-0.08435719
-3.781767	surveillance	-0.08435719
-3.9937685	échanger	-0.08435719
-3.9937685	champ	-0.08435719
-3.8706973	électroniques	-0.08435719
-3.8706973	pertinents	-0.08435719
-3.781767	échange	-0.2884295
-3.9937685	obtenus	-0.08435719
-3.9937685	facilité	-0.08435719
-3.8706973	accumulation	-0.08435719
-3.9937685	connaissances	-0.08435719
-3.8706973	découlant	-0.08435719
-3.9937685	déployés	-0.08435719
-3.9937685	fabricants	-0.08435719
-3.9937685	Un	-0.08435719
-3.8706973	organe	-0.08435719
-3.8706973	compétent	-0.08435719
-3.9937685	désigné	-0.08435719
-3.9937685	présentant	-0.08435719
-3.9937685	impartialité	-0.08435719
-3.9937685	compétence	-0.08435719
-3.9937685	vérification	-0.08435719
-3.9937685	Sachant	-0.08435719
-3.9937685	destinée	-0.08435719
-3.9937685	judicieux	-0.08435719
-3.8706973	harmonisées	-0.08435719
-3.781767	norme	-0.08435719
-3.8706973	publiée	-0.08435719
-3.9937685	officiel	-0.08435719
-3.9937685	présomption	-0.08435719
-3.9937685	correspondantes	-0.08435719
-3.9937685	adoptée	-0.08435719
-3.9937685	découler	-0.08435719
-3.9937685	attester	-0.08435719
-3.9937685	fonctions	-0.08435719
-3.8706973	pourraient	-0.08435719
-3.9937685	essentielles	-0.08435719
-3.9937685	méthodes	-0.08435719
-3.9937685	essai	-0.08435719
-3.9937685	génériques	-0.08435719
-3.9937685	guider	-0.08435719
-3.8706973	écologique	-0.08435719
-3.9937685	visées	-0.08435719
-3.9937685	finalité	-0.08435719
-3.9937685	définitions	-0.08435719
-3.9937685	utilisées	-0.08435719
-3.9937685	référer	-0.08435719
-3.9937685	internationales	-0.08435719
-3.8706973	octobre	-0.20097317
-3.9937685	examine	-0.08435719
-3.9937685	pouvait	-0.08435719
-3.8706973	étendu	-0.08435719
-3.9937685	couverts	-0.08435719
-3.9937685	complémentaire	-0.08435719
-3.781767	instruments	-0.15852566
-3.781767	appareils	-0.08435719
-3.9937685	domestiques	-0.08435719
-3.9937685	étiquetage	-0.08435719
-3.9937685	uniformes	-0.08435719
-3.9937685	révisé	-0.08435719
-3.9937685	label	-0.08435719
-3.8706973	relatif	-0.20097317
-3.781767	équipements	-0.15852566
-3.8706973	bureau	-0.08435719
-3.9937685	déchets	-0.08435719
-3.8706973	électriques	-0.08435719
-3.9937685	DEEE	-0.08435719
-3.8706973	limitation	-0.08435719
-3.9937685	administratives	-0.08435719
-3.9937685	préparations	-0.08435719
-3.9937685	préexistants	-0.08435719
-3.9937685	respectifs	-0.08435719
-3.9937685	cohérentes	-0.08435719
-3.9937685	rendement	-0.08435719
-3.8706973	chaudières	-0.08435719
-3.781767	eau	-0.15852566
-3.9937685	chaude	-0.08435719
-3.9937685	alimentées	-0.08435719
-3.9937685	combustibles	-0.08435719
-3.9937685	liquides	-0.08435719
-3.9937685	gazeux	-0.08435719
-3.9937685	réfrigérateurs	-0.08435719
-3.9937685	congélateurs	-0.08435719
-3.9937685	combinés	-0.08435719
-3.9937685	ménager	-0.08435719
-3.9937685	ballasts	-0.08435719
-3.9937685	éclairage	-0.08435719
-3.9937685	fluorescent	-0.08435719
-3.9937685	contiennent	-0.08435719
-3.9937685	classement	-0.08435719
-3.9937685	étoiles	-0.08435719
-3.9937685	destiné	-0.08435719
-3.9937685	accordent	-0.08435719
-3.8706973	apporté	-0.08435719
-3.9937685	escomptés	-0.08435719
-3.9937685	préparer	-0.08435719
-3.8706973	établies	-0.08435719
-3.9937685	février	-0.08435719
-3.9937685	générateurs	-0.08435719
-3.9937685	chaleur	-0.08435719
-3.9937685	chauffage	-0.08435719
-3.8706973	immeubles	-0.20097317
-3.9937685	industriels	-0.08435719
-3.9937685	neufs	-0.08435719
-3.9937685	isolation	-0.08435719
-3.9937685	remplacées	-0.08435719
-3.9937685	abroger	-0.08435719
-3.9937685	Communication	-0.08435719
-3.9937685	europeen	-0.08435719
-3.9937685	poursuite	-0.08435719
-3.33158	Pericles	-0.12722409
-3.8706973	euro	-0.103361785
-3.9937685	monnayage	-0.08435719
-3.9937685	prorogeant	-0.08435719
-3.618934	échanges	-0.2513084
-3.781767	assistance	-0.12732267
-3.9937685	Proposition	-0.08435719
-3.9937685	élargissant	-0.08435719
-3.618934	participants	-0.08435719
-3.9937685	appuyer	-0.08435719
-3.9937685	compléter	-0.08435719
-3.9937685	engagées	-0.08435719
-3.9937685	comprennent	-0.08435719
-3.5007794	séminaires	-0.08435719
-3.781767	ateliers	-0.1387627
-3.9937685	rencontres	-0.08435719
-3.8706973	conférences	-0.08435719
-3.9937685	stages	-0.08435719
-3.618934	scientifique	-0.1387627
-3.9937685	opérationnelle	-0.08435719
-3.8706973	dispose	-0.20097317
-3.9937685	fixe	-0.08435719
-3.781767	montant	-0.22774825
-3.8706973	euros	-0.08435719
-3.9937685	tard	-0.08435719
-3.618934	indépendant	-0.08435719
-3.9937685	gestionnaire	-0.08435719
-3.9937685	pertinence	-0.08435719
-3.9937685	efficience	-0.08435719
-3.9937685	opportunité	-0.08435719
-3.781767	poursuivre	-0.08435719
-3.8706973	accompagnée	-0.20097317
-3.9937685	Depuis	-0.08435719
-3.781767	billets	-0.1387627
-3.9937685	détectés	-0.08435719
-3.9937685	stabilisé	-0.08435719
-3.9937685	environ	-0.08435719
-3.781767	inférieur	-0.15852566
-3.9937685	antérieurs	-0.08435719
-3.781767	contrefaçon	-0.11986001
-3.9937685	dollar	-0.08435719
-3.9937685	américain	-0.08435719
-3.9937685	neuf	-0.08435719
-3.9937685	authentiques	-0.08435719
-3.9937685	Parallèlement	-0.08435719
-3.9937685	fausses	-0.08435719
-3.781767	pièces	-0.1387627
-3.9937685	continue	-0.08435719
-3.9937685	demeurant	-0.08435719
-3.9937685	limité	-0.08435719
-3.9937685	perspective	-0.08435719
-3.9937685	historique	-0.08435719
-3.9937685	police	-0.08435719
-3.9937685	succès	-0.08435719
-3.9937685	opérations	-0.08435719
-3.9937685	démanteler	-0.08435719
-3.9937685	saisir	-0.08435719
-3.9937685	stocks	-0.08435719
-3.9937685	globalement	-0.08435719
-3.9937685	préparation	-0.08435719
-3.9937685	législatif	-0.08435719
-3.9937685	institutionnel	-0.08435719
-3.9937685	degré	-0.08435719
-3.9937685	atteint	-0.08435719
-3.9937685	exposé	-0.08435719
-3.8706973	idées	-0.08435719
-3.8706973	fondamentales	-0.08435719
-3.618934	Europol	-0.08435719
-3.9937685	sanctions	-0.08435719
-3.9937685	pénales	-0.08435719
-3.9937685	publié	-0.08435719
-3.9937685	susmentionnée	-0.08435719
-3.9937685	satisfaisant	-0.08435719
-3.9937685	clarté	-0.08435719
-3.9937685	étroite	-0.08435719
-3.781767	flux	-0.08435719
-3.9937685	offices	-0.08435719
-3.9937685	centraux	-0.08435719
-3.9937685	OCN	-0.08435719
-3.9937685	créés	-0.08435719
-3.9937685	banque	-0.08435719
-3.618934	BCE	-0.12732267
-3.9937685	alimentent	-0.08435719
-3.9937685	gèrent	-0.08435719
-3.781767	organes	-0.08435719
-3.781767	spécialisés	-0.08435719
-3.9937685	contrefaçons	-0.08435719
-3.9937685	précieuse	-0.08435719
-3.9937685	actuels	-0.08435719
-3.9937685	vigilant	-0.08435719
-3.9937685	Conformément	-0.08435719
-3.9937685	confiée	-0.08435719
-3.9937685	auditeur	-0.08435719
-3.9937685	Office	-0.08435719
-3.9937685	antifraude	-0.08435719
-3.8706973	OLAF	-0.08435719
-3.8706973	évaluateur	-0.12732267
-3.9937685	examiné	-0.08435719
-3.9937685	dossiers	-0.08435719
-3.8706973	menées	-0.08435719
-3.9937685	questionnaires	-0.08435719
-3.9937685	adressés	-0.08435719
-3.9937685	organisateurs	-0.08435719
-3.9937685	discussions	-0.08435719
-3.9937685	parvenu	-0.08435719
-3.9937685	perception	-0.08435719
-3.8706973	comprendre	-0.08435719
-3.9937685	rapportant	-0.08435719
-3.9937685	gamme	-0.08435719
-3.8706973	présentées	-0.08435719
-3.9937685	atteints	-0.08435719
-3.8706973	forte	-0.08435719
-3.9937685	répressifs	-0.08435719
-3.9937685	bancaire	-0.08435719
-3.9937685	commercial	-0.08435719
-3.9937685	avocats	-0.08435719
-3.9937685	chambres	-0.08435719
-3.9937685	examinées	-0.08435719
-3.9937685	jugées	-0.08435719
-3.9937685	constaté	-0.08435719
-3.9937685	coûteux	-0.08435719
-3.9937685	exergue	-0.08435719
-3.9937685	seconde	-0.08435719
-3.9937685	accessible	-0.08435719
-3.9937685	formations	-0.08435719
-3.9937685	éliminer	-0.08435719
-3.9937685	chevauchement	-0.08435719
-3.781767	banques	-0.08435719
-3.9937685	formateurs	-0.08435719
-3.9937685	suffisantes	-0.08435719
-3.8706973	recommande	-0.08435719
-3.9937685	document	-0.08435719
-3.9937685	finalisé	-0.08435719
-3.9937685	démarré	-0.08435719
-3.9937685	lentement	-0.08435719
