# Input file: /home/jiangnan/Desktop/IntroML/ML_Projet/PoS_Classifier/train_sentence/train_set_spoken_sentence.txt
# Token count: 14952
# Smoothing: Modified Kneser-Ney
\data\
ngram 1=2532
ngram 2=9151
ngram 3=12555

\1-grams:
-4.006631	<unk>	0
0	<s>	-0.8664899
-1.1364015	</s>	0
-1.5440849	euh	-0.40886483
-2.6508393	bon	-0.19147573
-2.0297718	pour	-0.27080643
-2.9861755	aller	-0.2101136
-2.061391	du	-0.17485549
-3.8761084	CRDT	-0.08304316
-1.7003318	à	-0.35813168
-1.9862804	la	-0.2217477
-3.7270186	gare	-0.15026669
-1.4489883	de	-0.31951967
-3.8761084	Grenoble	-0.08304316
-2.0668924	je	-0.3742449
-2.9027774	ben	-0.18774359
-3.8761084	sors	-0.08304316
-2.9027774	déjà	-0.13499388
-3.8761084	remonte	-0.08304316
-2.061391	"l"	-0.24594466
-3.7270186	avenue	-0.11535555
-3.8761084	Général	-0.08304316
-3.8761084	Champon	-0.08304316
-3.4240294	traverse	-0.17520429
-3.2253125	face	-0.19401419
-3.8761084	MDE	-0.08304316
-1.856139	et	-0.32746542
-3.5728374	continue	-0.08304316
-2.7453823	"jusqu"	-0.7511947
-2.0838268	une	-0.1811284
-3.313403	place	-0.11338677
-1.7987638	qui	-0.32781684
-2.3039634	est	-0.19045639
-3.4240294	grande	-0.08304319
-3.7270186	poste	-0.08304316
-2.6301022	où	-0.2886274
-2.072464	il	-0.44981787
-2.7453823	y	-0.19127934
-2.5074322	a	-0.18544367
-3.7270186	Chambre	-0.22983567
-3.8761084	Commerce	-0.08304316
-1.963877	"d"	-0.26195866
-3.8761084	Industrie	-0.08304316
-3.8761084	reprends	-0.08304316
-3.8761084	crois	-0.08304316
-1.8699881	le	-0.23916003
-2.5732431	non	-0.27607015
-2.0559587	"c"	-1.2987653
-2.1590576	pas	-0.30416343
-3.313403	boulevard	-0.11164427
-3.8761084	Gambetta	-0.08304316
-2.8664045	ne	-0.119383834
-3.5728374	sais	-0.13596377
-3.5728374	lequel	-0.08304316
-3.4240294	autre	-0.08304313
-2.5558321	donc	-0.16674507
-3.8761084	vais	-0.08304316
-2.209828	au	-0.24413463
-3.8761084	Victor	-0.08304316
-3.8761084	Hugo	-0.08304316
-2.2762017	là	-0.28489995
-2.9027774	me	-0.08304316
-3.5728374	retrouve	-0.1201743
-2.0050745	en	-0.21098723
-3.8761084	effet	-0.08304316
-3.313403	s~	-0.12668361
-3.4240294	près	-0.14003994
-1.9955758	des	-0.1601132
-3.5728374	rails	-0.26233596
-3.5728374	tram	-0.10869789
-2.8328435	ces	-0.09795003
-3.034767	eh	-0.359246
-1.9909033	les	-0.17007384
-3.5728374	longer	-0.15026669
-3.4240294	traverser	-0.13596377
-2.2335453	ça	-0.32094842
-2.772625	cette	-0.16273506
-3.313403	fois	-0.08304316
-3.313403	ensuite	-0.13596377
-3.2253125	prendre	-0.08304316
-1.9771799	que	-0.43723506
-3.5728374	Alsace	-0.15026669
-2.6301022	-	-0.08304316
-3.8761084	Lorraine	-0.08304316
-3.7270186	remonter	-0.08304316
-3.8761084	cours	-0.08304316
-3.4240294	Jean	-0.15026669
-3.8761084	Jaurès	-0.08304316
-2.772625	si	-0.3151252
-3.8761084	souviens	-0.08304316
-2.522974	bien	-0.1868165
-2.6508393	toujours	-0.17437595
-3.7270186	continuer	-0.08304316
-2.9027774	voilà	-0.17146912
-2.4502943	"j"	-0.46646172
-2.9861755	arrive	-0.1427436
-3.4240294	niveau	-0.08304316
-2.772625	tous	-0.48674387
-3.8761084	trams	-0.08304316
-3.5728374	bus	-0.15026669
-2.6301022	ils	-0.3166856
-2.7453823	sont	-0.1426325
-2.323509	ce	-0.3084681
-3.034767	côté	-0.15270284
-2.9424777	-là	-0.21339564
-3.2253125	suis	-0.10264164
-3.8761084	arrivée	-0.08304316
-2.2673287	sur	-0.42715144
-2.6508393	alors	-0.17134991
-2.8016913	tu	-0.16980226
-3.5728374	vois	-0.106301956
-3.8761084	continues	-0.08304316
-2.3766062	tout	-0.36084476
-3.2253125	droit	-0.1521284
-3.8761084	traverses	-0.08304316
-3.8761084	arrives	-0.08304316
-1.9682661	un	-0.2647481
-3.5728374	rond	-0.3434495
-3.152112	point	-0.25384894
-3.4240294	direction	-0.08304316
-3.4240294	Saint	-0.26233596
-3.8761084	Maurienne	-0.08304316
-3.7270186	tou~	-0.08304316
-3.8761084	passes	-0.08304316
-3.034767	après	-0.08304316
-3.8761084	montes	-0.08304316
-3.7270186	ligne	-0.12668361
-3.313403	droite	-0.1995475
-3.034767	devant	-0.23795107
-3.8761084	piscine	-0.08304316
-3.8761084	stade	-0.08304316
-2.5558321	aussi	-0.26110035
-3.8761084	rentres	-0.08304316
-2.0247188	dans	-0.51660377
-3.7270186	centre	-0.08304316
-3.5728374	ville	-0.2200678
-3.152112	gauche	-0.2259922
-3.4240294	sera	-0.11535555
-3.7270186	indiqué	-0.08304316
-2.4638896	mais	-0.17635801
-3.7270186	champ	-0.08304316
-3.8761084	foire	-0.08304316
-3.034767	encore	-0.08304319
-3.7270186	descends	-0.08304316
-2.8664045	fait	-0.13220604
-3.8761084	route	-0.08304316
-3.8761084	descend	-0.08304316
-3.8761084	pompiers	-0.08304316
-3.5728374	premier	-0.15026669
-3.8761084	Bastille	-0.08304316
-3.5728374	première	-0.13596377
-2.4371116	ou	-0.12118963
-2.7197483	enfin	-0.1406117
-3.4240294	deuxième	-0.08304316
-3.5728374	troisième	-0.08304316
-3.8761084	semble	-0.08304316
-3.8761084	cabine	-0.08304316
-3.8761084	téléphone	-0.08304316
-3.8761084	programme	-0.08304316
-3.152112	monsieur	-0.1201743
-3.8761084	ministre	-0.08304316
-3.8761084	comporte	-0.08304316
-3.8761084	certain	-0.08304316
-3.7270186	nombre	-0.08304316
-3.8761084	projets	-0.08304316
-3.8761084	"dautant"	-0.08304316
-2.3136263	plus	-0.13882922
-3.8761084	intéressants	-0.08304316
-3.152112	nos	-0.11164427
-3.8761084	yeux	-0.08304316
-2.5913815	nous	-0.14636202
-3.8761084	proposons	-0.08304316
-2.9424777	depuis	-0.106301956
-3.4240294	longtemps	-0.08304316
-3.8761084	relèvement	-0.08304316
-3.8761084	Smic	-0.08304316
-3.8761084	amnistie	-0.08304316
-3.8761084	commerçants	-0.08304316
-3.8761084	artisans	-0.08304316
-3.7270186	aide	-0.08304316
-2.772625	aux	-0.09889891
-3.8761084	chômeurs	-0.08304316
-3.8761084	partiels	-0.08304316
-3.8761084	égalisation	-0.08304316
-3.8761084	salaires	-0.08304316
-3.8761084	féminins	-0.08304316
-3.8761084	masculins	-0.08304316
-3.8761084	participation	-0.08304316
-3.8761084	accrue	-0.08304316
-3.5728374	cadres	-0.08304316
-3.7270186	conseils	-0.08304316
-3.7270186	administration	-0.08304316
-3.7270186	sociétés	-0.08304316
-3.8761084	réforme	-0.08304316
-3.8761084	licenciement	-0.08304316
-3.8761084	nomination	-0.08304316
-3.8761084	médiateur	-0.08304316
-2.9027774	entre	-0.14000244
-3.7270186	public	-0.08304316
-3.8761084	contrôle	-0.08304316
-3.8761084	dépenses	-0.08304316
-3.8761084	électorales	-0.08304316
-3.089488	toutes	-0.13596377
-3.8761084	mesures	-0.08304316
-3.8761084	dormaient	-0.08304316
-2.9027774	vos	-0.10264164
-3.8761084	cartons	-0.08304316
-3.8761084	prédécesseurs	-0.08304316
-3.7270186	avaient	-0.08304316
-3.8761084	énergiquement	-0.08304316
-3.8761084	refusées	-0.08304316
-2.3336217	on	-0.3366765
-3.5728374	commun	-0.08304316
-3.8761084	lorsque	-0.08304316
-2.172968	vous	-0.2637666
-3.8761084	semblez	-0.08304316
-3.4240294	mettre	-0.08304316
-3.5728374	doute	-0.08304316
-3.034767	notre	-0.12668361
-3.5728374	amour	-0.08304316
-3.7270186	libertés	-0.08304316
-3.8761084	outrage	-0.08304316
-2.6726162	"n"	-0.24765117
-3.8761084	acceptons	-0.08304316
-3.8761084	sommes	-0.08304316
-3.8761084	héritiers	-0.08304316
-3.7270186	tradition	-0.08304316
-3.8761084	instauré	-0.08304316
-3.5728374	pays	-0.08304316
-3.8761084	démocratie	-0.08304316
-3.5728374	politique	-0.08304316
-3.7270186	sociale	-0.08304316
-3.089488	contre	-0.10869789
-3.8761084	droites	-0.08304316
-3.8761084	coalisées	-0.08304316
-3.8761084	combats	-0.08304316
-3.8761084	conquête	-0.08304316
-3.8761084	jalonnent	-0.08304316
-3.4240294	histoire	-0.1201743
-2.7453823	deux	-0.11535558
-3.5728374	derniers	-0.08304316
-3.8761084	siècles	-0.08304316
-3.2253125	ceux	-0.2026964
-3.089488	votre	-0.15904538
-3.5728374	avons	-0.08304316
-3.7270186	arraché	-0.08304316
-3.8761084	suffrage	-0.08304316
-3.8761084	universel	-0.08304316
-3.8761084	liberté	-0.08304316
-3.7270186	association	-0.08304316
-3.8761084	presse	-0.08304316
-3.8761084	grève	-0.08304316
-3.8761084	instruction	-0.08304316
-3.7270186	seconde	-0.15026669
-3.8761084	Mitterrand	-0.08304316
-3.7270186	voulez	-0.08304316
-3.4240294	-vous	-0.08304316
-3.8761084	président	-0.08304316
-3.7270186	naturel	-0.08304316
-3.8761084	majorité	-0.08304316
-2.5913815	se	-0.14103866
-3.8761084	montre	-0.08304316
-3.8761084	telle	-0.08304316
-2.3336217	"qu"	-0.5871718
-2.6726162	elle	-0.1949153
-3.8761084	partant	-0.08304316
-3.4240294	Paul	-0.26233596
-3.8761084	Vallier	-0.08304316
-3.7270186	Notre	-0.22983567
-3.8761084	Dame	-0.08304316
-3.7270186	emprunte	-0.08304316
-3.034767	rue	-0.1684788
-3.7270186	Strasbourg	-0.22983567
-3.2253125	passe	-0.12668361
-2.3336217	par	-0.3360082
-3.8761084	Vaucanson	-0.08304316
-3.7270186	prends	-0.08304316
-3.7270186	Maison	-0.22983567
-3.8761084	tourisme	-0.08304316
-3.8761084	contourne	-0.08304316
-3.8761084	République	-0.08304316
-3.8761084	remontant	-0.08304316
-3.7270186	tombe	-0.08304316
-3.8761084	Sainte	-0.08304316
-3.8761084	Claire	-0.08304316
-2.9861755	va	-0.1252434
-2.7453823	dire	-0.18878244
-3.8761084	halle	-0.08304316
-3.8761084	appartenez	-0.08304316
-3.5728374	appelle	-0.08304316
-3.8761084	flying	-0.08304316
-3.8761084	doctors	-0.08304316
-3.8761084	Mref	-0.08304316
-3.8761084	médecins	-0.08304316
-3.8761084	recherche	-0.08304316
-3.8761084	basée	-0.08304316
-3.089488	ici	-0.11535555
-3.8761084	Nairobi	-0.08304316
-3.5728374	Kenya	-0.2200678
-2.4243174	oui	-0.33439317
-3.4240294	ai	-0.110907994
-3.8761084	commencé	-0.08304316
-3.313403	travailler	-0.12668361
-2.3439755	comme	-0.25444335
-3.5728374	médecin	-0.08304316
-3.8761084	campagne	-0.08304316
-3.4240294	endroit	-0.13596377
-2.695543	"s"	-0.15614139
-3.7270186	appelait	-0.08304316
-3.7270186	Olkaloo	-0.08304316
-3.2253125	juste	-0.08304316
-3.5728374	sud	-0.15026669
-3.8761084	équateur	-0.08304316
-3.8761084	restée	-0.08304316
-3.152112	pendant	-0.15026669
-3.7270186	quatorze	-0.22983567
-2.8328435	ans	-0.27762333
-3.8761084	sillonnant	-0.08304316
-3.8761084	région	-0.08304316
-3.2253125	a~	-0.19401419
-2.3136263	avec	-0.24751793
-3.152112	mes	-0.11535555
-3.8761084	Peugeot	-0.08304316
-3.8761084	successives	-0.08304316
-2.9861755	vraiment	-0.15270284
-3.8761084	meilleures	-0.08304316
-3.8761084	voitures	-0.08304316
-3.8761084	dois	-0.08304316
-3.8761084	vingt~	-0.08304316
-3.8761084	vingt-deuxième	-0.08304316
-3.7270186	avais	-0.08304316
-3.8761084	circonscription	-0.08304316
-3.8761084	rayon	-0.08304316
-3.7270186	action	-0.08304316
-3.089488	peu	-0.10626618
-3.034767	cent	-0.08304319
-3.8761084	kilomètres	-0.08304316
-3.5728374	autour	-0.17520429
-3.313403	cet	-0.13596377
-3.8761084	voulais	-0.08304316
-3.7270186	abord	-0.08304316
-3.8761084	gouvernement	-0.08304316
-3.7270186	postes	-0.08304316
-2.9861755	"m"	-0.15714416
-2.9424777	ont	-0.11164427
-3.4240294	f~	-0.08304316
-3.8761084	proposés	-0.08304316
-3.8761084	plaisaient	-0.08304316
-2.8664045	beaucoup	-0.20663808
-3.8761084	excepté	-0.08304316
-3.8761084	Marsabit	-0.08304316
-2.9424777	était	-0.11519251
-3.7270186	espèce	-0.17520429
-3.8761084	île	-0.08304316
-3.8761084	désert	-0.08304316
-3.8761084	nord	-0.08304316
-3.8761084	aurais	-0.08304316
-3.8761084	aimé	-0.08304316
-3.8761084	dis~	-0.08304316
-3.8761084	commissaire	-0.08304316
-3.7270186	district	-0.08304316
-3.8761084	préfet	-0.08304316
-3.8761084	lieu	-0.08304316
-3.7270186	voulait	-0.08304316
-3.313403	femme	-0.13596377
-3.8761084	mariée	-0.08304316
-2.8016913	parce	-0.72835135
-2.8664045	dit	-0.12703167
-3.2253125	elles	-0.19401419
-3.8761084	corromp~	-0.08304316
-3.8761084	corrompront	-0.08304316
-3.7270186	petits	-0.08304316
-3.8761084	officiers	-0.08304316
-3.152112	sans	-0.1201743
-3.7270186	connaître	-0.08304316
-3.5728374	ni	-0.08304316
-2.9861755	rien	-0.17598304
-3.4240294	sorte	-0.13596377
-3.4240294	pu	-0.17631721
-3.8761084	décidé	-0.08304316
-3.5728374	installer	-0.15026669
-2.9027774	mon	-0.12316645
-3.313403	compte	-0.13596377
-3.8761084	trouvé	-0.08304316
-3.5728374	besoin	-0.17520429
-2.8328435	faire	-0.15829751
-3.313403	petit	-0.08304313
-3.5728374	retour	-0.08304316
-3.5728374	arrière	-0.15026669
-3.034767	puisque	-0.08304316
-3.089488	finalement	-0.11535555
-3.7270186	quarante-huit	-0.22983567
-3.8761084	êtes	-0.08304316
-3.8761084	quarante-neuf	-0.08304316
-3.8761084	hasard	-0.08304316
-3.5728374	passé	-0.08304316
-3.8761084	semaines	-0.08304316
-3.5728374	formidable	-0.08304316
-3.7270186	venue	-0.08304316
-3.7270186	fin	-0.08304316
-3.2253125	cinquante	-0.25123012
-3.8761084	liée	-0.08304316
-3.313403	France	-0.11841583
-3.7270186	française	-0.22983567
-2.9027774	ah	-0.1943648
-3.5728374	née	-0.17520429
-3.5728374	quel	-0.08304316
-3.7270186	Cannes	-0.17520429
-3.8761084	guerre	-0.08304316
-3.8761084	dix-huit	-0.08304316
-3.8761084	père	-0.08304316
-3.8761084	front	-0.08304316
-3.152112	été	-0.08304316
-3.8761084	chassés	-0.08304316
-3.5728374	A~	-0.08304316
-3.5728374	naturellement	-0.3434495
-3.152112	puis	-0.09507089
-3.4240294	avez	-0.104315475
-3.8761084	repartie	-0.08304316
-3.034767	vers	-0.33198074
-3.5728374	Mulhouse	-0.26233596
-3.8761084	rentrés	-0.08304316
-3.8761084	repartis	-0.08304316
-3.7270186	souvenirs	-0.08304316
-3.8761084	anciens	-0.08304316
-3.5728374	sûrement	-0.08304316
-3.5728374	études	-0.1201743
-3.4240294	lycée	-0.17598304
-3.7270186	Angleterre	-0.17520429
-3.4240294	trente	-0.08304316
-3.8761084	trente-et-un	-0.08304316
-3.8761084	trente-deux	-0.08304316
-3.8761084	appris	-0.08304316
-3.8761084	anglais	-0.08304316
-3.8761084	aidée	-0.08304316
-3.7270186	fini	-0.08304316
-3.313403	j~	-0.17520429
-3.8761084	PCB	-0.08304316
-3.4240294	Paris	-0.08304316
-3.8761084	retourner	-0.08304316
-3.8761084	lâché	-0.08304316
-3.8761084	goûté	-0.08304316
-3.2253125	veut	-0.16077942
-3.8761084	province	-0.08304316
-2.9424777	ouais	-0.20441163
-3.8761084	faisiez	-0.08304316
-3.7270186	médecine	-0.08304316
-3.034767	avait	-0.19823815
-3.8761084	dep~	-0.08304316
-3.313403	avant	-0.08304316
-3.7270186	rencontré	-0.08304316
-3.7270186	Monfreid	-0.08304316
-3.7270186	Henry	-0.08304316
-3.7270186	venait	-0.08304316
-3.8761084	conférences	-0.08304316
-3.8761084	type	-0.08304316
-3.8761084	passionnant	-0.08304316
-3.8761084	lu	-0.08304316
-3.313403	ses	-0.08304316
-3.4240294	livres	-0.106301956
-2.9861755	absolument	-0.17598304
-3.7270186	envie	-0.08304316
-3.8761084	corne	-0.08304316
-3.8761084	Afrique	-0.08304316
-3.7270186	Ethiopie	-0.08304316
-3.8761084	Somalie	-0.08304316
-3.8761084	Ora~	-0.08304316
-3.8761084	Arabie	-0.08304316
-3.8761084	ét~	-0.08304316
-3.8761084	Cavalaire	-0.08304316
-3.8761084	Pardigon	-0.08304316
-3.8761084	allions	-0.08304316
-3.5728374	famille	-0.08304316
-3.8761084	amie	-0.08304316
-3.8761084	Besse	-0.08304316
-3.8761084	empire	-0.08304316
-3.8761084	commercial	-0.08304316
-3.7270186	veux	-0.08304316
-3.089488	surtout	-0.14226253
-3.7270186	Aden	-0.17520429
-3.8761084	invitée	-0.08304316
-3.8761084	venir	-0.08304316
-3.8761084	"presqu"	-0.08304316
-3.7270186	an	-0.08304316
-3.5728374	travaillé	-0.08304316
-3.7270186	hôpital	-0.08304316
-3.8761084	demandé	-0.08304316
-3.8761084	étiez	-0.08304316
-3.8761084	auprès	-0.08304316
-3.7270186	femmes	-0.08304316
-3.8761084	bas	-0.08304316
-3.4240294	seule	-0.08304316
-3.8761084	tombée	-0.08304316
-3.8761084	malade	-0.08304316
-3.8761084	rentrée	-0.08304316
-3.152112	moment	-0.10264164
-3.7270186	eu	-0.17520429
-3.8761084	remplaçante	-0.08304316
-2.6726162	moi	-0.34026515
-3.8761084	allée	-0.08304316
-3.7270186	essayer	-0.08304316
-3.7270186	trouver	-0.08304316
-3.8761084	éthiopien	-0.08304316
-3.7270186	malheureusement	-0.08304316
-3.8761084	places	-0.08304316
-3.8761084	occupées	-0.08304316
-3.8761084	docteur	-0.08304316
-3.7270186	combien	-0.08304316
-3.7270186	docteurs	-0.08304316
-3.7270186	vingt-neuf	-0.08304316
-3.8761084	rendez	-0.08304316
-3.5728374	étaient	-0.08304316
-3.7270186	quinze	-0.08304316
-3.7270186	millions	-0.08304316
-3.7270186	venez	-0.08304316
-3.8761084	se~	-0.08304316
-3.8761084	serons	-0.08304316
-2.5390923	très	-0.19345891
-3.8761084	heureux	-0.08304316
-3.8761084	frais	-0.08304316
-3.7270186	importe	-0.08304316
-3.8761084	voudrait	-0.08304316
-3.8761084	fassiez	-0.08304316
-3.152112	trop	-0.11164427
-3.4240294	peur	-0.13596377
-3.8761084	de~	-0.08304316
-3.8761084	brousse	-0.08304316
-3.8761084	Addis	-0.08304316
-3.8761084	Abeba	-0.08304316
-3.313403	c~	-0.12668361
-3.8761084	capitales	-0.08304316
-3.7270186	grandes	-0.17520429
-3.7270186	villes	-0.08304316
-3.7270186	disaient	-0.08304316
-3.152112	voir	-0.08304316
-3.8761084	ayant	-0.08304316
-3.7270186	tour	-0.08304316
-3.7270186	revenue	-0.08304316
-3.8761084	Dominique	-0.08304316
-3.8761084	avertissement	-0.08304316
-3.8761084	second	-0.08304316
-3.8761084	ressemble	-0.08304316
-3.4240294	fort	-0.08304316
-3.8761084	déroute	-0.08304316
-3.8761084	arrête	-0.08304316
-3.7270186	vague	-0.08304316
-3.7270186	rose	-0.08304316
-3.7270186	écrivent	-0.08304316
-3.8761084	Les	-0.08304316
-3.8761084	Dernières	-0.08304316
-3.8761084	Nouvelles	-0.08304316
-3.7270186	"L"	-0.08304316
-3.8761084	indépendant	-0.08304316
-3.7270186	midi	-0.08304316
-3.8761084	gifle	-0.08304316
-3.5728374	joue	-0.08304316
-3.5728374	Nicolas	-0.3434495
-3.8761084	Sarkozy	-0.08304316
-3.2253125	doit	-0.21465471
-3.034767	être	-0.08304316
-3.8761084	brûlante	-0.08304316
-3.8761084	constate	-0.08304316
-3.089488	La	-0.23430915
-3.8761084	Voix	-0.08304316
-3.7270186	Nord	-0.08304316
-3.8761084	Union	-0.08304316
-3.8761084	Reims	-0.08304316
-3.8761084	rhétorique	-0.08304316
-3.8761084	plateau	-0.08304316
-3.8761084	télévisé	-0.08304316
-3.8761084	tienne	-0.08304316
-3.8761084	bel	-0.08304316
-3.8761084	bérézina	-0.08304316
-3.5728374	vote	-0.17520429
-3.8761084	sanction	-0.08304316
-3.7270186	Christophe	-0.08304316
-3.8761084	Giesbert	-0.08304316
-3.8761084	dépêche	-0.08304316
-3.7270186	cinglant	-0.08304316
-3.7270186	désaveu	-0.08304316
-3.7270186	François	-0.08304316
-3.8761084	Fillon	-0.08304316
-3.5728374	faut	-0.09889891
-3.8761084	appeler	-0.08304316
-3.8761084	Rachida	-0.08304316
-3.8761084	Dati	-0.08304316
-3.089488	écrit	-0.11164427
-3.5728374	Libération	-0.08304316
-3.8761084	Champagne	-0.08304316
-3.8761084	oser	-0.08304316
-3.8761084	affirmer	-0.08304316
-3.8761084	agit	-0.08304316
-3.4240294	Le	-0.19401419
-3.8761084	Parisien	-0.08304316
-3.8761084	"Aujourd"	-0.08304316
-3.7270186	hui	-0.08304316
-3.8761084	déferlante	-0.08304316
-3.8761084	boude	-0.08304316
-2.9027774	son	-0.10121201
-3.7270186	plaisir	-0.08304316
-3.8761084	caricature	-0.08304316
-3.8761084	ratatiné	-0.08304316
-3.152112	sous	-0.1201743
-3.8761084	exclamation	-0.08304316
-3.8761084	bling	-0.08304316
-3.8761084	éditorial	-0.08304316
-3.8761084	Laurent	-0.08304316
-3.8761084	Joffrin	-0.08304316
-3.5728374	parle	-0.08304316
-2.9027774	lui	-0.18488751
-2.695543	même	-0.14921765
-3.4240294	-il	-0.15026669
-3.7270186	responsables	-0.08304316
-3.8761084	UMP	-0.08304316
-3.8761084	obstinent	-0.08304316
-3.8761084	nier	-0.08304316
-3.8761084	évidence	-0.08304316
-3.7270186	accès	-0.08304316
-3.5728374	mauvaise	-0.08304316
-3.8761084	foi	-0.08304316
-3.8761084	soviétique	-0.08304316
-3.8761084	festival	-0.08304316
-3.8761084	langue	-0.08304316
-3.8761084	bois	-0.08304316
-3.8761084	croire	-0.08304316
-3.8761084	bourrasque	-0.08304316
-3.8761084	tornade	-0.08304316
-3.8761084	Figaro	-0.08304316
-3.8761084	transformé	-0.08304316
-3.8761084	essai	-0.08304316
-3.8761084	reconnaît	-0.08304316
-3.8761084	écrasante	-0.08304316
-3.8761084	victoire	-0.08304316
-3.8761084	parti	-0.08304316
-3.8761084	socialiste	-0.08304316
-3.5728374	Étienne	-0.3434495
-3.8761084	Mougeotte	-0.08304316
-3.8761084	désormais	-0.08304316
-3.4240294	pouvoir	-0.08304316
-3.8761084	moyennes	-0.08304316
-3.8761084	généraux	-0.08304316
-3.5728374	vingt	-0.17520429
-3.8761084	régions	-0.08304316
-3.7270186	vingt-deux	-0.08304316
-3.8761084	dispose	-0.08304316
-3.7270186	force	-0.08304316
-3.4240294	frappe	-0.1201743
-3.8761084	territoriale	-0.08304316
-3.8761084	considérable	-0.08304316
-3.7270186	quelle	-0.08304316
-3.8761084	leçon	-0.08304316
-3.7270186	tirer	-0.08304316
-3.7270186	tenir	-0.22983567
-3.313403	Français	-0.10869789
-3.313403	change	-0.1201743
-3.089488	sa	-0.11535555
-3.313403	quelques	-0.08304316
-3.8761084	naïfs	-0.08304316
-3.8761084	auraient	-0.08304316
-3.2253125	penser	-0.08304316
-3.7270186	répond	-0.08304316
-3.8761084	contraire	-0.08304316
-3.8761084	accélérer	-0.08304316
-3.7270186	rythme	-0.22983567
-3.7270186	changement	-0.08304316
-3.8761084	réformes	-0.08304316
-3.4240294	vite	-0.13596377
-3.8761084	écho	-0.08304316
-3.2253125	évidemment	-0.16077942
-3.8761084	convaincu	-0.08304316
-3.8761084	balaye	-0.08304316
-3.8761084	ricanement	-0.08304316
-3.7270186	pensée	-0.08304316
-3.7270186	disent	-0.08304316
-3.313403	réponse	-0.08304316
-3.7270186	voyons	-0.08304316
-2.5074322	maintenant	-0.22925968
-3.8761084	enjeu	-0.08304316
-3.7270186	largement	-0.08304316
-3.8761084	évoqué	-0.08304316
-3.5728374	municipales	-0.08304316
-3.8761084	scrutin	-0.08304316
-3.8761084	local	-0.08304316
-3.7270186	national	-0.08304316
-3.8761084	Journal	-0.08304316
-3.8761084	Haute	-0.08304316
-3.8761084	Marne	-0.08304316
-3.089488	moins	-0.1271809
-3.8761084	considérer	-0.08304316
-3.8761084	maires	-0.08304316
-3.8761084	battus	-0.08304316
-3.8761084	foncièrement	-0.08304316
-3.7270186	mauvais	-0.08304316
-3.8761084	résultat	-0.08304316
-3.8761084	cantonales	-0.08304316
-3.5728374	message	-0.08304316
-3.8761084	envoyé	-0.08304316
-3.8761084	exécutif	-0.08304316
-3.8761084	Jules	-0.08304316
-3.8761084	Clauwaert	-0.08304316
-3.8761084	Eclair	-0.08304316
-3.8761084	test	-0.08304316
-3.4240294	reste	-0.08304316
-3.8761084	déchiffrer	-0.08304316
-3.7270186	journaux	-0.08304316
-3.8761084	soulignent	-0.08304316
-3.4240294	également	-0.08304316
-3.8761084	faiblesse	-0.08304316
-3.8761084	mobilisation	-0.08304316
-3.8761084	électeurs	-0.08304316
-3.7270186	hier	-0.08304316
-3.8761084	triomphe	-0.08304316
-3.8761084	revenant	-0.08304316
-3.8761084	oublié	-0.08304316
-3.8761084	records	-0.08304316
-3.7270186	présidentielle	-0.08304316
-3.8761084	abstentionnisme	-0.08304316
-3.8761084	fossé	-0.08304316
-3.8761084	large	-0.08304316
-3.8761084	citoyens	-0.08304316
-3.5728374	cas	-0.08304316
-3.5728374	Marseille	-0.15026669
-3.8761084	fut	-0.08304316
-3.034767	toute	-0.13596377
-3.8761084	bouée	-0.08304316
-3.8761084	naufrage	-0.08304316
-3.5728374	soir	-0.08304316
-3.8761084	Roger	-0.08304316
-3.8761084	Antech	-0.08304316
-3.8761084	Midi	-0.08304316
-3.8761084	Libre	-0.08304316
-3.8761084	sauvetage	-0.08304316
-3.8761084	miraculeux	-0.08304316
-3.8761084	égards	-0.08304316
-3.8761084	Provence	-0.08304316
-3.8761084	occupe	-0.08304316
-3.152112	part	-0.1201743
-3.7270186	matin	-0.08304316
-3.7270186	peuvent	-0.08304316
-3.8761084	merci	-0.08304316
-3.7270186	demande	-0.08304316
-3.8761084	Progrès	-0.08304316
-3.8761084	Lyon	-0.08304316
-3.4240294	chose	-0.11164427
-3.8761084	pronostique	-0.08304316
-3.8761084	Francis	-0.08304316
-3.8761084	Brochet	-0.08304316
-3.7270186	autrement	-0.08304316
-3.5728374	fond	-0.08304316
-3.7270186	forme	-0.08304316
-3.8761084	Rolex	-0.08304316
-3.8761084	délicat	-0.08304316
-2.8328435	peut-être	-0.11535555
-3.8761084	accord	-0.08304316
-3.8761084	arbitre	-0.08304316
-3.7270186	Erikson	-0.08304316
-3.8761084	abstenu	-0.08304316
-3.089488	Messi	-0.24345192
-3.8761084	chercher	-0.08304316
-3.4240294	oh	-0.13596377
-3.4240294	corner	-0.13596377
-3.313403	touche	-0.13596377
-3.4240294	sortie	-0.2200678
-3.5728374	but	-0.11535555
-3.7270186	sait	-0.08304316
-3.7270186	sûr	-0.08304316
-3.8761084	protestation	-0.08304316
-3.8761084	poussé	-0.08304316
-3.4240294	ballon	-0.11905875
-3.4240294	loin	-0.08304316
-3.5728374	coup	-0.17520429
-3.8761084	franc	-0.08304316
-3.7270186	Eugène	-0.08304316
-3.7270186	départ	-0.08304316
-2.3545823	hein	-0.41474503
-3.5728374	revient	-0.08304316
-3.7270186	faute	-0.08304316
-3.4240294	effectivement	-0.08304316
-3.8761084	Diarra	-0.08304316
-3.7270186	Gallas	-0.08304316
-3.8761084	litigieuse	-0.08304316
-3.4240294	petite	-0.08304316
-3.8761084	obstruction	-0.08304316
-3.8761084	Gabi	-0.08304316
-3.2253125	Heinze	-0.08304316
-3.8761084	semblerait	-0.08304316
-3.8761084	Gourcuff	-0.08304316
-3.8761084	ait	-0.08304316
-3.8761084	perdu	-0.08304316
-3.8761084	raison	-0.08304316
-3.7270186	laquelle	-0.08304316
-3.8761084	sifflé	-0.08304316
-3.8761084	penalty	-0.08304316
-3.7270186	pris	-0.08304316
-3.8761084	carton	-0.08304316
-3.8761084	signale	-0.08304316
-3.8761084	embêtant	-0.08304316
-3.8761084	joué	-0.08304316
-3.7270186	derrière	-0.08304316
-3.5728374	Argentins	-0.08304316
-3.8761084	Argentin	-0.08304316
-3.152112	Rodriguez	-0.25516427
-3.4240294	Maxi	-0.26233596
-3.4240294	pied	-0.15026669
-3.7270186	surface	-0.22983567
-3.8761084	réparation	-0.08304316
-3.8761084	tête	-0.08304316
-3.7270186	Mexès	-0.08304316
-3.8761084	repousse	-0.08304316
-3.8761084	saute	-0.08304316
-3.8761084	haut	-0.08304316
-3.8761084	attaquants	-0.08304316
-3.8761084	argentins	-0.08304316
-3.2253125	Agüero	-0.19401419
-3.8761084	expédie	-0.08304316
-3.8761084	solution	-0.08304316
-3.7270186	Lionel	-0.22983567
-3.8761084	tire	-0.08304316
-3.7270186	ailleurs	-0.08304316
-3.2253125	Papa	-0.17520429
-3.8761084	boîte	-0.08304316
-3.089488	Gutiérrez	-0.14470969
-3.7270186	arrêt	-0.1201743
-3.8761084	Steve	-0.08304316
-3.4240294	Mandanda	-0.13596377
-3.7270186	suite	-0.08304316
-3.8761084	défense	-0.08304316
-3.7270186	équipe	-0.17520429
-3.5728374	environ	-0.08304316
-3.7270186	mètres	-0.08304316
-3.8761084	niche	-0.08304316
-3.7270186	facile	-0.08304316
-3.7270186	vrai	-0.08304316
-3.7270186	plein	-0.08304316
-3.8761084	poitrine	-0.08304316
-3.8761084	capter	-0.08304316
-3.5728374	normalement	-0.17520429
-3.8761084	attaque	-0.08304316
-3.2253125	seul	-0.12668361
-3.034767	peut	-0.16975595
-3.8761084	contrer	-0.08304316
-3.4240294	laisse	-0.15026669
-3.8761084	jouer	-0.08304316
-3.7270186	pardon	-0.22983567
-3.5728374	marque	-0.17520429
-3.4240294	complètement	-0.26233596
-3.8761084	dégarni	-0.08304316
-3.8761084	armer	-0.08304316
-3.7270186	tir	-0.22983567
-3.8761084	plongé	-0.08304316
-3.8761084	pouvait	-0.08304316
-3.4240294	grand	-0.12668361
-3.8761084	dominait	-0.08304316
-3.8761084	globalement	-0.08304316
-3.8761084	quoique	-0.08304316
-3.8761084	relâchement	-0.08304316
-3.8761084	allais	-0.08304316
-3.8761084	"daccord"	-0.08304316
-3.7270186	cinq	-0.08304316
-3.5728374	minutes	-0.17520429
-3.7270186	commençait	-0.08304316
-3.5728374	nouveau	-0.08304316
-3.7270186	reculer	-0.08304316
-3.8761084	lâcher	-0.08304316
-3.8761084	emprise	-0.08304316
-3.8761084	adversaire	-0.08304316
-3.7270186	argentin	-0.22983567
-3.8761084	ordres	-0.08304316
-3.7270186	Maradona	-0.08304316
-3.8761084	jouaient	-0.08304316
-3.8761084	voyait	-0.08304316
-3.313403	grands	-0.1201743
-3.8761084	signes	-0.08304316
-3.8761084	demandant	-0.08304316
-3.5728374	joueurs	-0.08304316
-3.8761084	monter	-0.08304316
-3.8761084	menée	-0.08304316
-3.8761084	zéro	-0.08304316
-3.8761084	données	-0.08304316
-3.4240294	problème	-0.1201743
-3.8761084	matchs	-0.08304316
-3.5728374	importance	-0.08304316
-3.8761084	tels	-0.08304316
-2.522974	quand	-0.4741993
-3.7270186	mène	-0.08304316
-3.8761084	confiant	-0.08304316
-3.8761084	tranquille	-0.08304316
-3.5728374	attention	-0.08304316
-3.8761084	attaques	-0.08304316
-3.8761084	françaises	-0.08304316
-3.7270186	Thierry	-0.22983567
-3.8761084	nuages	-0.08304316
-3.8761084	planté	-0.08304316
-3.8761084	gazon	-0.08304316
-3.8761084	Gu~	-0.08304316
-3.4240294	mal	-0.08304316
-3.8761084	erreur	-0.08304316
-3.8761084	défensive	-0.08304316
-3.8761084	marquage	-0.08304316
-3.8761084	mule	-0.08304316
-3.7270186	chance	-0.08304316
-3.8761084	car	-0.08304316
-3.8761084	trou	-0.08304316
-3.7270186	souris	-0.08304316
-3.7270186	trouve	-0.17520429
-3.8761084	rebondit	-0.08304316
-3.8761084	ouverture	-0.08304316
-3.8761084	poteau	-0.08304316
-3.8761084	dégagement	-0.08304316
-3.8761084	Carrisou	-0.08304316
-3.7270186	quatre	-0.08304316
-3.7270186	mi	-0.22983567
-3.089488	temps	-0.1271809
-3.8761084	mènent	-0.08304316
-3.7270186	Anelka	-0.08304316
-3.5728374	donner	-0.08304316
-3.8761084	manqué	-0.08304316
-3.5728374	récupéré	-0.08304316
-3.8761084	argentine	-0.08304316
-3.8761084	possession	-0.08304316
-3.7270186	début	-0.08304316
-3.8761084	match	-0.08304316
-3.8761084	instant	-0.08304316
-3.5728374	récupérer	-0.08304316
-3.8761084	obligée	-0.08304316
-3.8761084	commettre	-0.08304316
-3.8761084	fautes	-0.08304316
-3.7270186	Abidal	-0.08304316
-3.8761084	camp	-0.08304316
-3.7270186	rencontre	-0.08304316
-3.8761084	dépassés	-0.08304316
-3.7270186	évènements	-0.08304316
-3.8761084	repris	-0.08304316
-3.8761084	lâchent	-0.08304316
-3.7270186	prise	-0.08304316
-3.5728374	trois	-0.08304316
-3.7270186	pieds	-0.08304316
-3.7270186	pense	-0.08304316
-3.8761084	Mascherano	-0.08304316
-3.8761084	M~	-0.08304316
-3.8761084	peut~	-0.08304316
-3.8761084	sorti	-0.08304316
-3.4240294	Zanetti	-0.08304316
-3.8761084	joueur	-0.08304316
-3.2253125	années	-0.08304316
-3.8761084	Inter	-0.08304316
-3.8761084	revenu	-0.08304316
-3.8761084	ouh	-0.08304316
-3.5728374	donne	-0.08304316
-3.8761084	Gaga	-0.08304316
-3.4240294	Gago	-0.08304316
-3.7270186	contré	-0.17520429
-3.5728374	passer	-0.08304316
-3.8761084	offensif	-0.08304316
-3.8761084	Bixente	-0.08304316
-3.8761084	vif	-0.08304316
-3.8761084	court	-0.08304316
-3.8761084	couloir	-0.08304316
-3.8761084	dénommé	-0.08304316
-3.8761084	obligés	-0.08304316
-3.5728374	courir	-0.08304316
-3.5728374	justement	-0.08304316
-3.7270186	franchit	-0.08304316
-3.8761084	médiane	-0.08304316
-3.8761084	accélère	-0.08304316
-3.8761084	retrait	-0.08304316
-3.8761084	circuler	-0.08304316
-3.8761084	techniquement	-0.08304316
-3.5728374	fantastique	-0.08304316
-3.4240294	vient	-0.26233596
-3.8761084	échapper	-0.08304316
-3.5728374	sortir	-0.08304316
-3.8761084	piège	-0.08304316
-3.8761084	tendu	-0.08304316
-3.5728374	français	-0.08304316
-3.8761084	écarte	-0.08304316
-3.152112	assez	-0.08304316
-3.8761084	extraordinaire	-0.08304316
-3.8761084	patron	-0.08304316
-3.5728374	rôle	-0.17520429
-3.7270186	séquence	-0.08304316
-3.7270186	actuellement	-0.08304316
-3.8761084	balader	-0.08304316
-3.8761084	buteur	-0.08304316
-3.8761084	quarantième	-0.08304316
-3.8761084	minute	-0.08304316
-3.313403	rentre	-0.29924902
-3.8761084	stoppé	-0.08304316
-3.8761084	tentent	-0.08304316
-3.8761084	repousser	-0.08304316
-3.8761084	assauts	-0.08304316
-3.7270186	chers	-0.08304316
-3.7270186	compatriotes	-0.08304316
-3.7270186	voudrais	-0.08304316
-3.8761084	exprimer	-0.08304316
-3.313403	ma	-0.08304316
-3.8761084	sympathie	-0.08304316
-3.8761084	celles	-0.08304316
-3.8761084	vivent	-0.08304316
-3.7270186	jours	-0.08304316
-3.7270186	mille	-0.08304316
-3.7270186	neuf	-0.08304316
-3.8761084	quatre-vingt-dix-neuf	-0.08304316
-3.8761084	épreuve	-0.08304316
-3.8761084	nombreuses	-0.08304316
-3.8761084	victimes	-0.08304316
-3.8761084	tempête	-0.08304316
-3.7270186	familles	-0.08304316
-3.8761084	endeuillées	-0.08304316
-2.8664045	dont	-0.22283629
-3.8761084	partageons	-0.08304316
-3.8761084	peine	-0.08304316
-3.8761084	concitoyens	-0.08304316
-3.8761084	cruellement	-0.08304316
-3.8761084	touchés	-0.08304316
-3.2253125	leur	-0.12668361
-3.5728374	vie	-0.08304316
-3.8761084	quotidienne	-0.08304316
-3.8761084	biens	-0.08304316
-3.8761084	détruits	-0.08304316
-3.8761084	craignent	-0.08304316
-3.7270186	activité	-0.08304316
-3.8761084	emploi	-0.08304316
-3.8761084	souffrent	-0.08304316
-3.5728374	patrimoine	-0.08304316
-3.8761084	littoral	-0.08304316
-3.8761084	forêts	-0.08304316
-3.8761084	monuments	-0.08304316
-3.8761084	défigurés	-0.08304316
-3.8761084	redis	-0.08304316
-3.7270186	émotion	-0.08304316
-3.8761084	fierté	-0.08304316
-3.8761084	exceptionnel	-0.08304316
-3.8761084	élan	-0.08304316
-3.5728374	solidarité	-0.08304316
-3.8761084	anime	-0.08304316
-3.5728374	tant	-0.08304316
-3.8761084	bénévoles	-0.08304316
-3.8761084	associations	-0.08304316
-3.8761084	mobilisés	-0.08304316
-3.8761084	côtés	-0.08304316
-3.8761084	services	-0.08304316
-3.8761084	publics	-0.08304316
-3.8761084	civils	-0.08304316
-3.8761084	militaires	-0.08304316
-3.8761084	élus	-0.08304316
-3.152112	heures	-0.08304316
-3.8761084	difficiles	-0.08304316
-3.8761084	ressentons	-0.08304316
-3.7270186	profondément	-0.08304316
-3.8761084	fragilité	-0.08304316
-3.5728374	choses	-0.08304316
-3.8761084	précarité	-0.08304316
-3.8761084	semblait	-0.08304316
-3.8761084	acquis	-0.08304316
-3.5728374	parfois	-0.08304316
-3.8761084	remis	-0.08304316
-3.7270186	cause	-0.08304316
-3.8761084	inconscience	-0.08304316
-3.7270186	hommes	-0.08304316
-3.8761084	déchaînement	-0.08304316
-3.8761084	éléments	-0.08304316
-3.8761084	naturels	-0.08304316
-3.8761084	mesurons	-0.08304316
-3.7270186	État	-0.08304316
-3.7270186	société	-0.08304316
-3.8761084	pèsent	-0.08304316
-3.8761084	responsabilités	-0.08304316
-3.8761084	essentielles	-0.08304316
-3.8761084	service	-0.08304316
-3.7270186	sécurité	-0.08304316
-3.7270186	auquel	-0.08304316
-3.8761084	appartient	-0.08304316
-3.8761084	prévoir	-0.08304316
-3.8761084	assurer	-0.08304316
-3.8761084	coordination	-0.08304316
-3.8761084	moyens	-0.08304316
-3.8761084	prix	-0.08304316
-3.7270186	fraternelle	-0.08304316
-3.8761084	soutien	-0.08304316
-3.8761084	spontané	-0.08304316
-3.8761084	main	-0.08304316
-3.8761084	tendue	-0.08304316
-3.8761084	ciment	-0.08304316
-3.4240294	nation	-0.08304316
-3.8761084	touchons	-0.08304316
-3.8761084	portes	-0.08304316
-3.8761084	décidément	-0.08304316
-3.8761084	moderne	-0.08304316
-3.7270186	nécessaire	-0.08304316
-3.7270186	solide	-0.08304316
-3.7270186	sentiment	-0.08304316
-3.8761084	appartenir	-0.08304316
-3.8761084	communauté	-0.08304316
-3.8761084	uns	-0.08304316
-3.5728374	autres	-0.1201743
-3.8761084	blessée	-0.08304316
-3.7270186	retrouver	-0.08304316
-3.8761084	rassemblée	-0.08304316
-3.8761084	su	-0.08304316
-3.7270186	parler	-0.08304316
-3.8761084	coeur	-0.08304316
-3.8761084	vivons	-0.08304316
-3.152112	ensemble	-0.08304316
-3.7270186	singulier	-0.08304316
-3.8761084	paraissait	-0.08304316
-3.8761084	lointain	-0.08304316
-3.8761084	symbolisé	-0.08304316
-3.8761084	futur	-0.08304316
-3.7270186	devenu	-0.08304316
-3.8761084	contemporain	-0.08304316
-3.8761084	immédiat	-0.08304316
-3.5728374	vont	-0.08304316
-3.4240294	vivre	-0.08304316
-3.8761084	instants	-0.08304316
-3.8761084	étonnement	-0.08304316
-3.8761084	certaine	-0.08304316
-3.8761084	appréhension	-0.08304316
-3.8761084	achève	-0.08304316
-3.7270186	époque	-0.08304316
-3.8761084	possédait	-0.08304316
-3.8761084	clés	-0.08304316
-3.8761084	maîtrisait	-0.08304316
-3.8761084	règles	-0.08304316
-3.8761084	habitudes	-0.08304316
-3.8761084	comprends	-0.08304316
-3.8761084	mouvements	-0.08304316
-3.8761084	âme	-0.08304316
-3.8761084	pourtant	-0.08304316
-3.8761084	confiance	-0.08304316
-3.8761084	franchira	-0.08304316
-3.8761084	obstacles	-0.08304316
-3.8761084	long	-0.08304316
-3.034767	soit	-0.12668361
-3.7270186	fidèle	-0.22983567
-3.4240294	-même	-0.13596377
-3.7270186	présent	-0.08304316
-3.8761084	mémoire	-0.08304316
-3.8761084	attarderai	-0.08304316
-2.9861755	siècle	-0.12668361
-3.4240294	progrès	-0.08304316
-3.8761084	précédent	-0.08304316
-3.7270186	santé	-0.08304316
-3.7270186	éducation	-0.08304316
-3.8761084	conditions	-0.08304316
-3.8761084	démocratique	-0.08304316
-3.7270186	situation	-0.08304316
-3.8761084	solidarités	-0.08304316
-3.8761084	horreur	-0.08304316
-3.7270186	tragédies	-0.08304316
-3.8761084	convulsions	-0.08304316
-3.7270186	vu	-0.08304316
-3.8761084	guerres	-0.08304316
-3.8761084	mondiales	-0.08304316
-3.8761084	goulag	-0.08304316
-3.8761084	dictatures	-0.08304316
-3.8761084	totalitaires	-0.08304316
-3.8761084	Shoah	-0.08304316
-3.7270186	avenir	-0.08304316
-3.2253125	celui	-0.3434495
-3.4240294	enfants	-0.1201743
-3.8761084	poursuivre	-0.08304316
-3.8761084	hésitations	-0.08304316
-3.8761084	limites	-0.08304316
-3.8761084	récents	-0.08304316
-3.8761084	invitent	-0.08304316
-3.8761084	humilité	-0.08304316
-3.8761084	science	-0.08304316
-3.8761084	communications	-0.08304316
-3.8761084	naître	-0.08304316
-3.5728374	année	-0.08304316
-3.8761084	verront	-0.08304316
-3.8761084	prendront	-0.08304316
-3.2253125	sens	-0.16077942
-3.8761084	bénéficient	-0.08304316
-3.8761084	Homme	-0.08304316
-3.8761084	vingt-et-unième	-0.08304316
-3.8761084	éthique	-0.08304316
-3.8761084	"aujourd"	-0.08304316
-3.8761084	font	-0.08304316
-3.8761084	douter	-0.08304316
-3.8761084	espérance	-0.08304316
-3.8761084	nations	-0.08304316
-3.8761084	accordent	-0.08304316
-3.4240294	mieux	-0.15026669
-3.8761084	respecter	-0.08304316
-3.8761084	droits	-0.08304316
-3.8761084	défendre	-0.08304316
-3.8761084	dignité	-0.08304316
-3.7270186	humaine	-0.22983567
-3.8761084	nouvel	-0.08304316
-3.7270186	ordre	-0.08304316
-3.8761084	international	-0.08304316
-3.7270186	affirme	-0.08304316
-3.8761084	demain	-0.08304316
-3.8761084	devra	-0.08304316
-3.2253125	avoir	-0.08304316
-3.8761084	repos	-0.08304316
-3.8761084	criminels	-0.08304316
-3.8761084	humanité	-0.08304316
-3.4240294	nom	-0.08304316
-3.5728374	combat	-0.08304316
-3.4240294	difficile	-0.13596377
-3.5728374	chaque	-0.08304316
-3.4240294	jour	-0.13596377
-3.8761084	intérieur	-0.08304316
-3.7270186	exigence	-0.08304316
-3.7270186	entendre	-0.08304316
-3.8761084	forte	-0.08304316
-3.8761084	avancées	-0.08304316
-3.8761084	soient	-0.08304316
-3.8761084	orientées	-0.08304316
-3.8761084	retournent	-0.08304316
-3.313403	jamais	-0.08304316
-3.7270186	exemple	-0.104315475
-3.8761084	manipulations	-0.08304316
-3.8761084	génétiques	-0.08304316
-3.8761084	clonage	-0.08304316
-3.8761084	domaine	-0.08304316
-3.8761084	environnement	-0.08304316
-3.8761084	peuples	-0.08304316
-3.8761084	veulent	-0.08304316
-3.7270186	course	-0.08304316
-3.8761084	productivité	-0.08304316
-3.8761084	épuise	-0.08304316
-3.8761084	planète	-0.08304316
-3.8761084	responsabilité	-0.08304316
-3.4240294	monde	-0.10869789
-3.8761084	dégradent	-0.08304316
-3.8761084	recherchée	-0.08304316
-3.8761084	sanctionnée	-0.08304316
-3.8761084	lèguerons	-0.08304316
-3.7270186	changé	-0.08304316
-3.8761084	modernité	-0.08304316
-3.8761084	diviser	-0.08304316
-3.8761084	profiter	-0.08304316
-3.7270186	chacun	-0.08304316
-3.8761084	réussirons	-0.08304316
-3.8761084	décisions	-0.08304316
-3.8761084	engagent	-0.08304316
-3.8761084	garantissent	-0.08304316
-3.7270186	choisi	-0.08304316
-3.8761084	grandir	-0.08304316
-3.7270186	Europe	-0.08304316
-3.8761084	garantit	-0.08304316
-3.8761084	paix	-0.08304316
-3.8761084	permet	-0.08304316
-3.8761084	peser	-0.08304316
-3.8761084	davantage	-0.08304316
-3.7270186	mondialisation	-0.08304316
-3.8761084	maîtrisée	-0.08304316
-3.8761084	organisée	-0.08304316
-3.8761084	respectueuse	-0.08304316
-3.7270186	capable	-0.22983567
-3.8761084	aspirations	-0.08304316
-3.8761084	pauvreté	-0.08304316
-3.8761084	négociations	-0.08304316
-3.7270186	certaines	-0.08304316
-3.5728374	valeurs	-0.17520429
-3.8761084	volonté	-0.08304316
-3.8761084	allante	-0.08304316
-3.8761084	mobile	-0.08304316
-3.8761084	optimiste	-0.08304316
-3.7270186	responsable	-0.08304316
-3.8761084	efforcerait	-0.08304316
-3.8761084	contrat	-0.08304316
-3.8761084	attachement	-0.08304316
-3.8761084	chaleur	-0.08304316
-3.8761084	entraide	-0.08304316
-3.8761084	désir	-0.08304316
-3.8761084	utile	-0.08304316
-3.8761084	soi	-0.08304316
-3.8761084	réaliser	-0.08304316
-3.8761084	tolérance	-0.08304316
-3.8761084	renoncement	-0.08304316
-3.8761084	convictions	-0.08304316
-3.8761084	respect	-0.08304316
-3.8761084	esprit	-0.08304316
-3.8761084	républicain	-0.08304316
-3.8761084	intérêt	-0.08304316
-3.7270186	général	-0.08304316
-3.8761084	impose	-0.08304316
-3.8761084	conserve	-0.08304316
-3.8761084	autorité	-0.08304316
-3.8761084	justice	-0.08304316
-3.8761084	gardons	-0.08304316
-3.8761084	exigences	-0.08304316
-3.8761084	faisant	-0.08304316
-3.8761084	forts	-0.08304316
-3.8761084	aborder	-0.08304316
-3.8761084	viennent	-0.08304316
-3.8761084	étant	-0.08304316
-3.8761084	génie	-0.08304316
-3.8761084	propre	-0.08304316
-3.8761084	saura	-0.08304316
-3.8761084	conjuguer	-0.08304316
-3.8761084	cohésion	-0.08304316
-3.8761084	initiative	-0.08304316
-3.8761084	mesure	-0.08304316
-3.8761084	honneur	-0.08304316
-3.8761084	échoient	-0.08304316
-3.8761084	adresser	-0.08304316
-3.8761084	cap	-0.08304316
-3.8761084	riche	-0.08304316
-3.8761084	fièvre	-0.08304316
-3.8761084	passion	-0.08304316
-3.8761084	enthousiasme	-0.08304316
-3.5728374	ouvrir	-0.08304316
-3.8761084	défricher	-0.08304316
-3.8761084	chemins	-0.08304316
-3.8761084	inventer	-0.08304316
-3.8761084	fraternel	-0.08304316
-3.8761084	volontaire	-0.08304316
-3.8761084	aura	-0.08304316
-3.8761084	couleurs	-0.08304316
-3.8761084	donnerons	-0.08304316
-3.8761084	voudrons	-0.08304316
-3.8761084	unie	-0.08304316
-3.8761084	vivante	-0.08304316
-3.8761084	solidaire	-0.08304316
-3.8761084	ouverte	-0.08304316
-3.8761084	accepte	-0.08304316
-3.8761084	aucune	-0.08304316
-3.8761084	fatalité	-0.08304316
-3.8761084	figé	-0.08304316
-3.8761084	dépend	-0.08304316
-3.8761084	capacité	-0.08304316
-3.8761084	construire	-0.08304316
-3.8761084	créer	-0.08304316
-3.8761084	rêver	-0.08304316
-3.8761084	voies	-0.08304316
-3.8761084	aventure	-0.08304316
-3.8761084	chacune	-0.08304316
-3.8761084	Françaises	-0.08304316
-3.8761084	métropole	-0.08304316
-3.8761084	outre	-0.08304316
-3.8761084	mer	-0.08304316
-3.8761084	étranger	-0.08304316
-3.8761084	souhaite	-0.08304316
-3.8761084	chaleureusement	-0.08304316
-3.313403	bonne	-0.08304316
-3.8761084	heureuse	-0.08304316
-3.8761084	exercé	-0.08304316
-2.8664045	quoi	-0.3456755
-3.7270186	métier	-0.08304316
-3.7270186	sa~	-0.08304316
-3.8761084	travaillez	-0.08304316
-3.4240294	bah	-0.12668361
-3.4240294	plusieurs	-0.08304316
-3.8761084	mé~	-0.08304316
-3.8761084	métiers	-0.08304316
-3.2253125	disons	-0.08304316
-3.4240294	comment	-0.13596377
-3.8761084	entreprises	-0.08304316
-3.8761084	automatisme	-0.08304316
-3.7270186	électronique	-0.08304316
-3.7270186	automatismes	-0.22983567
-3.7270186	micro	-0.22983567
-3.8761084	processeurs	-0.08304316
-3.7270186	informatique	-0.13596377
-3.8761084	spécialisé	-0.08304316
-3.8761084	programmation	-0.08304316
-3.8761084	scientifique	-0.08304316
-3.7270186	laboratoire	-0.08304316
-3.8761084	CNRS	-0.08304316
-3.4240294	sinon	-0.08304316
-3.8761084	stressant	-0.08304316
-3.8761084	suivi	-0.08304316
-3.7270186	é~	-0.08304316
-3.8761084	évolution	-0.08304316
-3.5728374	vingt-cinq	-0.26233596
-3.7270186	pratiquement	-0.08304316
-3.8761084	rentré	-0.08304316
-3.8761084	appareillage	-0.08304316
-3.8761084	su~	-0.08304316
-3.7270186	développée	-0.08304316
-3.8761084	appareils	-0.08304316
-3.8761084	étais	-0.08304316
-3.8761084	informaticien	-0.08304316
-3.7270186	dur	-0.08304316
-3.8761084	maint~	-0.08304316
-3.8761084	relativement	-0.08304316
-3.8761084	parc	-0.08304316
-3.8761084	cinquantaine	-0.08304316
-3.7270186	ordinateurs	-0.08304316
-3.8761084	imprimantes	-0.08304316
-3.7270186	pose	-0.08304316
-3.8761084	problèmes	-0.08304316
-3.8761084	maintenan~	-0.08304316
-3.8761084	maintenance	-0.08304316
-3.8761084	mise	-0.08304316
-3.7270186	donné	-0.08304316
-3.8761084	devenait	-0.08304316
-3.7270186	travail	-0.08304316
-3.8761084	m~	-0.08304316
-3.7270186	écrire	-0.08304316
-3.7270186	programmes	-0.08304316
-3.8761084	logiciels	-0.08304316
-3.8761084	aidé	-0.08304316
-3.8761084	"quelquun"	-0.08304316
-3.7270186	heureusement	-0.08304316
-3.8761084	intenable	-0.08304316
-3.8761084	boulot	-0.08304316
-3.8761084	fallu	-0.08304316
-3.8761084	former	-0.08304316
-3.5728374	gens	-0.08304313
-3.8761084	connaissaient	-0.08304316
-3.8761084	savaient	-0.08304316
-3.8761084	utiliser	-0.08304316
-3.7270186	ordinateur	-0.08304316
-3.313403	jeunes	-0.11535555
-3.8761084	arrivent	-0.08304316
-3.8761084	nés	-0.08304316
-3.8761084	évident	-0.08304316
-3.8761084	imagine	-0.08304316
-3.7270186	remarque	-0.08304316
-3.8761084	connaissent	-0.08304316
-3.7270186	faites	-0.17520429
-3.4240294	génération	-0.08304316
-3.7270186	vécu	-0.08304316
-3.8761084	tandis	-0.08304316
-3.8761084	mulot	-0.08304316
-3.8761084	voyaient	-0.08304316
-3.8761084	sav~	-0.08304316
-3.8761084	toucher	-0.08304316
-3.8761084	clavier	-0.08304316
-3.8761084	déb~	-0.08304316
-3.8761084	appuyer	-0.08304316
-3.8761084	impression	-0.08304316
-3.5728374	allait	-0.08304316
-3.8761084	casser	-0.08304316
-3.8761084	machine	-0.08304316
-3.8761084	débutant	-0.08304316
-3.089488	quelque	-0.42418778
-3.4240294	pourquoi	-0.12668361
-3.7270186	marche	-0.08304316
-3.7270186	ci	-0.08304316
-3.8761084	utilises	-0.08304316
-3.8761084	liés	-0.08304316
-3.8761084	utilisateur	-0.08304316
-3.8761084	plupart	-0.08304316
-3.8761084	fausse	-0.08304316
-3.8761084	manoeuvre	-0.08304316
-3.7270186	p~	-0.08304316
-3.8761084	obligatoire	-0.08304316
-3.8761084	erreurs	-0.08304316
-3.8761084	fallait	-0.08304316
-3.7270186	courant	-0.17520429
-3.8761084	réglé	-0.08304316
-3.8761084	règle	-0.08304316
-3.8761084	gros	-0.08304316
-3.5728374	sauf	-0.08304316
-3.8761084	changer	-0.08304316
-3.7270186	système	-0.08304316
-3.8761084	mises	-0.08304316
-3.7270186	pff	-0.08304316
-3.8761084	ç~	-0.08304316
-3.7270186	devient	-0.08304316
-3.8761084	ridicule	-0.08304316
-3.8761084	commences	-0.08304316
-3.7270186	bref	-0.08304316
-3.8761084	toi	-0.08304316
-3.5728374	connais	-0.17520429
-3.8761084	t~	-0.08304316
-3.7270186	dépassé	-0.08304316
-3.8761084	achètes	-0.08304316
-3.8761084	pra~	-0.08304316
-3.5728374	nouvelle	-0.08304316
-3.8761084	Nef	-0.08304316
-3.8761084	Chavant	-0.08304316
-3.5728374	jardins	-0.26233596
-3.8761084	conseillerais	-0.08304316
-3.8761084	retombez	-0.08304316
-3.8761084	Grenette	-0.08304316
-3.7270186	allez	-0.08304316
-3.7270186	lignes	-0.08304316
-3.8761084	continuez	-0.08304316
-3.8761084	Hubert	-0.08304316
-3.8761084	Dubedout	-0.08304316
-2.7197483	mh	-0.27279472
-3.8761084	tromper	-0.08304316
-3.8761084	suivez	-0.08304316
-3.8761084	bleu	-0.08304316
-3.8761084	tournez	-0.08304316
-3.8761084	conti~	-0.08304316
-3.8761084	remontez	-0.08304316
-3.8761084	tomber	-0.08304316
-3.8761084	église	-0.08304316
-3.8761084	reprenez	-0.08304316
-3.8761084	cents	-0.08304316
-3.8761084	-ce	-0.08304316
-3.8761084	sérieux	-0.08304316
-3.5728374	répondre	-0.08304316
-3.313403	voyez	-0.11535555
-3.7270186	définition	-0.08304316
-3.7270186	forcément	-0.08304316
-3.5728374	art	-0.12103499
-3.313403	partie	-0.13596377
-3.8761084	artistes	-0.08304316
-3.8761084	théoriciens	-0.08304316
-3.5728374	Yves	-0.3434495
-3.8761084	Klein	-0.08304316
-3.8761084	approche	-0.08304316
-3.8761084	directe	-0.08304316
-3.8761084	théorisé	-0.08304316
-3.7270186	référence	-0.08304316
-3.8761084	philosophique	-0.08304316
-3.5728374	philosophe	-0.08304316
-3.8761084	éloge	-0.08304316
-3.5728374	notamment	-0.08304316
-3.7270186	Nietzsche	-0.08304316
-3.8761084	allemand	-0.08304316
-3.034767	l~	-0.104315475
-3.7270186	uniquement	-0.08304316
-3.7270186	serait	-0.08304316
-3.8761084	ch~	-0.08304316
-3.8761084	principalement	-0.08304316
-3.8761084	résumer	-0.08304316
-3.8761084	opposer	-0.08304316
-3.8761084	idée	-0.08304316
-3.5728374	vue	-0.08304316
-3.8761084	dix-neuvième	-0.08304316
-3.7270186	romantique	-0.08304316
-3.8761084	continué	-0.08304316
-3.8761084	souffrance	-0.08304316
-3.8761084	malheur	-0.08304316
-3.8761084	tourments	-0.08304316
-3.8761084	intérieurs	-0.08304316
-3.8761084	artiste	-0.08304316
-3.8761084	doivent	-0.08304316
-3.8761084	exploser	-0.08304316
-3.8761084	façons	-0.08304316
-3.7270186	conception	-0.22983567
-3.8761084	maladive	-0.08304316
-3.8761084	création	-0.08304316
-3.8761084	oppose	-0.08304316
-3.8761084	affirmation	-0.08304316
-3.8761084	négation	-0.08304316
-3.8761084	morbide	-0.08304316
-3.8761084	dedans	-0.08304316
-3.5728374	compris	-0.08304316
-3.8761084	faudrait	-0.08304316
-3.8761084	interprétations	-0.08304316
-3.5728374	mort	-0.08304316
-3.7270186	trace	-0.08304316
-3.8761084	traces	-0.08304316
-3.7270186	corps	-0.22983567
-3.8761084	mourir	-0.08304316
-3.8761084	contresens	-0.08304316
-3.8761084	rapport	-0.08304316
-3.8761084	clair	-0.08304316
-3.7270186	b~	-0.08304316
-3.313403	plutôt	-0.08304316
-3.7270186	jeu	-0.08304316
-3.8761084	performance	-0.08304316
-3.5728374	tellement	-0.08304316
-3.8761084	réflexion	-0.08304316
-3.8761084	repensant	-0.08304316
-3.8761084	comprendre	-0.08304316
-3.8761084	Nietzche	-0.08304316
-3.8761084	joyeux	-0.08304316
-3.8761084	maladie	-0.08304316
-3.8761084	CCJ	-0.08304316
-3.8761084	Vict~	-0.08304316
-3.8761084	diagonale	-0.08304316
-3.7270186	arriver	-0.08304316
-3.7270186	Agutte	-0.22983567
-3.5728374	Sembat	-0.08304316
-3.8761084	arri~	-0.08304316
-3.8761084	cinéma	-0.08304316
-3.313403	jeune	-0.19401419
-3.5728374	fille	-0.13596372
-3.8761084	visiblement	-0.08304316
-3.7270186	regarde	-0.08304316
-3.8761084	vitrines	-0.08304316
-3.8761084	chaussures	-0.08304316
-3.8761084	train	-0.08304316
-3.8761084	air	-0.08304316
-3.8761084	triste	-0.08304316
-3.7270186	voiture	-0.08304316
-3.8761084	camionnette	-0.08304316
-3.8761084	décharger	-0.08304316
-3.8761084	aliments	-0.08304316
-3.7270186	traiteur	-0.08304316
-3.8761084	vole	-0.08304316
-3.5728374	baguette	-0.2026964
-3.7270186	pain	-0.08304316
-3.8761084	flagrant	-0.08304316
-3.8761084	délit	-0.08304316
-3.4240294	dame	-0.12668361
-3.8761084	apprête	-0.08304316
-3.4240294	Charlie	-0.26233596
-3.313403	Chaplin	-0.1201743
-3.152112	voit	-0.1201743
-3.7270186	expliquer	-0.08304316
-3.8761084	lisais	-0.08304316
-3.8761084	v~	-0.08304316
-3.8761084	volé	-0.08304316
-3.8761084	explication	-0.08304316
-3.7270186	commence	-0.08304316
-3.8761084	foule	-0.08304316
-3.8761084	attroupe	-0.08304316
-3.5728374	policier	-0.1201743
-3.8761084	pourriez	-0.08304316
-3.8761084	décrire	-0.08304316
-3.8761084	déplacements	-0.08304316
-3.8761084	précision	-0.08304316
-3.5728374	journée	-0.15026669
-3.7270186	travaille	-0.08304316
-3.8761084	mét~	-0.08304316
-3.5728374	métro	-0.08304316
-3.8761084	Palais	-0.08304316
-3.7270186	Royal	-0.08304316
-3.8761084	heure	-0.08304316
-3.8761084	excusez	-0.08304316
-3.8761084	-moi	-0.08304316
-3.8761084	huit	-0.08304316
-3.8761084	demie	-0.08304316
-3.8761084	longe	-0.08304316
-3.8761084	Seine	-0.08304316
-3.8761084	passerelle	-0.08304316
-3.8761084	Solférino	-0.08304316
-3.8761084	Grande	-0.08304316
-3.8761084	Chancellerie	-0.08304316
-3.8761084	Légion	-0.08304316
-3.8761084	Honneur	-0.08304316
-3.8761084	peux	-0.08304316
-3.5728374	courses	-0.08304316
-3.2253125	quartier	-0.16666254
-3.8761084	septième	-0.08304316
-3.8761084	vas	-0.08304316
-3.7270186	chez	-0.22983567
-3.8761084	Gibert	-0.08304316
-3.8761084	musée	-0.08304316
-3.8761084	quai	-0.08304316
-3.8761084	Branly	-0.08304316
-3.8761084	reviens	-0.08304316
-3.8761084	manifestations	-0.08304316
-3.7270186	quatre-vingt-six	-0.08304316
-3.8761084	plan	-0.08304316
-3.8761084	quar~	-0.08304316
-3.8761084	Germain	-0.08304316
-3.8761084	Henri	-0.08304316
-3.8761084	Quatre	-0.08304316
-3.8761084	Faubourg	-0.08304316
-3.8761084	Antoine	-0.08304316
-3.8761084	vivant	-0.08304316
-3.7270186	agréable	-0.08304316
-3.8761084	affectation	-0.08304316
-3.8761084	revenir	-0.08304316
-3.8761084	savez	-0.08304316
-3.8761084	YYY	-0.08304316
-3.8761084	voisin	-0.08304316
-3.4240294	prend	-0.08304316
-3.8761084	discours	-0.08304316
-3.8761084	ému	-0.08304316
-3.8761084	particulier	-0.08304316
-3.7270186	beau	-0.08304316
-3.8761084	trajet	-0.08304316
-3.8761084	moments	-0.08304316
-3.8761084	utilise	-0.08304316
-3.7270186	transports	-0.22983567
-3.7270186	Diderot	-0.22983567
-3.8761084	préfecture	-0.08304316
-3.8761084	connue	-0.08304316
-3.8761084	néanmoins	-0.08304316
-3.4240294	existe	-0.08304316
-3.8761084	bureau	-0.08304316
-3.8761084	promener	-0.08304316
-3.5728374	marché	-0.17520429
-3.4240294	Aligre	-0.1201743
-3.8761084	fais	-0.08304316
-3.8761084	Nation	-0.08304316
-3.8761084	Vincennes	-0.08304316
-3.8761084	branchée	-0.08304316
-3.7270186	bio	-0.08304316
-3.4240294	boulanger	-0.12141204
-3.5728374	boutique	-0.2200678
-3.8761084	ponctuel	-0.08304316
-3.7270186	achats	-0.08304316
-3.8761084	ponctuels	-0.08304316
-3.5728374	trucs	-0.08304316
-3.4240294	simplement	-0.15026669
-3.7270186	écoles	-0.08304316
-3.8761084	jugement	-0.08304316
-3.8761084	scolarité	-0.08304316
-3.4240294	école	-0.08304316
-3.8761084	Picpus	-0.08304316
-3.8761084	Arago	-0.08304316
-3.8761084	annexe	-0.08304316
-3.8761084	"dailleurs"	-0.08304316
-3.8761084	Reuilly	-0.08304316
-3.7270186	classe	-0.08304316
-3.8761084	philo	-0.08304316
-3.7270186	Valéry	-0.08304316
-3.8761084	prépa	-0.08304316
-3.8761084	sor~	-0.08304316
-3.8761084	Censier	-0.08304316
-3.8761084	Sorbonne	-0.08304316
-3.8761084	croiser	-0.08304316
-3.7270186	bonnes	-0.22983567
-3.7270186	souvenez	-0.08304316
-3.8761084	tournait	-0.08304316
-3.7270186	tel	-0.08304316
-3.8761084	ennui	-0.08304316
-3.8761084	épouvantable	-0.08304316
-3.8761084	conçue	-0.08304316
-3.8761084	pensum	-0.08304316
-3.7270186	autrefois	-0.08304316
-3.8761084	bons	-0.08304316
-3.8761084	matérielles	-0.08304316
-3.8761084	baraquements	-0.08304316
-3.8761084	sixième	-0.08304316
-3.7270186	rêveur	-0.22983567
-3.7270186	nombreux	-0.22983567
-3.5728374	quarante	-0.15026669
-3.7270186	trente-neuf	-0.22983567
-3.8761084	ceci	-0.08304316
-3.7270186	ambiance	-0.08304316
-3.8761084	garde	-0.08304316
-3.8761084	excellent	-0.08304316
-3.8761084	souvenir	-0.08304316
-3.8761084	avoue	-0.08304316
-3.8761084	Zep	-0.08304316
-3.8761084	intervenu	-0.08304316
-3.5728374	d~	-0.08304316
-3.5728374	dû	-0.08304316
-3.8761084	construit	-0.08304316
-3.8761084	soixante-quatre	-0.08304316
-3.7270186	soixante-cinq	-0.08304316
-3.8761084	amenait	-0.08304316
-3.8761084	étudiant	-0.08304316
-3.8761084	étu~	-0.08304316
-3.8761084	jeu~	-0.08304316
-3.8761084	lycéen	-0.08304316
-3.5728374	américain	-0.08304316
-3.8761084	montrer	-0.08304316
-3.7270186	faisait	-0.08304316
-3.8761084	matière	-0.08304316
-3.7270186	enseignants	-0.08304316
-3.8761084	particulièrement	-0.08304316
-3.8761084	marqué	-0.08304316
-3.5728374	façon	-0.08304316
-3.8761084	eus	-0.08304316
-3.8761084	prolonge	-0.08304316
-3.8761084	Sainte-Claire	-0.08304316
-3.8761084	Stendhal	-0.08304316
-3.7270186	tourne	-0.08304316
-3.8761084	géographe	-0.08304316
-3.7270186	passage	-0.08304316
-3.8761084	amène	-0.08304316
-3.7270186	square	-0.22983567
-3.7270186	rejoindre	-0.08304316
-3.8761084	Étoile	-0.08304316
-3.8761084	itinéraires	-0.08304316
-3.8761084	Lesdiguières	-0.08304316
-3.7270186	Edouard	-0.22983567
-3.8761084	Rey	-0.08304316
-3.8761084	Emmanu~	-0.08304316
-3.8761084	fils	-0.08304316
-3.8761084	Sarce	-0.08304316
-3.8761084	embrouille	-0.08304316
-3.8761084	succès	-0.08304316
-3.7270186	réseaux	-0.22983567
-3.7270186	sociaux	-0.08304316
-3.5728374	internet	-0.08304316
-3.8761084	démontrer	-0.08304316
-3.8761084	utilisateurs	-0.08304316
-3.8761084	Facebook	-0.08304316
-3.8761084	connaissez	-0.08304316
-3.7270186	sites	-0.08304316
-3.8761084	spécialisés	-0.08304316
-3.8761084	ombre	-0.08304316
-3.8761084	communautaires	-0.08304316
-3.8761084	permettent	-0.08304316
-3.8761084	communiquer	-0.08304316
-3.8761084	amis	-0.08304316
-3.8761084	rencontres	-0.08304316
-3.8761084	cercles	-0.08304316
-3.8761084	fermés	-0.08304316
-3.8761084	citer	-0.08304316
-3.7270186	site	-0.08304316
-3.4240294	A	-0.26233596
-3.8761084	Small	-0.08304316
-3.8761084	World	-0.08304316
-3.8761084	serveur	-0.08304316
-3.8761084	club	-0.08304316
-3.8761084	VIP	-0.08304316
-3.7270186	réservé	-0.08304316
-3.8761084	jet	-0.08304316
-3.8761084	set	-0.08304316
-3.8761084	parmi	-0.08304316
-3.5728374	membres	-0.08304316
-3.8761084	Quentin	-0.08304316
-3.8761084	Tarantino	-0.08304316
-3.8761084	incontournable	-0.08304316
-3.8761084	Hilton	-0.08304316
-3.8761084	indéboulonnable	-0.08304316
-3.8761084	Massimo	-0.08304316
-3.8761084	Gargia	-0.08304316
-3.8761084	version	-0.08304316
-3.8761084	cyber	-0.08304316
-3.8761084	espérez	-0.08304316
-3.8761084	entrer	-0.08304316
-3.8761084	tchater	-0.08304316
-3.8761084	échanger	-0.08304316
-3.8761084	photos	-0.08304316
-3.8761084	vacances	-0.08304316
-3.8761084	rapproche	-0.08304316
-3.7270186	accessible	-0.08304316
-3.8761084	invitation	-0.08304316
-3.7270186	people	-0.08304316
-3.8761084	fréquenter	-0.08304316
-3.8761084	peoples	-0.08304316
-3.8761084	branché	-0.08304316
-3.8761084	mortels	-0.08304316
-3.8761084	ziki	-0.08304316
-3.8761084	com	-0.08304316
-3.8761084	Z	-0.08304316
-3.7270186	I	-0.08304316
-3.8761084	K	-0.08304316
-3.8761084	communautaire	-0.08304316
-3.8761084	aider	-0.08304316
-3.8761084	identité	-0.08304316
-3.8761084	numérique	-0.08304316
-3.8761084	éviter	-0.08304316
-3.8761084	dise	-0.08304316
-3.8761084	propos	-0.08304316
-3.8761084	vaut	-0.08304316
-3.8761084	devants	-0.08304316
-3.8761084	diffuser	-0.08304316
-3.8761084	infos	-0.08304316
-3.8761084	concernent	-0.08304316
-3.8761084	récemment	-0.08304316
-3.5728374	Famibook	-0.17520429
-3.8761084	partager	-0.08304316
-3.8761084	vidéos	-0.08304316
-3.8761084	agenda	-0.08304316
-3.4240294	parents	-0.15026669
-3.8761084	cousins	-0.08304316
-3.8761084	tontons	-0.08304316
-3.8761084	cercle	-0.08304316
-3.8761084	familial	-0.08304316
-3.8761084	organiser	-0.08304316
-3.8761084	anniversaire	-0.08304316
-3.8761084	mère	-0.08304316
-3.8761084	suffit	-0.08304316
-3.8761084	code	-0.08304316
-3.8761084	thématiques	-0.08304316
-3.8761084	devraient	-0.08304316
-3.8761084	prochainement	-0.08304316
-3.8761084	amateurs	-0.08304316
-3.8761084	sport	-0.08304316
-3.8761084	clubbers	-0.08304316
-3.8761084	branchés	-0.08304316
-3.8761084	ca~	-0.08304316
-3.8761084	ma~	-0.08304316
-3.8761084	marchandises	-0.08304316
-3.8761084	brioches	-0.08304316
-3.5728374	pauvre	-0.08304316
-3.8761084	mor~	-0.08304316
-3.8761084	morceau	-0.08304316
-3.8761084	tissu	-0.08304316
-3.8761084	habit	-0.08304316
-3.8761084	pourra	-0.08304316
-3.8761084	voler	-0.08304316
-3.8761084	Ch~	-0.08304316
-3.313403	Charlot	-0.12668361
-3.8761084	rencontrent	-0.08304316
-3.8761084	accident	-0.08304316
-3.7270186	tombent	-0.08304316
-3.8761084	disparu	-0.08304316
-3.7270186	partir	-0.08304316
-3.8761084	police	-0.08304316
-3.8761084	rencontrés	-0.08304316
-3.8761084	"puisqu"	-0.08304316
-3.8761084	policiers	-0.08304316
-3.8761084	arrêter	-0.08304316
-3.8761084	simple	-0.08304316
-3.5728374	bout	-0.3434495
-3.8761084	intersection	-0.08304316
-3.8761084	carrefour	-0.08304316
-3.8761084	tournes	-0.08304316
-3.4240294	Albert	-0.46838826
-3.8761084	Premier	-0.08304316
-3.8761084	Belgique	-0.08304316
-3.8761084	verras	-0.08304316
-3.8761084	seras	-0.08304316
-3.8761084	conférence	-0.08304316
-3.7270186	philosophie	-0.08304316
-3.8761084	guillemets	-0.08304316
-3.5728374	esthétique	-0.15026669
-3.7270186	verrez	-0.08304316
-3.8761084	généraliste	-0.08304316
-3.8761084	mêle	-0.08304316
-3.8761084	points	-0.08304316
-3.5728374	seulement	-0.17520429
-3.8761084	sociologie	-0.08304316
-3.8761084	caetera	-0.08304316
-3.8761084	traiter	-0.08304316
-3.8761084	sujet	-0.08304316
-3.8761084	"quelqu"	-0.08304316
-3.8761084	discipliné	-0.08304316
-3.8761084	reflet	-0.08304316
-3.7270186	question	-0.08304316
-3.7270186	aspects	-0.22983567
-3.8761084	nuancée	-0.08304316
-3.7270186	formes	-0.22983567
-3.8761084	dimensions	-0.08304316
-3.8761084	commencerais	-0.08304316
-3.7270186	préalable	-0.08304316
-3.7270186	importante	-0.17520429
-3.7270186	philosophes	-0.08304316
-3.8761084	admettre	-0.08304316
-3.7270186	notion	-0.08304316
-3.8761084	floue	-0.08304316
-3.8761084	informe	-0.08304316
-3.7270186	concept	-0.15026669
-3.8761084	flou	-0.08304316
-3.8761084	disciple	-0.08304316
-3.8761084	anglo	-0.08304316
-3.8761084	aus~	-0.08304316
-3.8761084	autrichien	-0.08304316
-3.8761084	Wittgenstein	-0.08304316
-3.8761084	avancé	-0.08304316
-3.8761084	contours	-0.08304316
-3.8761084	changeants	-0.08304316
-3.8761084	changeant	-0.08304316
-3.313403	selon	-0.29924902
-3.8761084	considérées	-0.08304316
-3.8761084	apprendre	-0.08304316
-3.8761084	dirais	-0.08304316
-3.8761084	variations	-0.08304316
-3.8761084	liées	-0.08304316
-3.7270186	connaissance	-0.08304316
-3.7270186	ex~	-0.08304316
-3.8761084	renaissance	-0.08304316
-3.8761084	descriptif	-0.08304316
-3.8761084	représenter	-0.08304316
-3.8761084	telles	-0.08304316
-3.8761084	correctement	-0.08304316
-3.8761084	vues	-0.08304316
-3.8761084	hédonistes	-0.08304316
-3.8761084	préoccupent	-0.08304316
-3.7270186	distinctions	-0.08304316
-3.8761084	préliminaires	-0.08304316
-3.4240294	distinction	-0.13596377
-3.8761084	oublie	-0.08304316
-3.8761084	connaît	-0.08304316
-3.8761084	fabrique	-0.08304316
-3.8761084	produit	-0.08304316
-3.8761084	pratique	-0.08304316
-3.8761084	reçoit	-0.08304316
-3.8761084	expérimente	-0.08304316
-3.8761084	éprouve	-0.08304316
-3.8761084	date	-0.08304316
-3.8761084	haute	-0.08304316
-3.8761084	antiquité	-0.08304316
-3.8761084	Platon	-0.08304316
-3.8761084	consiste	-0.08304316
-3.8761084	fabriquer	-0.08304316
-3.8761084	terme	-0.08304316
-3.7270186	poésie	-0.08304316
-3.8761084	au~	-0.08304316
-3.8761084	curieux	-0.08304316
-3.8761084	puisse	-0.08304316
-3.8761084	paraître	-0.08304316
-3.7270186	aspect	-0.08304316
-3.8761084	exp~	-0.08304316
-3.8761084	éprouver	-0.08304316
-3.7270186	ressentir	-0.08304316
-3.5728374	expérience	-0.1201743
-3.8761084	artistique	-0.08304316
-3.7270186	aisthesis	-0.08304316
-3.8761084	sensation	-0.08304316
-3.8761084	grec	-0.08304316
-3.8761084	phénomène	-0.08304316
-3.8761084	recevoir	-0.08304316
-3.8761084	sen~	-0.08304316
-3.7270186	poïésis	-0.08304316
-3.5728374	mot	-0.08304316
-3.8761084	intéressant	-0.08304316
-3.8761084	souligner	-0.08304316
-3.8761084	poursuivez	-0.08304316
-3.7270186	parlé	-0.15026669
-3.8761084	ressentie	-0.08304316
-3.7270186	fabrication	-0.08304316
-3.8761084	affaire	-0.08304316
-3.8761084	spécialiste	-0.08304316
-3.8761084	commanditaire	-0.08304316
-3.8761084	commandait	-0.08304316
-3.7270186	oeuvres	-0.22983567
-3.8761084	achetait	-0.08304316
-3.8761084	spectateur	-0.08304316
-3.8761084	dix-huitième	-0.08304316
-3.7270186	production	-0.08304316
-3.8761084	important	-0.08304316
-3.7270186	réception	-0.08304316
-3.8761084	dégage	-0.08304316
-3.8761084	dix-septième	-0.08304316
-3.8761084	connaissons	-0.08304316
-3.8761084	différence	-0.08304316
-3.8761084	pratiquez	-0.08304316
-3.7270186	musique	-0.08304316
-3.8761084	pratiquant	-0.08304316
-3.7270186	consommateur	-0.22983567
-3.8761084	ayez	-0.08304316
-3.8761084	baladeur	-0.08304316
-3.8761084	connaissiez	-0.08304316
-3.8761084	musicale	-0.08304316
-3.8761084	fondamentale	-0.08304316
-3.8761084	composante	-0.08304316
-3.8761084	varie	-0.08304316
-3.7270186	fonctions	-0.08304316
-3.2253125	extrêmement	-0.08304316
-3.8761084	diverses	-0.08304316
-3.8761084	époques	-0.08304316
-3.7270186	religieuses	-0.08304316
-3.8761084	presque	-0.08304316
-3.8761084	sacrées	-0.08304316
-3.8761084	quelquefois	-0.08304316
-3.7270186	utilisé	-0.08304316
-3.8761084	cérémonies	-0.08304316
-3.8761084	dehors	-0.08304316
-3.7270186	masques	-0.08304316
-3.8761084	africains	-0.08304316
-3.7270186	peinture	-0.08304316
-3.7270186	religieuse	-0.08304316
-3.8761084	Occident	-0.08304316
-3.8761084	seizième	-0.08304316
-3.8761084	éminemment	-0.08304316
-3.8761084	parlerai	-0.08304316
-3.7270186	politiques	-0.08304316
-3.8761084	décoratives	-0.08304316
-3.7270186	pensez	-0.08304316
-3.8761084	décoration	-0.08304316
-3.8761084	regardez	-0.08304316
-3.8761084	stations	-0.08304316
-3.8761084	décorées	-0.08304316
-3.8761084	travaux	-0.08304316
-3.8761084	design	-0.08304316
-3.5728374	attendez	-0.08304316
-3.8761084	critique	-0.08304316
-3.7270186	différentes	-0.08304316
-3.8761084	présentes	-0.08304316
-3.8761084	dimension	-0.08304316
-3.8761084	appellerai	-0.08304316
-3.8761084	cognitive	-0.08304316
-3.8761084	hédo~	-0.08304316
-3.8761084	hédonistique	-0.08304316
-3.8761084	importantes	-0.08304316
-3.8761084	acharnée	-0.08304316
-3.7270186	actualité	-0.08304316
-3.313403	littéraire	-0.13596377
-3.8761084	épouvantablement	-0.08304316
-3.8761084	éclectique	-0.08304316
-3.7270186	romans	-0.08304316
-3.8761084	étrangers	-0.08304316
-3.8761084	contemporains	-0.08304316
-3.8761084	essais	-0.08304316
-3.8761084	bande	-0.08304316
-3.8761084	dessinée	-0.08304316
-3.8761084	cuisine	-0.08304316
-3.8761084	varié	-0.08304316
-3.8761084	regarder	-0.08304316
-3.8761084	trouverai	-0.08304316
-3.313403	livre	-0.13076939
-3.8761084	Ségolène	-0.08304316
-3.7270186	parlez	-0.08304316
-3.8761084	intervenir	-0.08304316
-3.8761084	courte	-0.08304316
-3.8761084	lisez	-0.08304316
-3.8761084	cherche	-0.08304316
-3.7270186	lit	-0.08304316
-3.8761084	Pascale	-0.08304316
-3.8761084	Ferran	-0.08304316
-3.8761084	chambre	-0.08304316
-3.8761084	relis	-0.08304316
-3.8761084	fétiches	-0.08304316
-3.5728374	lire	-0.08304316
-3.8761084	Haruki	-0.08304316
-3.7270186	Murakami	-0.08304316
-3.8761084	frontière	-0.08304316
-3.8761084	ouest	-0.08304316
-3.8761084	soleil	-0.08304316
-3.8761084	écris	-0.08304316
-3.8761084	univers	-0.08304316
-3.8761084	précieux	-0.08304316
-3.8761084	atmosphériquement	-0.08304316
-3.8761084	viens	-0.08304316
-3.8761084	relire	-0.08304316
-3.8761084	dernier	-0.08304316
-3.8761084	recueil	-0.08304316
-3.8761084	nouvelles	-0.08304316
-3.8761084	Saules	-0.08304316
-3.8761084	aveugles	-0.08304316
-3.8761084	endormies	-0.08304316
-3.8761084	Chroniques	-0.08304316
-3.8761084	oiseau	-0.08304316
-3.7270186	ressort	-0.08304316
-3.8761084	mouton	-0.08304316
-3.8761084	sauvage	-0.08304316
-3.7270186	Kafka	-0.22983567
-3.8761084	rivage	-0.08304316
-3.8761084	chef	-0.08304316
-3.7270186	oeuvre	-0.08304316
-3.8761084	Au	-0.08304316
-3.8761084	adore	-0.08304316
-3.7270186	littéralement	-0.08304316
-3.8761084	magnifique	-0.08304316
-3.8761084	obsède	-0.08304316
-3.8761084	vachement	-0.08304316
-3.8761084	définir	-0.08304316
-3.5728374	u~	-0.17520429
-3.8761084	prégnante	-0.08304316
-3.8761084	irréelles	-0.08304316
-3.8761084	surnaturelles	-0.08304316
-3.8761084	personnages	-0.08304316
-3.8761084	principal	-0.08304316
-3.8761084	vieil	-0.08304316
-3.5728374	homme	-0.08304316
-3.8761084	soucis	-0.08304316
-3.8761084	chats	-0.08304316
-3.8761084	occasion	-0.08304316
-3.8761084	fantaisie	-0.08304316
-3.8761084	légèreté	-0.08304316
-3.8761084	humour	-0.08304316
-3.8761084	incroyable	-0.08304316
-3.7270186	mélange	-0.08304316
-3.8761084	crudité	-0.08304316
-3.8761084	sexualité	-0.08304316
-3.8761084	descriptions	-0.08304316
-3.8761084	crues	-0.08304316
-3.8761084	belles	-0.08304316
-3.7270186	étrange	-0.08304316
-3.8761084	renverse	-0.08304316
-3.8761084	grêle	-0.08304316
-3.8761084	fenêtres	-0.08304316
-3.8761084	précise	-0.08304316
-3.8761084	auditeurs	-0.08304316
-3.8761084	aperçu	-0.08304316
-3.8761084	écriture	-0.08304316
-3.8761084	pourrais	-0.08304316
-3.8761084	disiez	-0.08304316
-3.8761084	sexe	-0.08304316
-3.7270186	bougez	-0.22983567
-3.8761084	attends	-0.08304316
-3.8761084	sûre	-0.08304316
-3.8761084	vouloir	-0.08304316
-3.8761084	truc	-0.08304316
-3.8761084	pudeur	-0.08304316
-3.7270186	pudique	-0.08304316
-3.8761084	dites	-0.08304316
-3.8761084	totalement	-0.08304316
-3.8761084	paraît	-0.08304316
-3.8761084	incongruité	-0.08304316
-3.8761084	exercice	-0.08304316
-3.8761084	pourrait	-0.08304316
-3.8761084	page	-0.08304316
-3.8761084	quatre-vingt-onze	-0.08304316
-3.8761084	enfance	-0.08304316
-3.8761084	dix	-0.08304316
-3.4240294	douze	-0.15026669
-3.8761084	finissent	-0.08304316
-3.8761084	bouleverse	-0.08304316
-3.8761084	raconté	-0.08304316
-3.8761084	nul	-0.08304316
-3.8761084	passa~	-0.08304316
-3.8761084	feront	-0.08304316
-3.8761084	feux	-0.08304316
-3.8761084	Bel~	-0.08304316
-3.8761084	arrivé	-0.08304316
-3.8761084	complexe	-0.08304316
-3.8761084	pouvez	-0.08304316
-3.5728374	louper	-0.08304316
-3.8761084	suivre	-0.08304316
-3.8761084	perdre	-0.08304316
-3.7270186	voulu	-0.08304316
-3.8761084	savoir	-0.08304316
-3.8761084	pouvais	-0.08304316
-3.8761084	rendre	-0.08304316
-3.8761084	téléphérique	-0.08304316
-3.7270186	bulles	-0.17520429
-3.7270186	compliqué	-0.08304316
-3.8761084	partez	-0.08304316
-3.8761084	exactement	-0.08304316
-3.8761084	Habitat	-0.08304316
-3.8761084	fff	-0.08304316
-3.8761084	machin	-0.08304316
-3.8761084	manière	-0.08304316
-3.8761084	Champollion	-0.08304316
-3.8761084	B	-0.08304316
-3.7270186	passent	-0.08304316
-3.8761084	tourner	-0.08304316
-3.8761084	quais	-0.08304316
-3.8761084	banque	-0.08304316
-3.8761084	angle	-0.08304316
-3.7270186	repérer	-0.08304316
-3.5728374	dès	-0.17520429
-3.8761084	MacDo	-0.08304316
-3.8761084	Fnac	-0.08304316
-3.8761084	ni~	-0.08304316
-3.8761084	serez	-0.08304316
-3.8761084	tard	-0.08304316
-3.7270186	passez	-0.15026669
-3.8761084	manège	-0.08304316
-3.8761084	longez	-0.08304316
-3.8761084	galeries	-0.08304316
-3.8761084	Lafayette	-0.08304316
-3.8761084	cafés	-0.08304316
-3.8761084	brasseries	-0.08304316
-3.8761084	terrasses	-0.08304316
-3.7270186	Häagen	-0.22983567
-3.8761084	Dazs	-0.08304316
-3.8761084	fontaine	-0.08304316
-3.8761084	Loisirs	-0.08304316
-3.8761084	situe	-0.08304316
-3.5728374	porche	-0.17520429
-3.8761084	traversez	-0.08304316
-3.7270186	dessous	-0.22983567
-3.5728374	kiosque	-0.17520429
-3.8761084	passant	-0.08304316
-3.8761084	arrivez	-0.08304316
-3.7270186	jardin	-0.08304316
-3.8761084	diriger	-0.08304316
-3.8761084	restant	-0.08304316
-3.8761084	allant	-0.08304316
-3.8761084	dirigeant	-0.08304316
-3.8761084	milieu	-0.08304316
-3.4240294	scène	-0.08304316
-3.8761084	couverte	-0.08304316
-3.8761084	bâtiment	-0.08304316
-3.8761084	verra	-0.08304316
-3.8761084	remercie	-0.08304316
-3.8761084	affamée	-0.08304316
-3.8761084	lorgne	-0.08304316
-3.8761084	vitrine	-0.08304316
-3.7270186	pâtissier	-0.08304316
-3.8761084	garçon	-0.08304316
-3.8761084	transporte	-0.08304316
-3.8761084	plateaux	-0.08304316
-3.8761084	chargés	-0.08304316
-3.8761084	friandises	-0.08304316
-3.8761084	gâteaux	-0.08304316
-3.8761084	camion	-0.08304316
-3.8761084	livraison	-0.08304316
-3.8761084	sandwich	-0.08304316
-3.8761084	enfuit	-0.08304316
-3.8761084	heurte	-0.08304316
-3.8761084	personnage	-0.08304316
-3.8761084	apparaît	-0.08304316
-3.5728374	coin	-0.08304316
-3.8761084	vertueuse	-0.08304316
-3.8761084	pensante	-0.08304316
-3.8761084	bourgeoisie	-0.08304316
-3.8761084	dénonce	-0.08304316
-3.8761084	larcin	-0.08304316
-3.8761084	gaillard	-0.08304316
-3.8761084	employé	-0.08304316
-3.8761084	pâtisserie	-0.08304316
-3.8761084	précipite	-0.08304316
-3.8761084	rétablir	-0.08304316
-3.7270186	explications	-0.08304316
-3.8761084	comprend	-0.08304316
-3.8761084	mè~	-0.08304316
-3.8761084	emmené	-0.08304316
-3.8761084	ébahie	-0.08304316
-3.8761084	trottoir	-0.08304316
-3.8761084	libre	-0.08304316
-3.8761084	accorde	-0.08304316
-3.8761084	puissance	-0.08304316
-3.8761084	énorme	-0.08304316
-3.7270186	acte	-0.17520429
-3.7270186	différents	-0.08304316
-3.8761084	participer	-0.08304316
-3.8761084	débuts	-0.08304316
-3.8761084	carrière	-0.08304316
-3.5728374	écrivain	-0.08304316
-3.8761084	écrivant	-0.08304316
-3.7270186	vérité	-0.08304316
-3.8761084	nue	-0.08304316
-3.8761084	aime	-0.08304316
-3.4240294	cela	-0.08304316
-3.8761084	motif	-0.08304316
-3.5728374	jouissance	-0.13596377
-3.8761084	motivations	-0.08304316
-3.8761084	débats	-0.08304316
-3.8761084	prolongement	-0.08304316
-3.8761084	séparable	-0.08304316
-3.8761084	posez	-0.08304316
-3.8761084	savons	-0.08304316
-3.7270186	langage	-0.08304316
-3.8761084	parlant	-0.08304316
-3.8761084	pensant	-0.08304316
-3.8761084	conséquent	-0.08304316
-3.8761084	certains	-0.08304316
-3.8761084	mien	-0.08304316
-3.8761084	immédiatement	-0.08304316
-3.8761084	lié	-0.08304316
-3.8761084	visualise	-0.08304316
-3.8761084	écrite	-0.08304316
-3.8761084	tendance	-0.08304316
-3.8761084	ambigu	-0.08304316
-3.8761084	phrases	-0.08304316
-3.8761084	pensées	-0.08304316
-3.8761084	penseur	-0.08304316
-3.8761084	entendait	-0.08304316
-3.8761084	phrase	-0.08304316
-3.8761084	réciproquement	-0.08304316
-3.8761084	situer	-0.08304316
-3.8761084	réhabiliter	-0.08304316
-3.5728374	lecteur	-0.15026669
-3.8761084	tâche	-0.08304316
-3.7270186	historique	-0.08304316
-3.8761084	accomplir	-0.08304316
-3.7270186	littérature	-0.08304316
-3.8761084	privilégiait	-0.08304316
-3.8761084	histoires	-0.08304316
-3.5728374	écrivains	-0.08304316
-3.8761084	pensait	-0.08304316
-3.7270186	lecture	-0.08304316
-3.8761084	intéressait	-0.08304316
-3.7270186	théorie	-0.22983567
-3.8761084	associer	-0.08304316
-3.8761084	compénètrent	-0.08304316
-3.8761084	ébauche	-0.08304316
-3.7270186	certainement	-0.22983567
-3.8761084	Roland	-0.08304316
-3.8761084	Barthes	-0.08304316
-3.8761084	rappelez	-0.08304316
-3.8761084	Bachelard	-0.08304316
-3.8761084	lus	-0.08304316
-3.8761084	poser	-0.08304316
-3.8761084	-ils	-0.08304316
-3.8761084	existé	-0.08304316
-3.8761084	travers	-0.08304316
-3.8761084	éclairages	-0.08304316
-3.8761084	historiques	-0.08304316
-3.8761084	perte	-0.08304316
-3.8761084	t	-0.08304316
-3.8761084	anti	-0.08304316
-3.8761084	contre-littérature	-0.08304316
-3.8761084	L	-0.08304316
-3.8761084	véritable	-0.08304316
-3.7270186	institution	-0.08304316
-3.8761084	institutions	-0.08304316
-3.8761084	institutionnel	-0.08304316
-3.8761084	disparaître	-0.08304316
-3.8761084	modifier	-0.08304316
-3.8761084	preuve	-0.08304316
-3.8761084	soixante-quinze	-0.08304316
-3.7270186	adolescent	-0.08304316
-3.8761084	leaders	-0.08304316
-3.8761084	Proust	-0.08304316
-3.8761084	Gide	-0.08304316
-3.8761084	Claudel	-0.08304316
-3.8761084	Malraux	-0.08304316
-3.8761084	noms	-0.08304316
-3.8761084	polarisaient	-0.08304316
-3.8761084	séduction	-0.08304316
-3.8761084	culturelle	-0.08304316
-3.8761084	or	-0.08304316
-3.8761084	reconnaître	-0.08304316
-3.8761084	intellectuels	-0.08304316
-3.8761084	professeurs	-0.08304316
-3.8761084	statut	-0.08304316
-3.4240294	souvent	-0.08304316
-3.8761084	honteux	-0.08304316
-3.8761084	désigne	-0.08304316
-3.8761084	mine	-0.08304316
-3.8761084	Mauriac	-0.08304316
-3.8761084	reconnaissez	-0.08304316
-3.8761084	parlais	-0.08304316
-3.8761084	charnière	-0.08304316
-3.8761084	désagrégation	-0.08304316
-3.8761084	littér~	-0.08304316
-3.8761084	Sartre	-0.08304316
-3.8761084	tenu	-0.08304316
-3.8761084	tient	-0.08304316
-3.8761084	leadership	-0.08304316
-3.8761084	culture	-0.08304316
-3.8761084	précisément	-0.08304316
-3.8761084	définit	-0.08304316
-3.7270186	destruction	-0.22983567
-3.8761084	semblant	-0.08304316
-3.8761084	contribue	-0.08304316
-3.8761084	contribué	-0.08304316
-3.8761084	puissamment	-0.08304316
-3.8761084	mythe	-0.08304316
-3.8761084	vieillissent	-0.08304316
-3.8761084	partis	-0.08304316
-3.8761084	reviennent	-0.08304316
-3.8761084	nouveaux	-0.08304316
-3.8761084	proches	-0.08304316
-3.8761084	argent	-0.08304316
-3.8761084	loyers	-0.08304316
-3.8761084	immobilier	-0.08304316
-3.8761084	cher	-0.08304316
-3.8761084	chiffres	-0.08304316
-3.8761084	augmenté	-0.08304316
-3.8761084	vert	-0.08304316
-3.8761084	fameux	-0.08304316
-3.7270186	treize	-0.08304316
-3.8761084	maintenir	-0.08304316
-3.8761084	clientèles	-0.08304316
-3.8761084	location	-0.08304316
-3.8761084	moyenne	-0.08304316
-3.8761084	déménagements	-0.08304316
-3.8761084	emménagements	-0.08304316
-3.8761084	permanence	-0.08304316
-3.8761084	restent	-0.08304316
-3.8761084	apparemment	-0.08304316
-3.8761084	appartements	-0.08304316
-3.8761084	couples	-0.08304316
-3.8761084	installent	-0.08304316
-3.8761084	enfant	-0.08304316
-3.7270186	partent	-0.08304316
-3.8761084	banlieue	-0.08304316
-3.7270186	changements	-0.08304316
-3.8761084	vingt-trois	-0.08304316
-3.8761084	petites	-0.08304316
-3.8761084	rues	-0.08304316
-3.7270186	rentrent	-0.08304316
-3.7270186	quartiers	-0.08304316
-3.8761084	clientèle	-0.08304316
-3.8761084	financier	-0.08304316
-3.8761084	prévu	-0.08304316
-3.8761084	interroger	-0.08304316
-3.7270186	dessus	-0.22983567
-3.8761084	lycées	-0.08304316
-3.8761084	gratuits	-0.08304316
-3.8761084	collèges	-0.08304316
-3.8761084	Alésia	-0.08304316
-3.8761084	privée	-0.08304316
-3.8761084	travaillais	-0.08304316
-3.8761084	fermé	-0.08304316
-3.7270186	maternelles	-0.08304316
-3.8761084	publiques	-0.08304316
-3.8761084	primaire	-0.08304316
-3.8761084	Prisse	-0.08304316
-3.8761084	Avennes	-0.08304316
-3.8761084	pensais	-0.08304316
-3.8761084	jeunesse	-0.08304316
-3.8761084	détente	-0.08304316
-3.5728374	scolaire	-0.08304316
-3.8761084	albums	-0.08304316
-3.8761084	spécialement	-0.08304316
-3.8761084	orientés	-0.08304316
-3.8761084	automatiquement	-0.08304316
-3.8761084	orientent	-0.08304316
-3.8761084	achètent	-0.08304316
-3.8761084	crise	-0.08304316
-3.8761084	générale	-0.08304316
-3.8761084	inquiets	-0.08304316
-3.8761084	absorbés	-0.08304316
-3.5728374	image	-0.08304316
-3.8761084	loisir	-0.08304316
-3.7270186	générations	-0.08304316
-3.8761084	concurrence	-0.08304316
-3.8761084	vente	-0.08304316
-3.8761084	Internet	-0.08304316
-3.8761084	mangé	-0.08304316
-3.8761084	énormément	-0.08304316
-3.8761084	pen~	-0.08304316
-3.8761084	horaire	-0.08304316
-3.7270186	dis	-0.17520429
-3.8761084	périphériques	-0.08304316
-3.8761084	dortoir	-0.08304316
-3.5728374	tôt	-0.17520429
-3.8761084	parisienne	-0.08304316
-3.8761084	aurait	-0.08304316
-3.8761084	quatorzième	-0.08304316
-3.8761084	privilégiés	-0.08304316
-3.8761084	restaient	-0.08304316
-3.8761084	immeuble	-0.08304316
-3.8761084	voisins	-0.08304316
-3.8761084	sept	-0.08304316
-3.8761084	eux	-0.08304316
-3.8761084	horaires	-0.08304316
-3.8761084	abominable	-0.08304316
-3.8761084	rentrer	-0.08304316
-3.8761084	devrais	-0.08304316
-3.8761084	fermée	-0.08304316
-3.8761084	leurs	-0.08304316
-3.8761084	dix-neuf	-0.08304316
-3.8761084	habiller	-0.08304316
-3.8761084	usine	-0.08304316
-3.8761084	habillée	-0.08304316
-3.8761084	noir	-0.08304316
-3.8761084	devanture	-0.08304316
-3.8761084	magasin	-0.08304316
-3.8761084	profite	-0.08304316
-3.8761084	piquer	-0.08304316
-3.7270186	vieille	-0.08304316
-3.5728374	vol	-0.19623953
-3.8761084	prévient	-0.08304316
-3.8761084	terre	-0.08304316
-3.8761084	sol	-0.08304316
-3.8761084	rattraper	-0.08304316
-3.8761084	brouhaha	-0.08304316
-3.8761084	éner~	-0.08304316
-3.8761084	énervé	-0.08304316
-3.7270186	explique	-0.08304316
-3.8761084	seigneur	-0.08304316
-3.8761084	embarque	-0.08304316
-3.8761084	intéressée	-0.08304316
-3.8761084	flics	-0.08304316
-3.8761084	es	-0.08304316
-3.8761084	enchaîne	-0.08304316
-3.8761084	priori	-0.08304316
-3.8761084	stationner	-0.08304316
-3.8761084	baguettes	-0.08304316
-3.8761084	sort	-0.08304316
-3.8761084	manque	-0.08304316
-3.8761084	sauve	-0.08304316
-3.8761084	âgée	-0.08304316
-3.7270186	bourgeoise	-0.08304316
-3.8761084	conflit	-0.08304316
-3.8761084	social	-0.08304316
-3.8761084	anecdote	-0.08304316
-3.8761084	marrant	-0.08304316
-3.8761084	délate	-0.08304316
-3.8761084	"lorsqu"	-0.08304316
-3.8761084	réaction	-0.08304316
-3.8761084	passait	-0.08304316
-3.8761084	heurtent	-0.08304316
-3.8761084	sauvagement	-0.08304316
-3.8761084	bras	-0.08304316
-3.8761084	déconcentré	-0.08304316
-3.8761084	termine	-0.08304316
-3.8761084	coupure	-0.08304316
-3.7270186	rejoint	-0.08304316

\2-grams:
-0.87822014	euh </s>	0
-1.0652976	bon </s>	0
-1.3236986	pour </s>	0
-0.8312015	aller </s>	0
-0.8316348	CRDT </s>	0
-1.4850808	à </s>	0
-0.5898171	gare </s>	0
-1.3886315	de </s>	0
-0.8316348	Grenoble </s>	0
-1.4962206	je </s>	0
-0.7208742	déjà </s>	0
-1.1092293	avenue </s>	0
-0.6300847	Champon </s>	0
-1.120697	face </s>	0
-0.6300847	MDE </s>	0
-1.4529529	et </s>	0
-1.1771821	place </s>	0
-1.4536114	qui </s>	0
-1.2534578	est </s>	0
-0.98361826	poste </s>	0
-1.3071355	a </s>	0
-0.6300847	Industrie </s>	0
-1.0216283	crois </s>	0
-1.3151808	le </s>	0
-0.7455164	non </s>	0
-1.036099	pas </s>	0
-0.6300847	Gambetta </s>	0
-0.92683995	lequel </s>	0
-1.1324085	autre </s>	0
-1.2005711	donc </s>	0
-1.1474541	vais </s>	0
-0.8316348	Hugo </s>	0
-0.8856505	là </s>	0
-1.0955412	retrouve </s>	0
-1.1628239	près </s>	0
-1.2490953	des </s>	0
-0.85680103	tram </s>	0
-1.0213989	longer </s>	0
-1.0544314	traverser </s>	0
-0.82534647	ça </s>	0
-0.8677461	ensuite </s>	0
-1.3167106	que </s>	0
-0.5898171	Alsace </s>	0
-0.92683995	Lorraine </s>	0
-0.8316348	remonter </s>	0
-1.355965	si </s>	0
-1.062746	bien </s>	0
-0.8316348	continuer </s>	0
-0.7255094	voilà </s>	0
-1.1925523	arrive </s>	0
-0.5898171	bus </s>	0
-1.4036779	ils </s>	0
-1.4169471	ce </s>	0
-0.9407678	côté </s>	0
-0.5392858	-là </s>	0
-1.0671848	alors </s>	0
-1.2608491	tu </s>	0
-0.8797484	vois </s>	0
-1.0881641	tout </s>	0
-1.0008471	droit </s>	0
-1.3909795	un </s>	0
-1.2214669	point </s>	0
-0.98361826	direction </s>	0
-0.6300847	Maurienne </s>	0
-0.8316348	montes </s>	0
-0.50850445	droite </s>	0
-1.0131222	devant </s>	0
-0.6300847	piscine </s>	0
-0.5947895	aussi </s>	0
-0.429545	ville </s>	0
-0.5180103	gauche </s>	0
-0.8316348	indiqué </s>	0
-0.6300847	foire </s>	0
-0.92683995	descends </s>	0
-1.0025278	fait </s>	0
-0.6300847	descend </s>	0
-0.6300847	pompiers </s>	0
-0.8316348	Bastille </s>	0
-1.113422	enfin </s>	0
-0.6300847	téléphone </s>	0
-1.0972431	plus </s>	0
-1.2479596	nous </s>	0
-1.0216283	longtemps </s>	0
-1.0216283	sociétés </s>	0
-1.0216283	commun </s>	0
-0.92683995	pays </s>	0
-0.92683995	politique </s>	0
-0.8316348	sociale </s>	0
-1.1291475	contre </s>	0
-1.0445454	deux </s>	0
-0.6300847	siècles </s>	0
-0.6300847	instruction </s>	0
-1.0213989	seconde </s>	0
-1.0216283	-vous </s>	0
-1.2430439	se </s>	0
-1.0216283	Dame </s>	0
-0.7781378	rue </s>	0
-0.34297988	Strasbourg </s>	0
-0.6300847	Vaucanson </s>	0
-0.8316348	tourisme </s>	0
-0.8316348	République </s>	0
-0.8316348	tombe </s>	0
-1.0696325	va </s>	0
-0.918592	dire </s>	0
-0.6300847	halle </s>	0
-1.0695783	appelle </s>	0
-0.7993124	ici </s>	0
-0.429545	Kenya </s>	0
-0.78109854	oui </s>	0
-0.8316348	commencé </s>	0
-0.71773386	travailler </s>	0
-0.98361826	médecin </s>	0
-0.6619723	endroit </s>	0
-0.6300847	équateur </s>	0
-0.45363522	ans </s>	0
-1.120697	a~ </s>	0
-1.1222234	avec </s>	0
-0.75076777	vraiment </s>	0
-1.1001564	peu </s>	0
-1.1183002	cent </s>	0
-1.0489521	gouvernement </s>	0
-0.92683995	postes </s>	0
-0.98361826	f~ </s>	0
-1.2632034	beaucoup </s>	0
-1.2042994	était </s>	0
-0.6300847	mariée </s>	0
-1.1797059	rien </s>	0
-1.0544314	sorte </s>	0
-0.6619723	compte </s>	0
-1.2317667	faire </s>	0
-1.1324085	petit </s>	0
-1.0213989	arrière </s>	0
-1.1093696	êtes </s>	0
-0.8316348	hasard </s>	0
-0.6300847	semaines </s>	0
-0.92683995	formidable </s>	0
-0.92683995	venue </s>	0
-0.5027596	cinquante </s>	0
-1.0316507	France </s>	0
-0.34297988	française </s>	0
-0.49113	Cannes </s>	0
-1.0489521	guerre </s>	0
-0.6300847	front </s>	0
-0.23683234	naturellement </s>	0
-0.34695873	Mulhouse </s>	0
-0.6300847	rentrés </s>	0
-0.67229766	lycée </s>	0
-0.49113	Angleterre </s>	0
-0.6300847	trente-deux </s>	0
-0.6300847	anglais </s>	0
-1.0489521	Paris </s>	0
-1.0511986	ouais </s>	0
-0.92683995	médecine </s>	0
-0.6300847	dep~ </s>	0
-0.8316348	Henry </s>	0
-0.6300847	passionnant </s>	0
-1.136623	livres </s>	0
-0.8830724	absolument </s>	0
-0.6300847	ét~ </s>	0
-0.49113	Aden </s>	0
-0.8316348	venir </s>	0
-0.8316348	an </s>	0
-0.8316348	hôpital </s>	0
-1.0489521	bas </s>	0
-1.1483815	moment </s>	0
-1.3879012	moi </s>	0
-0.6300847	docteur </s>	0
-0.8316348	docteurs </s>	0
-0.8316348	vingt-neuf </s>	0
-0.6300847	fassiez </s>	0
-0.83030707	trop </s>	0
-0.6300847	brousse </s>	0
-0.6300847	Abeba </s>	0
-0.71773386	c~ </s>	0
-1.0986981	voir </s>	0
-0.92683995	tour </s>	0
-0.6300847	Dominique </s>	0
-0.98361826	fort </s>	0
-0.6300847	déroute </s>	0
-0.8316348	vague </s>	0
-0.92683995	rose </s>	0
-0.6300847	gifle </s>	0
-0.98361826	Sarkozy </s>	0
-1.1513741	être </s>	0
-0.6300847	brûlante </s>	0
-0.8316348	Nord </s>	0
-0.6300847	tienne </s>	0
-0.92683995	sanction </s>	0
-0.8316348	cinglant </s>	0
-0.6300847	Fillon </s>	0
-1.16085	faut </s>	0
-0.83030707	écrit </s>	0
-0.92683995	agit </s>	0
-0.8316348	plaisir </s>	0
-0.6300847	bling </s>	0
-0.6266045	lui </s>	0
-1.1435634	même </s>	0
-0.98361826	UMP </s>	0
-0.6300847	bois </s>	0
-0.6300847	bourrasque </s>	0
-0.6300847	tornade </s>	0
-0.92683995	Mougeotte </s>	0
-1.0955412	frappe </s>	0
-0.6300847	considérable </s>	0
-0.92683995	tirer </s>	0
-1.1291475	Français </s>	0
-1.0955412	change </s>	0
-1.0489521	penser </s>	0
-0.92683995	changement </s>	0
-0.6619723	vite </s>	0
-1.0489521	réponse </s>	0
-0.72567296	maintenant </s>	0
-0.92683995	municipales </s>	0
-0.8316348	national </s>	0
-0.6300847	Marne </s>	0
-0.92683995	message </s>	0
-0.6300847	déchiffrer </s>	0
-0.98361826	également </s>	0
-0.8316348	hier </s>	0
-0.8316348	présidentielle </s>	0
-0.6300847	citoyens </s>	0
-0.5898171	Marseille </s>	0
-1.0857173	soir </s>	0
-0.6300847	Libre </s>	0
-0.6300847	Provence </s>	0
-0.76245964	part </s>	0
-1.0216283	matin </s>	0
-0.6300847	Lyon </s>	0
-1.120182	chose </s>	0
-0.92683995	autrement </s>	0
-1.0857173	fond </s>	0
-0.92683995	forme </s>	0
-0.6300847	Rolex </s>	0
-0.6300847	délicat </s>	0
-1.1746724	peut-être </s>	0
-1.0857173	accord </s>	0
-0.6300847	abstenu </s>	0
-0.58225214	Messi </s>	0
-0.6619723	corner </s>	0
-0.6619723	touche </s>	0
-0.7993124	but </s>	0
-1.0489521	sûr </s>	0
-0.8316348	protestation </s>	0
-0.81822026	ballon </s>	0
-0.98361826	franc </s>	0
-0.8316348	Eugène </s>	0
-0.26548383	hein </s>	0
-0.92683995	revient </s>	0
-0.98361826	effectivement </s>	0
-0.8316348	Gallas </s>	0
-1.0489521	Heinze </s>	0
-0.6300847	penalty </s>	0
-0.6300847	embêtant </s>	0
-1.0695783	Argentins </s>	0
-0.4635803	Rodriguez </s>	0
-0.98361826	réparation </s>	0
-0.92683995	tête </s>	0
-0.92683995	haut </s>	0
-0.6300847	argentins </s>	0
-0.49485987	Agüero </s>	0
-0.6300847	solution </s>	0
-0.92683995	ailleurs </s>	0
-0.7310128	Papa </s>	0
-0.6300847	boîte </s>	0
-0.9371655	Gutiérrez </s>	0
-1.0955412	arrêt </s>	0
-0.6619723	Mandanda </s>	0
-0.8316348	défense </s>	0
-0.8316348	mètres </s>	0
-0.92683995	facile </s>	0
-1.0695783	vrai </s>	0
-0.49113	normalement </s>	0
-1.0779369	seul </s>	0
-0.6300847	jouer </s>	0
-0.34297988	pardon </s>	0
-0.6300847	dégarni </s>	0
-0.34297988	tir </s>	0
-0.6300847	plongé </s>	0
-0.6300847	globalement </s>	0
-0.6300847	relâchement </s>	0
-1.0857173	nouveau </s>	0
-0.34297988	argentin </s>	0
-0.6300847	monter </s>	0
-0.6300847	zéro </s>	0
-0.76245964	problème </s>	0
-0.92683995	importance </s>	0
-0.6300847	confiant </s>	0
-0.6300847	tranquille </s>	0
-0.92683995	attention </s>	0
-0.6300847	nuages </s>	0
-0.6300847	marquage </s>	0
-0.6300847	mule </s>	0
-0.6300847	ouverture </s>	0
-0.7654428	temps </s>	0
-0.6300847	manqué </s>	0
-0.6300847	match </s>	0
-0.6300847	fautes </s>	0
-0.8316348	rencontre </s>	0
-0.8316348	évènements </s>	0
-0.98361826	Zanetti </s>	0
-1.0857173	années </s>	0
-0.6300847	Inter </s>	0
-1.0216283	Gago </s>	0
-0.49113	contré </s>	0
-1.0489521	passer </s>	0
-0.6300847	offensif </s>	0
-0.98361826	courir </s>	0
-0.98361826	sortir </s>	0
-0.92683995	français </s>	0
-0.8316348	séquence </s>	0
-0.6300847	stoppé </s>	0
-0.6300847	assauts </s>	0
-1.0489521	mille </s>	0
-0.8316348	épreuve </s>	0
-0.6300847	peine </s>	0
-1.0216283	vie </s>	0
-0.6300847	défigurés </s>	0
-0.6300847	élus </s>	0
-0.8316348	profondément </s>	0
-0.6300847	acquis </s>	0
-0.92683995	hommes </s>	0
-0.6300847	naturels </s>	0
-1.0695783	société </s>	0
-0.8316348	fraternelle </s>	0
-0.8316348	main </s>	0
-0.98361826	nation </s>	0
-0.76245964	autres </s>	0
-1.0695783	ensemble </s>	0
-0.8316348	singulier </s>	0
-0.6300847	immédiat </s>	0
-0.8316348	certaine </s>	0
-0.8316348	époque </s>	0
-0.6300847	habitudes </s>	0
-0.6300847	âme </s>	0
-0.6300847	confiance </s>	0
-0.6619723	-même </s>	0
-0.8316348	présent </s>	0
-0.9099043	siècle </s>	0
-1.0489521	santé </s>	0
-0.6300847	Shoah </s>	0
-0.98361826	avenir </s>	0
-0.76245964	enfants </s>	0
-0.6300847	humilité </s>	0
-0.8316348	science </s>	0
-1.1231557	sens </s>	0
-0.6300847	éthique </s>	0
-0.6300847	espérance </s>	0
-0.5898171	mieux </s>	0
-0.34297988	humaine </s>	0
-0.92683995	ordre </s>	0
-0.8316348	humanité </s>	0
-0.92683995	combat </s>	0
-1.0544314	difficile </s>	0
-0.6619723	jour </s>	0
-0.8998433	exemple </s>	0
-0.6300847	clonage </s>	0
-0.6300847	planète </s>	0
-0.85680103	monde </s>	0
-0.6300847	sanctionnée </s>	0
-0.8316348	changé </s>	0
-0.6300847	diviser </s>	0
-0.98361826	chacun </s>	0
-0.8316348	réussirons </s>	0
-0.6300847	pauvreté </s>	0
-0.49113	valeurs </s>	0
-0.8316348	responsable </s>	0
-0.92683995	général </s>	0
-0.6300847	justice </s>	0
-0.6300847	exigences </s>	0
-0.6300847	viennent </s>	0
-0.6300847	inventer </s>	0
-0.6300847	donnerons </s>	0
-0.6300847	fatalité </s>	0
-1.0489521	bonne </s>	0
-0.29481122	quoi </s>	0
-0.6300847	travaillez </s>	0
-0.6300847	métiers </s>	0
-1.0544314	comment </s>	0
-0.6300847	automatisme </s>	0
-0.8316348	processeurs </s>	0
-0.6619723	informatique </s>	0
-0.8316348	laboratoire </s>	0
-0.6300847	CNRS </s>	0
-0.92683995	é~ </s>	0
-0.6300847	évolution </s>	0
-0.8316348	pratiquement </s>	0
-0.8316348	développée </s>	0
-0.6300847	appareils </s>	0
-0.8316348	ordinateurs </s>	0
-0.6300847	devenait </s>	0
-1.0216283	écrire </s>	0
-0.6300847	logiciels </s>	0
-0.8316348	heureusement </s>	0
-1.1324085	gens </s>	0
-0.98361826	ordinateur </s>	0
-0.8316348	imagine </s>	0
-0.6300847	machine </s>	0
-0.6300847	débutant </s>	0
-0.8316348	utilisateur </s>	0
-0.6300847	manoeuvre </s>	0
-0.8316348	p~ </s>	0
-0.6300847	obligatoire </s>	0
-0.6300847	erreurs </s>	0
-0.49113	courant </s>	0
-0.6300847	réglé </s>	0
-0.8316348	règle </s>	0
-0.92683995	gros </s>	0
-0.8316348	changer </s>	0
-0.8316348	système </s>	0
-0.6300847	ridicule </s>	0
-0.8316348	bref </s>	0
-0.98361826	Chavant </s>	0
-0.6300847	Grenette </s>	0
-1.0216283	continuez </s>	0
-0.6300847	Dubedout </s>	0
-1.2359004	mh </s>	0
-0.6300847	bleu </s>	0
-0.92683995	remontez </s>	0
-0.92683995	répondre </s>	0
-1.1092293	voyez </s>	0
-1.2017186	art </s>	0
-1.0544314	partie </s>	0
-0.8316348	Klein </s>	0
-0.8316348	référence </s>	0
-0.6300847	philosophique </s>	0
-1.0216283	philosophe </s>	0
-1.1429527	l~ </s>	0
-0.8316348	romantique </s>	0
-0.6300847	création </s>	0
-0.98361826	mort </s>	0
-0.6300847	performance </s>	0
-0.98361826	Sembat </s>	0
-0.9657622	fille </s>	0
-0.6300847	chaussures </s>	0
-0.6300847	triste </s>	0
-0.6300847	aliments </s>	0
-0.8316348	traiteur </s>	0
-0.6007559	baguette </s>	0
-1.0216283	pain </s>	0
-1.0955412	Chaplin </s>	0
-0.6300847	v~ </s>	0
-0.76245964	policier </s>	0
-0.6300847	précision </s>	0
-0.5898171	journée </s>	0
-1.0216283	travaille </s>	0
-0.98361826	métro </s>	0
-0.92683995	Royal </s>	0
-0.6300847	-moi </s>	0
-0.6300847	demie </s>	0
-0.6300847	Solférino </s>	0
-0.6300847	Honneur </s>	0
-0.92683995	courses </s>	0
-0.7015411	quartier </s>	0
-0.6300847	septième </s>	0
-0.6300847	Gibert </s>	0
-0.6300847	Branly </s>	0
-0.6300847	manifestations </s>	0
-0.92683995	quatre-vingt-six </s>	0
-0.6300847	Quatre </s>	0
-0.6300847	vivant </s>	0
-0.8316348	agréable </s>	0
-0.6300847	particulier </s>	0
-0.8316348	trajet </s>	0
-0.34297988	Diderot </s>	0
-0.6300847	bureau </s>	0
-0.6300847	promener </s>	0
-0.76245964	Aligre </s>	0
-0.6300847	Nation </s>	0
-0.6300847	Vincennes </s>	0
-0.8316348	bio </s>	0
-0.80215335	boulanger </s>	0
-0.429545	boutique </s>	0
-0.6300847	ponctuel </s>	0
-0.6300847	ponctuels </s>	0
-0.92683995	trucs </s>	0
-0.92683995	écoles </s>	0
-0.6300847	scolarité </s>	0
-0.8316348	classe </s>	0
-0.8316348	Censier </s>	0
-0.8316348	tel </s>	0
-0.6300847	ennui </s>	0
-0.6300847	épouvantable </s>	0
-0.6300847	pensum </s>	0
-0.6300847	bons </s>	0
-0.8316348	matérielles </s>	0
-0.34297988	rêveur </s>	0
-0.5898171	quarante </s>	0
-0.6300847	souvenir </s>	0
-0.8316348	Zep </s>	0
-0.6300847	intervenu </s>	0
-0.8316348	soixante-cinq </s>	0
-0.6300847	eus </s>	0
-0.6300847	Sainte-Claire </s>	0
-0.6300847	Stendhal </s>	0
-0.6300847	Étoile </s>	0
-0.6300847	itinéraires </s>	0
-0.6300847	Rey </s>	0
-0.6300847	embrouille </s>	0
-1.0489521	internet </s>	0
-0.6300847	démontrer </s>	0
-0.8316348	Facebook </s>	0
-0.6300847	fermés </s>	0
-0.92683995	World </s>	0
-0.6300847	set </s>	0
-0.92683995	membres </s>	0
-0.6300847	Gargia </s>	0
-0.6300847	cyber </s>	0
-0.6300847	invitation </s>	0
-0.6300847	peoples </s>	0
-0.8316348	com </s>	0
-0.6300847	numérique </s>	0
-0.6300847	concernent </s>	0
-1.0213989	parents </s>	0
-0.6300847	tontons </s>	0
-0.6300847	branchés </s>	0
-0.6300847	rencontrent </s>	0
-0.92683995	tombent </s>	0
-0.6300847	disparu </s>	0
-0.8316348	partir </s>	0
-0.6300847	police </s>	0
-0.6300847	arrêter </s>	0
-0.6300847	simple </s>	0
-0.8316348	Belgique </s>	0
-0.6300847	seras </s>	0
-0.6300847	guillemets </s>	0
-0.5898171	esthétique </s>	0
-0.8316348	caetera </s>	0
-0.8316348	sujet </s>	0
-0.34297988	aspects </s>	0
-0.49113	importante </s>	0
-0.6300847	floue </s>	0
-0.8316348	flou </s>	0
-0.6300847	changeants </s>	0
-0.6300847	considérées </s>	0
-0.6300847	variations </s>	0
-1.0216283	connaissance </s>	0
-0.98361826	renaissance </s>	0
-0.6300847	vues </s>	0
-0.8316348	distinctions </s>	0
-0.6300847	préliminaires </s>	0
-0.6300847	éprouve </s>	0
-0.6300847	Platon </s>	0
-0.6300847	fabriquer </s>	0
-0.6300847	paraître </s>	0
-0.8316348	ressentir </s>	0
-0.8316348	artistique </s>	0
-0.92683995	aisthesis </s>	0
-0.92683995	mot </s>	0
-0.92683995	spectateur </s>	0
-0.92683995	réception </s>	0
-1.0216283	musique </s>	0
-0.6300847	musicale </s>	0
-0.8316348	époques </s>	0
-0.8316348	religieuses </s>	0
-0.6300847	quelquefois </s>	0
-0.6300847	cérémonies </s>	0
-0.6300847	Occident </s>	0
-0.6300847	parlerai </s>	0
-0.6300847	design </s>	0
-0.6300847	critique </s>	0
-0.6300847	importantes </s>	0
-0.6619723	littéraire </s>	0
-0.6300847	cuisine </s>	0
-0.6300847	varié </s>	0
-0.7443031	livre </s>	0
-0.6300847	Ferran </s>	0
-0.6300847	chambre </s>	0
-0.92683995	lire </s>	0
-0.98361826	Murakami </s>	0
-0.8316348	soleil </s>	0
-0.6300847	endormies </s>	0
-0.8316348	littéralement </s>	0
-0.6300847	vachement </s>	0
-0.6300847	définir </s>	0
-0.6300847	surnaturelles </s>	0
-0.6300847	légèreté </s>	0
-0.6300847	incroyable </s>	0
-0.6300847	belles </s>	0
-0.6300847	auditeurs </s>	0
-0.6300847	pourrais </s>	0
-0.6300847	attends </s>	0
-0.8316348	pudique </s>	0
-0.6300847	dites </s>	0
-0.8316348	pourrait </s>	0
-0.6300847	quatre-vingt-onze </s>	0
-0.6300847	nul </s>	0
-0.6300847	complexe </s>	0
-0.92683995	louper </s>	0
-0.6300847	perdre </s>	0
-0.9713807	bulles </s>	0
-0.8316348	compliqué </s>	0
-0.8316348	fff </s>	0
-0.6300847	Champollion </s>	0
-0.6300847	B </s>	0
-0.8316348	passent </s>	0
-1.0216283	quais </s>	0
-0.8316348	banque </s>	0
-0.92683995	repérer </s>	0
-0.6300847	tard </s>	0
-0.8316348	longez </s>	0
-0.6300847	Lafayette </s>	0
-0.8316348	cafés </s>	0
-0.6300847	brasseries </s>	0
-0.8316348	Dazs </s>	0
-0.8316348	Loisirs </s>	0
-0.9713807	porche </s>	0
-0.34297988	dessous </s>	0
-0.8316348	jardin </s>	0
-0.98361826	scène </s>	0
-0.6300847	couverte </s>	0
-0.8316348	pâtissier </s>	0
-0.6300847	enfuit </s>	0
-0.6300847	libre </s>	0
-0.8316348	différents </s>	0
-0.92683995	écrivain </s>	0
-0.6300847	écrivant </s>	0
-0.8316348	prolongement </s>	0
-0.6300847	séparable </s>	0
-0.6300847	pensées </s>	0
-0.6300847	penseur </s>	0
-0.6300847	réciproquement </s>	0
-0.5898171	lecteur </s>	0
-0.6300847	accomplir </s>	0
-1.1093696	littérature </s>	0
-0.98361826	écrivains </s>	0
-0.92683995	lecture </s>	0
-0.34297988	certainement </s>	0
-0.6300847	lus </s>	0
-0.6300847	existé </s>	0
-0.6300847	perte </s>	0
-0.6300847	contre-littérature </s>	0
-0.8316348	institution </s>	0
-0.8316348	adolescent </s>	0
-0.6300847	Proust </s>	0
-0.6300847	Malraux </s>	0
-0.6300847	culturelle </s>	0
-0.6300847	intellectuels </s>	0
-0.6300847	professeurs </s>	0
-1.0216283	souvent </s>	0
-0.6300847	honteux </s>	0
-0.6300847	Sartre </s>	0
-0.6300847	vieillissent </s>	0
-0.6300847	nouveaux </s>	0
-0.8316348	cher </s>	0
-0.6300847	chiffres </s>	0
-0.6300847	clientèles </s>	0
-0.6300847	permanence </s>	0
-0.6300847	appartements </s>	0
-0.92683995	partent </s>	0
-0.6300847	banlieue </s>	0
-0.8316348	changements </s>	0
-0.34297988	dessus </s>	0
-0.8316348	lycées </s>	0
-0.6300847	gratuits </s>	0
-0.6300847	Alésia </s>	0
-0.92683995	scolaire </s>	0
-0.8316348	spécialement </s>	0
-0.6300847	inquiets </s>	0
-0.98361826	image </s>	0
-0.8316348	générations </s>	0
-0.6300847	concurrence </s>	0
-0.6300847	Internet </s>	0
-0.6300847	énormément </s>	0
-0.6300847	dortoir </s>	0
-0.9713807	tôt </s>	0
-0.6300847	usine </s>	0
-0.6759989	vol </s>	0
-0.8316348	sol </s>	0
-0.6300847	déconcentré </s>	0
-1.38863	<s> euh	-0.1594082
-1.4310057	euh euh	-0.0537433
-1.4207627	bon euh	-0.05374333
-1.206355	pour euh	-0.05374333
-1.6787603	du euh	-0.05374333
-1.8784468	à euh	-0.05374333
-1.6386311	la euh	-0.05374333
-1.1956911	gare euh	-0.05374333
-1.809217	de euh	-0.05374333
-1.7697983	je euh	-0.05374333
-1.6136061	ben euh	-0.05374333
-1.0882431	remonte euh	-0.05374333
-0.8066982	traverse euh	-0.05374333
-1.3790193	et euh	-0.19817308
-1.6087995	une euh	-0.05374333
-1.4915613	place euh	-0.05374333
-1.669005	qui euh	-0.05374333
-1.6425288	est euh	-0.25627092
-1.4042832	grande euh	-0.05374333
-0.96269363	où euh	-0.05374333
-1.6928674	a euh	-0.05374333
-1.6429372	le euh	-0.05374333
-1.7103817	non euh	-0.05374333
-1.2569034	pas euh	-0.05374333
-1.3826635	boulevard euh	-0.05374333
-1.0255195	donc euh	-0.09449224
-1.4624884	vais euh	-0.05374333
-1.4248388	là euh	-0.13423108
-1.3322897	retrouve euh	-0.05374333
-0.9561668	effet euh	-0.05374333
-0.77019393	près euh	-0.13423108
-1.5919378	des euh	-0.05374333
-1.4017718	tram euh	-0.05374333
-1.5273937	les euh	-0.05374333
-0.64650583	longer euh	-0.13423108
-0.7322089	traverser euh	-0.05374333
-1.5618882	ça euh	-0.35212255
-0.98683685	ensuite euh	-0.05374333
-1.6959149	que euh	-0.05374333
-1.1732202	souviens euh	-0.05374333
-1.239427	bien euh	-0.05374333
-1.599915	toujours euh	-0.05374333
-1.4925494	arrive euh	-0.05374333
-1.7334163	tous euh	-0.05374333
-1.3804288	sont euh	-0.05374333
-1.7844484	ce euh	-0.05374333
-1.5338653	suis euh	-0.05374333
-1.0882431	arrivée euh	-0.05374333
-1.2441767	sur euh	-0.05374333
-1.2542137	alors euh	-0.0921253
-1.4180564	vois euh	-0.05374333
-1.8032434	tout euh	-0.05374333
-1.0882431	arrives euh	-0.05374333
-1.2980076	ligne euh	-0.05374333
-1.4503856	droite euh	-0.05374333
-1.983569	dans euh	-0.05374333
-1.5314881	gauche euh	-0.05374333
-1.2376771	mais euh	-0.05374333
-1.4042832	encore euh	-0.05374333
-1.1764205	fait euh	-0.05374333
-1.1956911	premier euh	-0.05374333
-1.606469	nous euh	-0.05374333
-1.0128592	depuis euh	-0.05374333
-1.8273187	on euh	-0.05374333
-1.2335377	commun euh	-0.05374333
-1.2335377	sommes euh	-0.05374333
-1.4017718	contre euh	-0.05374333
-1.0882431	arraché euh	-0.05374333
-1.3725163	elle euh	-0.18086174
-1.3247925	par euh	-0.05374333
-1.6320314	dire euh	-0.05374333
-1.2310741	oui euh	-0.05374333
-1.7058359	comme euh	-0.05374333
-1.3433907	juste euh	-0.05374333
-1.6065071	ans euh	-0.05374333
-1.0362923	avec euh	-0.05374333
-1.5674634	peu euh	-0.05374333
-1.3146052	abord euh	-0.05374333
-1.2789716	gouvernement euh	-0.05374333
-1.1732202	f~ euh	-0.05374333
-0.9561668	district euh	-0.05374333
-0.7322089	femme euh	-0.05374333
-1.2046896	dit euh	-0.05374333
-0.9561668	petits euh	-0.05374333
-1.5566655	faire euh	-0.05374333
-1.3671778	puisque euh	-0.05374333
-0.90434533	finalement euh	-0.05374333
-1.3871925	êtes euh	-0.05374333
-0.9561668	quarante-neuf euh	-0.05374333
-1.0882431	passé euh	-0.05374333
-1.5277834	France euh	-0.05374333
-1.5932227	ah euh	-0.05374333
-1.5052742	puis euh	-0.05374333
-1.0882431	souvenirs euh	-0.05374333
-1.4382305	lycée euh	-0.05374333
-1.3179165	j~ euh	-0.05374333
-1.2789716	Paris euh	-0.05374333
-0.9561668	rencontré euh	-0.05374333
-0.7041209	type euh	-0.05374333
-0.7375251	absolument euh	-0.05374333
-0.7041209	Somalie euh	-0.05374333
-0.9561668	venir euh	-0.05374333
-1.2335377	travaillé euh	-0.05374333
-1.2789716	bas euh	-0.05374333
-1.4443663	moment euh	-0.05374333
-1.6857467	moi euh	-0.05374333
-1.0882431	malheureusement euh	-0.05374333
-0.9561668	revenue euh	-0.05374333
-1.3826635	écrit euh	-0.05374333
-1.3946061	même euh	-0.05374333
-1.2789716	penser euh	-0.05374333
-0.862836	évidemment euh	-0.05374333
-1.3712485	maintenant euh	-0.05374333
-1.3671778	cas euh	-0.05374333
-1.3322897	part euh	-0.05374333
-1.0882431	autrement euh	-0.05374333
-1.3433907	fond euh	-0.05374333
-1.4843436	peut-être euh	-0.05374333
-0.9561668	arbitre euh	-0.05374333
-1.5112516	Messi euh	-0.05374333
-0.9561668	protestation euh	-0.05374333
-1.1732202	loin euh	-0.05374333
-1.5276362	hein euh	-0.05374333
